tree
version=v4
num_class=1
num_tree_per_iteration=1
label_index=0
max_feature_idx=12
objective=binary sigmoid:1
feature_names=lightgcn_score cooccurrence_score segment_popularity_score known_hobby_compatibility age_group_fit occupation_fit region_fit popularity_prior mismatch_penalty popularity_penalty novelty_bonus category_diversity_reward is_cold_start
feature_infos=none [0:1] none [0:0.43571427464485168] [0:0.8125] [0:0.6834532618522644] [0:0.66666668653488159] [0:1] [0:0.66666668653488159] [0:1] [0:1] none -1:1:0
tree_sizes=1028 1196 978 1088 1193 1172 977 1201 977 1198 1089 1196 1082 1090 983 980 1294 1188 1199 1089 1192 1201 1085 1190 1300 1196

Tree=0
num_leaves=9
num_cat=0
split_feature=1 1 1 9 1 6 4 6
split_gain=224.565 40.0139 17.2048 12.558 15.0045 2.42062 1.98502 1.80917
threshold=0.91010102629661571 0.36316065490245825 0.97752526402473461 0.6642865538597108 0.78835389018058788 0.057417582720518119 0.43369844555854803 0.15901102125644687
decision_type=2 2 2 2 2 2 2 2
left_child=1 6 -2 5 7 -3 -1 -5
right_child=2 3 -4 4 -6 -7 -8 -9
leaf_value=-1.4455809316812571 -1.2912580379836178 -1.3915835009546333 -1.1932457777437639 -1.3655105123613029 -1.3004918888021757 -1.4227265232805344 -1.4200281886241803 -1.3969434487428376
leaf_weight=50.079998880624771 8.1599998176097888 14.079999685287477 11.839999735355375 8.3199998140335136 7.9999998211860648 11.839999735355375 10.719999760389326 9.7599997818469983
leaf_count=313 51 88 74 52 50 74 67 61
internal_value=-1.38629 -1.41371 -1.23231 -1.38159 -1.35707 -1.40609 -1.44122 -1.38272
internal_weight=132.8 112.8 20 52 26.08 25.92 60.8 18.08
internal_count=830 705 125 325 163 162 380 113
is_linear=0
shrinkage=1


Tree=1
num_leaves=10
num_cat=0
split_feature=1 1 1 7 7 7 8 3 1
split_gain=188.282 40.1871 17.0305 10.5497 2.80246 1.27078 0.782342 0.116431 0.0742818
threshold=0.78835389018058788 0.9653061330318452 0.36316065490245825 0.036852322518825538 0.036852322518825538 0.018223971128463749 0.33059264719486242 0.016275659203529361 0.10783859342336656
decision_type=2 2 2 2 2 2 2 2 2
left_child=2 3 5 -2 7 8 -6 -4 -1
right_child=1 -3 4 -5 6 -7 -8 -9 -10
leaf_value=-0.060119633009766561 0.015400332767323267 0.16294137582500154 -0.028479347407877494 0.083635596014789482 -0.0058272731464445206 -0.035452763636019034 0.014723065163814733 -0.017165181272169809 -0.049439459056101621
leaf_weight=36.160382270812988 10.158980995416643 13.719337731599806 10.59345516562462 13.486732542514799 9.7912337034940737 9.7785221934318525 8.3302467912435514 7.908949375152587 12.867420077323912
leaf_count=234 63 77 67 80 61 63 52 50 83
internal_value=-4.32932e-05 0.0949169 -0.0373371 0.0547183 -0.0103621 -0.0540058 0.00337405 -0.0240301 -0.0575247
internal_weight=132.795 37.3651 95.4302 23.6457 36.6239 58.8063 18.1215 18.5024 49.0278
internal_count=830 220 610 143 230 380 113 117 317
is_linear=0
shrinkage=0.05


Tree=2
num_leaves=8
num_cat=0
split_feature=1 1 1 9 5 9 4
split_gain=164.953 31.4218 16.4089 7.10507 2.64145 2.41652 2.02823
threshold=0.78835389018058788 0.95736962556839 0.36316065490245825 0.6642865538597108 0.0044761905446648606 0.67254567146301281 0.43369844555854803
decision_type=2 2 2 2 2 2 2
left_child=2 3 6 -2 -4 -6 -1
right_child=1 -3 4 -5 5 -7 -8
leaf_value=-0.05770641805928968 0.011021929359871511 0.13505331065469173 0.0055449652248176452 0.069636787297138833 -0.037943271867586503 -0.0034670235156946203 -0.031305651672091858
leaf_weight=46.667149156332016 9.3990014791488665 17.700416460633278 15.386569425463675 12.180271744728087 10.761746779084207 10.250127136707304 10.197396770119665
leaf_count=313 58 93 97 69 69 64 67
internal_value=-0.000108653 0.0856752 -0.036345 0.0445059 -0.00992212 -0.0214578 -0.0531231
internal_weight=132.543 39.2797 93.263 21.5793 36.3984 21.0119 56.8645
internal_count=830 220 610 127 230 133 380
is_linear=0
shrinkage=0.05


Tree=3
num_leaves=9
num_cat=0
split_feature=1 1 1 7 7 4 5 5
split_gain=145.615 25.2367 15.8146 7.33586 2.46432 2.01626 1.14078 1.02882
threshold=0.78835389018058788 0.9653061330318452 0.36316065490245825 0.036852322518825538 0.036852322518825538 0.43369844555854803 0.0044761905446648606 0.0080636474303901213
decision_type=2 2 2 2 2 2 2 2
left_child=2 3 5 -2 6 -1 -4 -6
right_child=1 -3 4 -5 7 -7 -8 -9
leaf_value=-0.056952416974988665 0.01326181787622021 0.12752483500848741 -0.0082574704153023787 0.06891040719647043 0.016613718688718745 -0.030357995494991394 -0.034487858178565915 -0.0070505791847638088
leaf_weight=44.965246483683586 10.378011599183084 15.829120770096777 8.4670504629611987 14.727189958095549 8.103576526045801 9.9981956481933576 9.5711600482463819 10.03709492087364
leaf_count=313 63 77 54 80 50 67 63 63
internal_value=-0.000155339 0.0780338 -0.0353739 0.0462486 -0.00949479 -0.0522694 -0.0225645 0.00327946
internal_weight=132.077 40.9343 91.1423 25.1052 36.1789 54.9634 18.0382 18.1407
internal_count=830 220 610 143 230 380 117 113
is_linear=0
shrinkage=0.05


Tree=4
num_leaves=10
num_cat=0
split_feature=1 1 1 7 7 7 5 5 1
split_gain=129.363 21.0273 15.2395 5.03864 2.2694 1.35642 1.07308 0.923003 0.114921
threshold=0.78835389018058788 0.95736962556839 0.36316065490245825 0.036852322518825538 0.036852322518825538 0.018223971128463749 0.0044761905446648606 0.0080636474303901213 0.10783859342336656
decision_type=2 2 2 2 2 2 2 2 2
left_child=2 3 5 -2 6 8 -4 -6 -1
right_child=1 -3 4 -5 7 -7 -8 -9 -10
leaf_value=-0.058087575509272626 0.0096741108705483171 0.10938896860987646 -0.0078897378557651315 0.058221045918634008 0.01563689124973534 -0.031763280164323081 -0.03351422104975392 -0.0067305544375997244 -0.046598809073384595
leaf_weight=32.410116940736771 9.5342766046524066 19.729322791099548 8.4243829995393771 13.0848301500082 8.1834378987550753 8.9996190071105939 9.3649695664644224 9.9944916069507581 11.702054500579832
leaf_count=234 58 93 54 69 50 63 63 63 83
internal_value=-0.000192834 0.0716151 -0.0344286 0.0381106 -0.0090908 -0.051444 -0.0217708 0.00309585 -0.0552652
internal_weight=131.428 42.3484 89.0791 22.6191 35.9673 53.1118 17.7894 18.1779 44.1122
internal_count=830 220 610 127 230 380 117 113 317
is_linear=0
shrinkage=0.05


Tree=5
num_leaves=10
num_cat=0
split_feature=7 7 7 7 10 10 10 7 10
split_gain=75.4342 13.4241 9.70362 8.51169 3.61838 2.81508 1.53411 2.54 1.15524
threshold=0.091119859367609038 0.0010244244185741993 0.0029923977563157682 0.23987706750631335 0.19752271473407748 0.33239749073982244 0.47030495107173925 0.01620208099484444 0.38442796468734747
decision_type=2 2 2 2 2 2 2 2 2
left_child=1 -1 -3 4 -2 -4 7 -7 -9
right_child=3 2 5 -5 -6 6 -8 8 -10
leaf_value=-0.052962043972131959 0.009374863838446627 0.038249059105520164 0.0023453197801212816 0.081182299531550234 0.04870716621981154 0 -0.044311842576757528 -0.016198043662336493 -0.043721339473601406
leaf_weight=31.95389398932457 9.4055240601301211 8.0176456272602064 9.9358812868595106 16.945213869214058 17.342774480581284 9.6297063082456607 9.9948194026947004 7.8201272189617184 9.6053500622510892
leaf_count=238 55 46 63 84 92 62 71 51 68
internal_value=-0.000226841 -0.0271904 -0.012059 0.0532606 0.0351494 -0.0208127 -0.0271472 -0.0204823 -0.0318178
internal_weight=130.651 86.9574 55.0035 43.6935 26.7483 46.9859 37.05 27.0552 17.4255
internal_count=830 599 361 231 147 315 252 181 119
is_linear=0
shrinkage=0.05


Tree=6
num_leaves=8
num_cat=0
split_feature=1 1 1 7 6 1 4
split_gain=107.316 16.3603 14.0855 4.59555 2.74875 2.34708 2.08252
threshold=0.78835389018058788 0.9653061330318452 0.36316065490245825 0.036852322518825538 0.15232906490564349 0.63683935999870311 0.43369844555854803
decision_type=2 2 2 2 2 2 2
left_child=2 3 6 -2 5 -4 -1
right_child=1 -3 4 -5 -6 -7 -8
leaf_value=-0.055110698047273282 0.011261332895295274 0.10030679861885759 0.016357140161512688 0.054460378387612057 -0.025011483978736943 -0.017894832499056226 -0.027263729291806933
leaf_weight=40.609879210591316 10.58093197643757 17.627825170755386 12.715872347354891 16.069783940911293 15.010154470801352 8.0372539162635785 9.365653842687605
leaf_count=313 63 77 83 80 96 51 67
internal_value=-0.000241433 0.0628483 -0.0329167 0.0376025 -0.008753 0.00283009 -0.0500568
internal_weight=130.017 44.2785 85.7388 26.6507 35.7633 20.7531 49.9755
internal_count=830 220 610 143 230 134 380
is_linear=0
shrinkage=0.05


Tree=7
num_leaves=10
num_cat=0
split_feature=7 7 7 7 7 7 3 7 8
split_gain=61.3492 12.4285 8.04579 6.33951 2.67983 2.52269 1.49769 2.90112 1.33094
threshold=0.091119859367609038 0.0010244244185741993 0.0029923977563157682 0.23987706750631335 0.14350029826164248 0.008761524688452484 0.015792469494044784 0.022860839962959293 0.32756048440933233
decision_type=2 2 2 2 2 2 2 2 2
left_child=1 -1 -3 4 -2 -4 7 -7 -8
right_child=3 2 5 -5 -6 6 8 -9 -10
leaf_value=-0.051570935948712107 0.042319948060243778 0.033791585908973687 -0.042660583002633229 0.06997359507589071 0.0086162969394701795 -0.046412638969337991 0.0088254198289511639 -0.0024063745085045581 -0.016135738378972617
leaf_weight=29.753766097128391 17.974627614021305 8.2466492503881437 9.4003914147615415 17.822493255138397 9.4595503360033018 7.7693396955728513 9.8528037071228045 7.6521144956350327 11.120610192418097
leaf_count=238 92 46 70 84 55 55 66 50 74
internal_value=-0.000259789 -0.0256263 -0.0111808 0.0465507 0.0309537 -0.0194442 -0.0132103 -0.0250551 -0.00418609
internal_weight=129.052 83.7957 54.0419 45.2567 27.4342 45.7953 36.3949 15.4215 20.9734
internal_count=830 599 361 231 147 315 245 105 140
is_linear=0
shrinkage=0.05


Tree=8
num_leaves=8
num_cat=0
split_feature=1 1 1 4 6 1 4
split_gain=90.0952 13.2588 13.1048 4.98142 2.63904 2.1699 2.07219
threshold=0.78835389018058788 0.95736962556839 0.36316065490245825 0.35384629666805273 0.15232906490564349 0.63683935999870311 0.43369844555854803
decision_type=2 2 2 2 2 2 2
left_child=2 3 6 -2 5 -4 -1
right_child=1 -3 4 -5 -6 -7 -8
leaf_value=-0.054047644032464863 0.055608118918942219 0.08427913672377535 0.015907711017443368 0.0091484178801875468 -0.024403408603896018 -0.017117913446115823 -0.025786814941889974
leaf_weight=37.989694453775883 10.462274178862573 21.742126598954201 12.764810517430307 13.511830821633337 14.833096593618391 7.935654178261756 9.0723767727613431
leaf_count=313 56 93 83 71 96 51 67
internal_value=-0.000270976 0.0559346 -0.0314709 0.0297778 -0.00834389 0.00298532 -0.0487719
internal_weight=128.312 45.7162 82.5956 23.9741 35.5336 20.7005 47.0621
internal_count=830 220 610 127 230 134 380
is_linear=0
shrinkage=0.05


Tree=9
num_leaves=10
num_cat=0
split_feature=7 7 7 7 10 10 10 7 5
split_gain=51.0191 11.3771 6.59697 4.86279 2.59086 1.95411 1.32146 2.21599 1.02868
threshold=0.091119859367609038 0.0010244244185741993 0.0029923977563157682 0.23987706750631335 0.33239749073982244 0.19752271473407748 0.47030495107173925 0.01620208099484444 0.28467465937137609
decision_type=2 2 2 2 2 2 2 2 2
left_child=1 -1 -3 5 -4 -2 7 -6 -9
right_child=3 2 4 -5 6 -7 -8 8 -10
leaf_value=-0.05025225430637157 0.0085242400784826394 0.029415194944272707 0.0040809395982009927 0.061626439708913676 0.00026142294623974772 0.037346943589923257 -0.041481858654952998 -0.017578573459267017 -0.044481735245579967
leaf_weight=27.684083744883537 9.4581243991851824 8.4717271924018842 9.7043213248252851 18.42394345998764 9.5288608744740504 18.433294892311096 9.0855137780308706 9.4937053695321101 6.9851481318473807
leaf_count=238 55 46 63 84 62 92 71 68 51
internal_value=-0.000284049 -0.0242603 -0.0105898 0.0414777 -0.0183152 0.027817 -0.0246445 -0.0184346 -0.0294835
internal_weight=127.269 80.9534 53.2693 46.3154 44.7975 27.8914 35.0932 26.0077 16.4789
internal_count=830 599 361 231 315 147 252 181 119
is_linear=0
shrinkage=0.05


Tree=10
num_leaves=9
num_cat=0
split_feature=1 1 1 7 5 7 7 1
split_gain=76.2143 12.1449 11.1233 2.94579 2.1398 1.59289 1.1596 0.194166
threshold=0.78835389018058788 0.36316065490245825 0.9653061330318452 0.036852322518825538 0.0044761905446648606 0.039979510009288795 0.018223971128463749 0.10783859342336656
decision_type=2 2 2 2 2 2 2 2
left_child=1 6 3 -2 -3 -6 7 -1
right_child=2 4 -4 -5 5 -7 -8 -9
leaf_value=-0.055034057807294062 0.0087086006779577372 0.0057891431026982423 0.080091751657941149 0.042714917106062608 -0.033408122480754109 -0.0045575801049285193 -0.028788604354364956 -0.041758475114082823
leaf_weight=26.089777059853077 10.839597046375276 15.308464020490645 18.790359780192375 17.195789098739624 9.644136920571329 10.3817902803421 8.3906306996941549 9.801505118608473
leaf_count=234 63 97 77 80 69 64 63 83
internal_value=-0.000287013 -0.0300859 0.0502287 0.0298221 -0.00801772 -0.0187969 -0.0475246 -0.0516737
internal_weight=126.442 79.6163 46.8257 28.0354 35.3344 20.0259 44.2819 35.8913
internal_count=830 610 220 143 230 133 380 317
is_linear=0
shrinkage=0.05


Tree=11
num_leaves=10
num_cat=0
split_feature=1 1 1 7 7 7 3 1 10
split_gain=68.983 11.7048 9.93349 2.57835 1.42121 1.1657 0.657862 0.207271 0.171082
threshold=0.78835389018058788 0.36316065490245825 0.9653061330318452 0.036852322518825538 0.036852322518825538 0.018223971128463749 0.027786645106971267 0.10783859342336656 0.4610294401645661
decision_type=2 2 2 2 2 2 2 2 2
left_child=1 5 3 -2 8 7 -6 -1 -3
right_child=2 4 -4 -5 6 -7 -8 -9 -10
leaf_value=-0.054544890393450278 0.0082369341041253954 -0.011654194132465396 0.075288030019660349 0.039957510329469148 -0.0067768514507905763 -0.027918315050667043 0.011948181234030835 -0.040938458910070648 -0.02396988631857699
leaf_weight=25.035176388919353 10.891633942723276 8.3356127291917819 18.990609228610992 17.463038250803947 9.9017243385314959 8.2269231155514699 8.5578368455171567 9.5074646398425084 8.3523678928613645
leaf_count=234 63 59 77 80 61 63 52 83 58
internal_value=-0.000298529 -0.0292504 0.047204 0.0280204 -0.00766713 -0.0468114 0.00165226 -0.0510732 -0.0182221
internal_weight=125.262 77.9171 47.3453 28.3547 35.1475 42.7696 18.4596 34.5426 16.688
internal_count=830 610 220 143 230 380 113 317 117
is_linear=0
shrinkage=0.05


Tree=12
num_leaves=9
num_cat=0
split_feature=1 1 1 6 5 1 6 1
split_gain=62.5372 11.2741 9.00379 2.61326 2.11692 2.1034 1.9466 0.0747112
threshold=0.78835389018058788 0.36316065490245825 0.95736962556839 0.15232906490564349 0.35369960963726049 0.63683935999870311 0.20741260796785357 0.10783859342336656
decision_type=2 2 2 2 2 2 2 2
left_child=1 6 4 5 -2 -3 7 -1
right_child=2 3 -4 -5 -6 -7 -8 -9
leaf_value=-0.054226777931103344 0.0090870304867779472 0.016750233223679047 0.067302487142162373 -0.023493007724785745 0.038886787172790677 -0.015989394573827868 -0.019909258437929553 -0.042885854663232033
leaf_weight=23.918871536850929 13.327819839119913 12.629618659615518 22.741545796394348 14.559880219399927 11.701158493757246 7.7850465923547736 6.7562845945358267 10.635196462273596
leaf_count=230 69 83 93 96 58 51 58 92
internal_value=-0.000309244 -0.0284299 0.0444579 -0.0073346 0.0233168 0.0040043 -0.0461082 -0.0510143
internal_weight=124.055 76.2849 47.7705 34.9745 25.029 20.4147 41.3104 34.5541
internal_count=830 610 220 230 127 134 380 322
is_linear=0
shrinkage=0.05


Tree=13
num_leaves=9
num_cat=0
split_feature=1 1 1 5 7 10 7 1
split_gain=56.7277 10.8564 8.25841 1.97826 1.86306 1.47794 1.22016 0.233368
threshold=0.78835389018058788 0.36316065490245825 0.91010102629661571 0.0044761905446648606 0.23987706750631335 0.32745434343814855 0.018223971128463749 0.10783859342336656
decision_type=2 2 2 2 2 2 2 2
left_child=1 6 -2 -3 -4 -5 7 -1
right_child=2 3 4 5 -6 -7 -8 -9
leaf_value=-0.053654253720814386 0.015361210948975346 0.0062522900125733033 0.046404703433277655 -0.0038458185473478263 0.074175962110985857 -0.031949037701878402 -0.025826367886121443 -0.03937422733903153
leaf_weight=23.093877978622913 18.627806752920151 15.2223032861948 17.194290146231651 10.286237612366678 12.332826107740404 9.3079322949051839 7.8466186597943297 8.9674467593431455
leaf_count=234 95 97 75 64 50 69 63 83
internal_value=-0.000317042 -0.027617 0.0419115 -0.00700868 0.0583841 -0.0175442 -0.0454086 -0.0499505
internal_weight=122.879 74.7244 48.1549 34.8165 29.5271 19.5942 39.9079 32.0613
internal_count=830 610 220 230 125 133 380 317
is_linear=0
shrinkage=0.05


Tree=14
num_leaves=8
num_cat=0
split_feature=1 1 1 4 4 4 3
split_gain=51.5176 10.4457 7.72921 3.10946 2.36626 1.90224 3.83946
threshold=0.78835389018058788 0.36316065490245825 0.97752526402473461 0.35384629666805273 0.43369844555854803 0.43709889054298406 0.016275659203529361
decision_type=2 2 2 2 2 2 2
left_child=1 4 3 -2 -1 6 -3
right_child=2 5 -4 -5 -6 -7 -8
leaf_value=-0.051083707844416085 0.041435411189239907 -0.034868570714713672 0.06509877664903771 0.0085709932449656908 -0.018854975171977737 0.012094703566057579 0.0038532360425733631
leaf_weight=30.70813862234354 13.400272101163866 11.676088072359564 18.482280179858208 16.596021965146065 7.8449963778257361 9.4271313995122892 13.547209918498991
leaf_count=313 65 79 74 81 67 63 88
internal_value=-0.000322081 -0.0268254 0.0395684 0.0235076 -0.0447207 -0.00669924 -0.0139409
internal_weight=121.682 73.2036 48.4786 29.9963 38.5531 34.6504 25.2233
internal_count=830 610 220 146 380 230 167
is_linear=0
shrinkage=0.05


Tree=15
num_leaves=8
num_cat=0
split_feature=1 1 1 4 6 4 1
split_gain=46.8145 10.0491 7.07578 2.72646 2.46207 2.34724 1.96437
threshold=0.78835389018058788 0.36316065490245825 0.97752526402473461 0.35384629666805273 0.15232906490564349 0.43369844555854803 0.63683935999870311
decision_type=2 2 2 2 2 2 2
left_child=1 5 3 -2 6 -1 -3
right_child=2 4 -4 -5 -6 -7 -8
leaf_value=-0.050560597672475352 0.038775313456061465 0.01688309963572926 0.061894977185996604 0.0081173196406593619 -0.022299186032741142 -0.01817501766609991 -0.014914215335463549
leaf_weight=29.506092339754105 13.604955688118936 12.602660477161409 18.472277715802193 16.651509806513786 14.246139466762541 7.7380837053060523 7.6481817960739127
leaf_count=313 65 83 74 81 96 67 51
internal_value=-0.000318836 -0.0260347 0.0374149 0.0221499 -0.00638799 -0.0440325 0.00461417
internal_weight=120.47 71.7412 48.7287 30.2565 34.497 37.2442 20.2508
internal_count=830 610 220 146 230 380 134
is_linear=0
shrinkage=0.05


Tree=16
num_leaves=11
num_cat=0
split_feature=10 7 7 6 6 10 7 6 5 7
split_gain=28.6936 6.37254 4.91218 3.41969 5.9424 0.951808 1.64995 1.10181 0.57187 0.467494
threshold=0.33239749073982244 0.0010244244185741993 0.0029923977563157682 0.22271825373172763 0.15901102125644687 0.47030495107173925 0.01620208099484444 0.13058923929929736 0.38436472415924078 0.15288186818361285
decision_type=2 2 2 2 2 2 2 2 2 2
left_child=3 -2 -3 4 8 6 -4 -8 -1 -5
right_child=1 2 5 9 -6 -7 7 -9 -10 -11
leaf_value=0.021824469598016993 -0.04595428676432084 0.020955527570596974 9.1922369207553438e-05 0.032279289621737504 -0.017025641667872991 -0.036851739416287846 -0.03931883019996002 -0.010897867554158509 0.038777163602137288 0.05093701299597312
leaf_weight=17.745593495666984 21.378054402768612 8.6584240421652776 9.4524007663130778 10.081354819238188 9.787922650575636 7.7124648615717879 7.743858225643633 7.3128899335861206 9.4353033751249296 9.9547698795795423
leaf_count=91 238 46 62 57 54 71 61 58 48 44
internal_value=-0.000318448 -0.0238091 -0.0120225 0.0252462 0.0159399 -0.0210763 -0.0157794 -0.026008 0.0280131 0.0420045
internal_weight=119.263 62.2581 40.88 57.0049 36.9688 32.2216 24.5091 15.0567 27.1809 20.0361
internal_count=830 536 298 294 193 252 181 119 139 101
is_linear=0
shrinkage=0.05


Tree=17
num_leaves=10
num_cat=0
split_feature=1 1 3 1 3 4 6 1 9
split_gain=40.9947 11.9772 4.85754 3.96102 3.00714 1.46164 2.35511 5.97147 1.13366
threshold=0.57460319995880138 0.91010102629661571 0.055791787803173072 0.083369515836238875 0.014975369442254307 0.43369844555854803 0.094127114862203612 0.37414966523647314 0.6642865538597108
decision_type=2 2 2 2 2 2 2 2 2
left_child=3 2 8 -1 -3 6 7 -5 -2
right_child=1 4 -4 5 -6 -7 -8 -9 -10
leaf_value=-0.050450829356535158 -0.015429240855227302 0.068884831107803982 0.038428098469821308 -0.047625837022600322 0.035038307292795848 -0.0044267387304145703 -0.051755581345498902 0.020380211306953402 0.004526236416650127
leaf_weight=21.7746836617589 11.912118621170523 11.852218180894853 8.8720290139317495 6.7029510214924866 17.971800103783607 9.1590059772133809 7.4243537336587897 5.9407409876585007 16.838838800787926
leaf_count=249 79 50 50 69 75 71 58 38 91
internal_value=-0.00031425 0.0252068 0.00625903 -0.0341455 0.0488414 -0.0216967 -0.0292697 -0.0153711 -0.00359325
internal_weight=118.449 67.447 37.623 51.0017 29.824 29.2271 20.068 12.6437 28.751
internal_count=830 345 220 485 125 236 165 107 170
is_linear=0
shrinkage=0.05


Tree=18
num_leaves=10
num_cat=0
split_feature=1 1 3 1 3 3 10 6 10
split_gain=37.6278 10.7946 4.29877 3.91052 2.70532 1.26864 2.36489 2.71673 1.03416
threshold=0.57460319995880138 0.91010102629661571 0.055791787803173072 0.083369515836238875 0.014975369442254307 0.032988905906677253 0.38442796468734747 0.029849733226001266 0.33239749073982244
decision_type=2 2 2 2 2 2 2 2 2
left_child=3 2 8 -1 -3 6 -5 -8 -2
right_child=1 4 -4 5 -6 -7 7 -9 -10
leaf_value=-0.049973987274242709 0.0042921839259815915 0.065333303282101435 0.035841349040089496 0.012514016457852092 0.033214133028536458 -0.035136386801112911 -0.0010474729495588478 -0.048634164686028422 -0.014806489532085158
leaf_weight=20.906310431659222 16.873740762472156 11.876373127102854 9.0394487753510457 6.0065815150737825 18.015202835202217 10.41868222504854 6.2578005120158178 6.0887690037488937 11.799615800380705
leaf_count=249 91 50 50 42 75 82 60 52 79
internal_value=-0.000317041 0.0239035 0.00593008 -0.0333597 0.0463176 -0.0209829 -0.0125305 -0.025119 -0.00341765
internal_weight=117.283 67.6044 37.7128 49.6781 29.8916 28.7718 18.3532 12.3466 28.6734
internal_count=830 345 220 485 125 236 154 112 170
is_linear=0
shrinkage=0.05


Tree=19
num_leaves=9
num_cat=0
split_feature=1 1 1 3 3 4 1 10
split_gain=34.5343 9.74749 3.86593 3.81135 2.4478 1.42734 1.91026 0.943153
threshold=0.57460319995880138 0.91010102629661571 0.083369515836238875 0.055791787803173072 0.014975369442254307 0.43369844555854803 0.37414966523647314 0.33239749073982244
decision_type=2 2 2 2 2 2 2 2
left_child=2 3 -1 7 -3 6 -4 -2
right_child=1 4 5 -5 -6 -7 -8 -9
leaf_value=-0.049503831455355002 0.0040707037846339127 0.062091581027757629 -0.044490069686462755 0.033486909201330815 0.031505346274004961 -0.0030903697103969157 -0.012084744032814721 -0.014204358366017487
leaf_weight=20.071741133928299 16.906789898872379 11.876717865467073 9.2163583263754898 9.1941402554512006 18.047235906124115 8.9754364192485792 10.168382123112677 11.691865943372248
leaf_count=249 91 50 97 50 75 71 68 79
internal_value=-0.000316968 0.022684 -0.03256 0.00562022 0.0439778 -0.0202607 -0.0278975 -0.00324985
internal_weight=116.149 67.7167 48.4319 37.7928 29.924 28.3602 19.3847 28.5987
internal_count=830 345 485 220 125 236 165 170
is_linear=0
shrinkage=0.05


Tree=20
num_leaves=10
num_cat=0
split_feature=1 1 1 7 6 6 1 6 1
split_gain=31.7124 8.85985 3.81304 1.85249 3.64663 1.22044 2.35599 1.18882 0.864486
threshold=0.57460319995880138 0.95736962556839 0.083369515836238875 0.036852322518825538 0.22271825373172763 0.22146533429622653 0.36316065490245825 0.057417582720518119 0.21862787753343585
decision_type=2 2 2 2 2 2 2 2 2
left_child=2 3 -1 7 -5 6 8 -2 -4
right_child=1 -3 5 4 -6 -7 -8 -9 -10
leaf_value=-0.049039105998867155 0.0074327541783896917 0.046983186804752421 -0.013270467117322687 0.003027565939866108 0.041607376022098436 -0.037456899252618962 0.0029947497817558373 -0.018305224478652623 -0.04493792461424987
leaf_weight=19.270138502120972 9.7991529852151888 22.713879749178886 4.8595754429698044 17.865805760025982 9.4957852363586408 7.2708011493086806 10.703717850148676 7.915535293519496 5.116456151008606
leaf_count=249 62 93 54 91 48 59 71 51 52
internal_value=-0.000317009 0.0215402 -0.0317802 0.00853324 0.0167014 -0.0195706 -0.0128913 -0.00382539 -0.0302929
internal_weight=115.011 67.7902 47.2207 45.0763 27.3616 27.9506 20.6797 17.7147 9.97603
internal_count=830 345 485 252 139 236 177 113 106
is_linear=0
shrinkage=0.05


Tree=21
num_leaves=10
num_cat=0
split_feature=7 7 7 7 6 6 5 3 3
split_gain=18.7531 5.28384 3.40409 2.76295 1.71781 3.60322 0.842322 2.24231 0.646105
threshold=0.036852322518825538 0.0010244244185741993 0.0029923977563157682 0.23987706750631335 0.036114118993282325 0.20741260796785357 0.0074250877369195232 0.023637839592993263 0.015792469494044784
decision_type=2 2 2 2 2 2 2 2 2
left_child=1 -1 -3 4 -2 -6 7 -4 -8
right_child=3 2 6 -5 5 -7 8 -9 -10
leaf_value=-0.043161874730669667 0.030645074967104585 0.017139800278556411 0.013539602240212507 0.035660213774471525 -0.01073728139311704 0.024193084581471836 -0.037337060280267266 -0.028190375474516728 -0.016149585786727521
leaf_weight=17.960353016853333 9.2827620431780797 8.626015439629553 6.088421009480955 18.720192968845367 15.361521504819395 13.867578282952307 7.2129122167825725 6.4337356686592102 10.322773203253744
leaf_count=238 51 46 52 84 83 78 63 51 84
internal_value=-0.000317177 -0.0207373 -0.0101125 0.0198069 0.0118989 0.00569073 -0.0181301 -0.00755811 -0.0253104
internal_weight=113.876 56.6442 38.6839 57.2321 38.5119 29.2291 30.0578 12.5222 17.5357
internal_count=830 534 296 296 212 161 250 103 147
is_linear=0
shrinkage=0.05


Tree=22
num_leaves=9
num_cat=0
split_feature=9 9 9 5 4 3 4 3
split_gain=17.0772 5.0787 3.10764 2.59128 2.55842 2.62607 1.01227 1.62341
threshold=0.6642865538597108 0.30365468561649328 0.40999510884284979 0.3884375542402268 0.34814056754112249 0.012094866950064899 0.32113002240657812 0.026076017878949646
decision_type=2 2 2 2 2 2 2 2
left_child=1 -1 -3 4 -2 -6 -4 -8
right_child=3 2 6 -5 5 -7 7 -9
leaf_value=-0.042541020497991605 -0.0050865458890098983 0.016202092024011752 -0.004662377765861184 0.034051945946219624 0.041669550881321085 0.007310914080711866 -0.010547186729449348 -0.040992954312853512
leaf_weight=17.328897997736931 14.635404199361799 8.6735193803906423 10.856966637074949 18.830137513577938 9.4397532492876071 14.544280834496019 10.454393498599531 8.3876950740814191
leaf_count=238 81 46 91 93 50 72 90 69
internal_value=-0.000312563 -0.0200646 -0.00970018 0.0187532 0.0110959 0.0211584 -0.0174616 -0.0245092
internal_weight=113.151 55.7015 38.3726 57.4496 38.6194 23.984 29.6991 18.8421
internal_count=830 534 296 296 203 122 250 159
is_linear=0
shrinkage=0.05


Tree=23
num_leaves=10
num_cat=0
split_feature=1 1 1 4 9 6 4 6 1
split_gain=26.5989 7.69084 3.59145 2.28873 2.16997 1.96874 1.37092 2.4499 5.38329
threshold=0.57460319995880138 0.91010102629661571 0.083369515836238875 0.39991511404514318 0.6642865538597108 0.20432756841182712 0.43369844555854803 0.094127114862203612 0.37414966523647314
decision_type=2 2 2 2 2 2 2 2 2
left_child=2 4 -1 -3 -2 -6 7 8 -4
right_child=1 3 6 -5 5 -7 -8 -9 -10
leaf_value=-0.048030759018816767 -0.010452359114923249 0.050098556453390258 -0.045440373202428191 0.02063654422477668 0.0001779420637646127 0.029681591076352182 -0.0014962546289163667 -0.050084562233282615 0.021569347708623208
leaf_weight=17.522028520703316 14.72024182975292 17.670162290334705 5.8382778912782722 12.010721027851103 12.697069972753527 10.622533053159712 8.7435402274131757 6.7814215570688239 5.8583080247044563
leaf_count=249 100 74 69 51 67 53 71 58 38
internal_value=-0.000309067 0.0194014 -0.0302296 0.0384536 0.00434277 0.0139003 -0.0184545 -0.0261585 -0.0115559
internal_weight=112.464 67.7207 44.7436 29.6809 38.0398 23.3196 27.2215 18.478 11.6966
internal_count=830 345 485 125 220 120 236 165 107
is_linear=0
shrinkage=0.05


Tree=24
num_leaves=11
num_cat=0
split_feature=1 1 3 1 1 1 3 10 6 3
split_gain=24.4468 7.23304 3.58106 3.52823 2.52371 1.49208 1.29684 1.98412 2.97743 1.10215
threshold=0.57460319995880138 0.97752526402473461 0.062021316960453994 0.083369515836238875 0.88472145795822155 0.80221450328826915 0.032988905906677253 0.38442796468734747 0.029849733226001266 0.012094866950064899
decision_type=2 2 2 2 2 2 2 2 2 2
left_child=3 2 4 -1 5 9 7 -5 -9 -2
right_child=1 -3 -4 6 -6 -7 -8 8 -10 -11
leaf_value=-0.047573767855133536 -0.0086236285677339427 0.045937130792502917 0.03469051465485018 0.013741247398720314 0.021150853196350957 -0.020978084818764158 -0.032599475846487778 0.0032396603991359536 -0.047113854632038925 0.016477980478135472
leaf_weight=16.824488885700703 9.4839586243033462 17.660036534070969 10.321410089731215 5.903829909861094 11.655361697077749 10.755896329879759 9.6628842800855619 5.6845228597521764 5.5920573696494102 7.8084200322628012
leaf_count=249 65 74 52 42 53 54 82 60 52 47
internal_value=-0.000308883 0.0184544 0.00858035 -0.029482 0.001597 -0.00639718 -0.0178226 -0.00908166 -0.0214858 0.00245316
internal_weight=111.353 67.6851 50.025 43.6678 39.7036 28.0483 26.8433 17.1804 11.2766 17.2924
internal_count=830 345 271 485 219 166 236 154 112 112
is_linear=0
shrinkage=0.05


Tree=25
num_leaves=10
num_cat=0
split_feature=1 1 1 3 1 1 4 1 8
split_gain=22.4448 6.65659 3.47295 3.18278 2.27083 1.36102 1.32868 1.71341 1.02639
threshold=0.57460319995880138 0.97752526402473461 0.083369515836238875 0.062021316960453994 0.88472145795822155 0.80221450328826915 0.43369844555854803 0.37414966523647314 1.0000000180025095e-35
decision_type=2 2 2 2 2 2 2 2 2
left_child=2 3 -1 4 5 8 7 -4 -2
right_child=1 -3 6 -5 -6 -7 -8 -9 -10
leaf_value=-0.047117736113232403 0.015486599269252908 0.044093958384428616 -0.04202171169349575 0.032571860562227946 0.01999182458058649 -0.020108228962365471 -0.00039700902461294122 -0.010021041139933368 -0.0086674423574191525
leaf_weight=16.155896939337254 8.0581515356898361 17.486951366066933 8.0819800570607239 10.446298718452452 11.718644738197325 10.666768655180929 8.5992626771330816 9.8192102089524251 9.2521227747201902
leaf_count=249 53 74 97 52 53 54 71 68 59
internal_value=-0.000304088 0.017556 -0.0287119 0.00813207 0.00150918 -0.00609814 -0.017168 -0.0248996 0.00231375
internal_weight=110.285 67.6289 42.6563 50.142 39.6957 27.977 26.5005 17.9012 17.3103
internal_count=830 345 485 271 219 166 236 165 112
is_linear=0
shrinkage=0.05


end of trees

feature_importances:
cooccurrence_score=81
popularity_prior=43
region_fit=20
known_hobby_compatibility=19
age_group_fit=18
novelty_bonus=15
occupation_fit=12
popularity_penalty=8
mismatch_penalty=3

parameters:
[boosting: gbdt]
[objective: binary]
[metric: auc]
[tree_learner: serial]
[device_type: cpu]
[data_sample_strategy: bagging]
[data: ]
[valid: ]
[num_iterations: 500]
[learning_rate: 0.05]
[num_leaves: 31]
[num_threads: -1]
[seed: 42]
[deterministic: 0]
[force_col_wise: 0]
[force_row_wise: 0]
[histogram_pool_size: -1]
[max_depth: -1]
[min_data_in_leaf: 50]
[min_sum_hessian_in_leaf: 0.001]
[bagging_fraction: 1]
[pos_bagging_fraction: 1]
[neg_bagging_fraction: 1]
[bagging_freq: 0]
[bagging_seed: 400]
[bagging_by_query: 0]
[feature_fraction: 0.7]
[feature_fraction_bynode: 1]
[feature_fraction_seed: 30056]
[extra_trees: 0]
[extra_seed: 12879]
[early_stopping_round: 0]
[early_stopping_min_delta: 0]
[first_metric_only: 0]
[max_delta_step: 0]
[lambda_l1: 0.1]
[lambda_l2: 0.1]
[linear_lambda: 0]
[min_gain_to_split: 0]
[drop_rate: 0.1]
[max_drop: 50]
[skip_drop: 0.5]
[xgboost_dart_mode: 0]
[uniform_drop: 0]
[drop_seed: 17869]
[top_rate: 0.2]
[other_rate: 0.1]
[min_data_per_group: 100]
[max_cat_threshold: 32]
[cat_l2: 10]
[cat_smooth: 10]
[max_cat_to_onehot: 4]
[top_k: 20]
[monotone_constraints: ]
[monotone_constraints_method: basic]
[monotone_penalty: 0]
[feature_contri: ]
[forcedsplits_filename: ]
[refit_decay_rate: 0.9]
[cegb_tradeoff: 1]
[cegb_penalty_split: 0]
[cegb_penalty_feature_lazy: ]
[cegb_penalty_feature_coupled: ]
[path_smooth: 0]
[interaction_constraints: ]
[verbosity: -1]
[saved_feature_importance_type: 0]
[use_quantized_grad: 0]
[num_grad_quant_bins: 4]
[quant_train_renew_leaf: 0]
[stochastic_rounding: 1]
[linear_tree: 0]
[max_bin: 255]
[max_bin_by_feature: ]
[min_data_in_bin: 3]
[bin_construct_sample_cnt: 200000]
[data_random_seed: 175]
[is_enable_sparse: 1]
[enable_bundle: 1]
[use_missing: 1]
[zero_as_missing: 0]
[feature_pre_filter: 1]
[pre_partition: 0]
[two_round: 0]
[header: 0]
[label_column: ]
[weight_column: ]
[group_column: ]
[ignore_column: ]
[categorical_feature: 12]
[forcedbins_filename: ]
[precise_float_parser: 0]
[parser_config_file: ]
[objective_seed: 16083]
[num_class: 1]
[is_unbalance: 0]
[scale_pos_weight: 1]
[sigmoid: 1]
[boost_from_average: 1]
[reg_sqrt: 0]
[alpha: 0.9]
[fair_c: 1]
[poisson_max_delta_step: 0.7]
[tweedie_variance_power: 1.5]
[lambdarank_truncation_level: 30]
[lambdarank_norm: 1]
[label_gain: ]
[lambdarank_position_bias_regularization: 0]
[eval_at: ]
[multi_error_top_k: 1]
[auc_mu_weights: ]
[num_machines: 1]
[local_listen_port: 12400]
[time_out: 120]
[machine_list_filename: ]
[machines: ]
[gpu_platform_id: -1]
[gpu_device_id: -1]
[gpu_use_dp: 0]
[num_gpu: 1]

end of parameters

pandas_categorical:null
