tree
version=v4
num_class=1
num_tree_per_iteration=1
label_index=0
max_feature_idx=15
objective=binary sigmoid:1
feature_names=lightgcn_score cooccurrence_score segment_popularity_score known_hobby_compatibility age_group_fit occupation_fit region_fit popularity_prior mismatch_penalty popularity_penalty novelty_bonus category_diversity_reward is_cold_start source_is_popularity source_is_cooccurrence source_count
feature_infos=none [0:1] none [0:0.43571427464485168] [0:0.8125] [0:0.6834532618522644] [0:0.66666668653488159] [0:1] [0:0.66666668653488159] [0:1] [0:1] none -1:1:0 -1:1:0 -1:1:0 [0:2]
tree_sizes=1030 1086 979 983 1085 980 976 1090 1084 1192 1195 1197 1190 1089 1090 1088 1093 1194 1083 1089 1197 1194 1192 1090 1197 1196 1202 1194

Tree=0
num_leaves=9
num_cat=0
split_feature=1 1 1 7 1 6 4 6
split_gain=224.565 40.0139 17.2048 12.558 15.0045 2.42062 1.98502 1.80917
threshold=0.91010102629661571 0.36316065490245825 0.97752526402473461 0.036852322518825538 0.78835389018058788 0.057417582720518119 0.43369844555854803 0.15901102125644687
decision_type=2 2 2 2 2 2 2 2
left_child=1 6 -2 5 7 -3 -1 -5
right_child=2 3 -4 4 -6 -7 -8 -9
leaf_value=-1.4455809316812571 -1.2912580379836178 -1.3915835009546333 -1.1932457777437639 -1.3655105123613029 -1.3004918888021757 -1.4227265232805344 -1.4200281886241803 -1.3969434487428376
leaf_weight=50.079998880624771 8.1599998176097888 14.079999685287477 11.839999735355375 8.3199998140335136 7.9999998211860648 11.839999735355375 10.719999760389326 9.7599997818469983
leaf_count=313 51 88 74 52 50 74 67 61
internal_value=-1.38629 -1.41371 -1.23231 -1.38159 -1.35707 -1.40609 -1.44122 -1.38272
internal_weight=132.8 112.8 20 52 26.08 25.92 60.8 18.08
internal_count=830 705 125 325 163 162 380 113
is_linear=0
shrinkage=1


Tree=1
num_leaves=9
num_cat=0
split_feature=1 1 1 7 7 6 4 6
split_gain=188.282 40.1871 17.0305 10.5497 2.80246 2.46025 1.96874 1.62162
threshold=0.78835389018058788 0.9653061330318452 0.36316065490245825 0.036852322518825538 0.036852322518825538 0.044136472046375282 0.43369844555854803 0.15901102125644687
decision_type=2 2 2 2 2 2 2 2
left_child=2 3 6 -2 5 -4 -1 -6
right_child=1 -3 4 -5 7 -7 -8 -9
leaf_value=-0.058450539041600115 0.015400332767323267 0.16294137582500154 -0.0037553393665875606 0.083635596014789482 0.019510036263907602 -0.040971611689475468 -0.032735214139595216 -0.01018812844697759
leaf_weight=48.303018689155579 10.158980995416643 13.719337731599806 8.6125857532024401 13.486732542514799 8.4238179326057452 9.8898187875747663 10.503305852413176 9.6976625621318799
leaf_count=313 63 77 54 80 52 63 67 61
internal_value=-4.32932e-05 0.0949169 -0.0373371 0.0547183 -0.0103621 -0.0240301 -0.0540058 0.00337405
internal_weight=132.795 37.3651 95.4302 23.6457 36.6239 18.5024 58.8063 18.1215
internal_count=830 220 610 143 230 117 380 113
is_linear=0
shrinkage=0.05


Tree=2
num_leaves=8
num_cat=0
split_feature=1 1 1 7 5 10 4
split_gain=164.948 31.4218 16.4032 7.10507 2.688 2.36005 1.95643
threshold=0.78835389018058788 0.95736962556839 0.36316065490245825 0.036852322518825538 0.0044761905446648606 0.32745434343814855 0.43369844555854803
decision_type=2 2 2 2 2 2 2
left_child=2 3 6 -2 -4 -6 -1
right_child=1 -3 4 -5 5 -7 -8
leaf_value=-0.057658990465511664 0.011021929359871511 0.13505331065469173 0.0057043259972480364 0.069636787297138833 -0.003814393303584766 -0.037882583499786085 -0.031757862618482145
leaf_weight=46.563346341252327 9.3990014791488665 17.700416460633278 15.358037754893301 12.180271744728087 10.294083610177042 10.743654444813727 10.293701425194739
leaf_count=313 58 93 97 69 64 69 67
internal_value=-0.000105835 0.0856752 -0.0363449 0.0445059 -0.00992595 -0.021546 -0.0531215
internal_weight=132.533 39.2797 93.2528 21.5793 36.3958 21.0377 56.857
internal_count=830 220 610 127 230 133 380
is_linear=0
shrinkage=0.05


Tree=3
num_leaves=8
num_cat=0
split_feature=1 1 1 7 5 10 4
split_gain=145.611 25.2367 15.8098 7.33586 2.47216 2.21698 1.94735
threshold=0.78835389018058788 0.9653061330318452 0.36316065490245825 0.036852322518825538 0.0044761905446648606 0.32745434343814855 0.43369844555854803
decision_type=2 2 2 2 2 2 2
left_child=2 3 6 -2 -4 -6 -1
right_child=1 -3 4 -5 5 -7 -8
leaf_value=-0.056907321394760992 0.01326181787622021 0.12752483500848741 0.0054019330376431493 0.06891040719647043 -0.0036339189136459556 -0.036875307049851209 -0.030800891074914124
leaf_weight=44.863915532827377 10.378011599183084 15.829120770096777 15.411068543791769 14.727189958095549 10.270647913217546 10.494406804442404 10.091177493333815
leaf_count=313 63 77 97 80 64 69 67
internal_value=-0.000152672 0.0780338 -0.0353743 0.0462486 -0.00949849 -0.0207696 -0.052269
internal_weight=132.066 40.9343 91.1312 25.1052 36.1761 20.7651 54.9551
internal_count=830 220 610 143 230 133 380
is_linear=0
shrinkage=0.05


Tree=4
num_leaves=9
num_cat=0
split_feature=1 1 1 4 7 6 4 6
split_gain=129.354 21.0273 15.2395 5.12131 2.35953 2.27835 1.94084 1.48425
threshold=0.78835389018058788 0.95736962556839 0.36316065490245825 0.35192480683326727 0.036852322518825538 0.044136472046375282 0.43369844555854803 0.15901102125644687
decision_type=2 2 2 2 2 2 2 2
left_child=2 3 6 -2 5 -4 -1 -6
right_child=1 -3 4 -5 7 -7 -8 -9
leaf_value=-0.056191390635815977 0.066314525432180402 0.10938896860987646 -0.0024677703869602505 0.017297968975366864 0.018718626753136604 -0.038863371670063949 -0.029863586266300021 -0.0096723536246712122
leaf_weight=43.207062959671021 9.409306541085245 19.729322791099548 8.4700233042240161 13.209800213575361 8.4886169284582156 9.3761009722948057 9.8956901282072049 9.6279355585575086
leaf_count=313 53 93 54 74 52 63 67 61
internal_value=-0.000188508 0.0716151 -0.0344274 0.0381106 -0.00908826 -0.0219781 -0.0514445 0.00338566
internal_weight=131.414 42.3484 89.0654 22.6191 35.9627 17.8461 53.1028 18.1166
internal_count=830 220 610 127 230 117 380 113
is_linear=0
shrinkage=0.05


Tree=5
num_leaves=8
num_cat=0
split_feature=1 1 1 7 5 10 4
split_gain=115.414 17.7882 14.684 6.08006 2.28067 1.96393 1.93633
threshold=0.78835389018058788 0.9653061330318452 0.36316065490245825 0.036852322518825538 0.0044761905446648606 0.32745434343814855 0.43369844555854803
decision_type=2 2 2 2 2 2 2
left_child=2 3 6 -2 -4 -6 -1
right_child=1 -3 4 -5 5 -7 -8
leaf_value=-0.055507486058120462 0.0099557392685204991 0.10555445219110726 0.005564153958972964 0.059542958649234624 -0.0036707714460038569 -0.035290896013908571 -0.028945352820979264
leaf_weight=41.594588950276375 10.727879449725153 17.284062758088112 15.37881727516651 15.583460494875906 10.273582756519319 10.103802457451819 9.70716944336891
leaf_count=313 63 77 97 80 64 69 67
internal_value=-0.000219369 0.066062 -0.0335057 0.0396284 -0.00870293 -0.0196891 -0.0506448
internal_weight=130.653 43.5954 87.058 26.3113 35.7562 20.3774 51.3018
internal_count=830 220 610 143 230 133 380
is_linear=0
shrinkage=0.05


Tree=6
num_leaves=8
num_cat=0
split_feature=1 1 1 4 6 1 4
split_gain=103.428 15.3365 14.1536 4.35681 2.21353 2.26661 1.93333
threshold=0.78835389018058788 0.95736962556839 0.36316065490245825 0.35384629666805273 0.15232906490564349 0.63683935999870311 0.43369844555854803
decision_type=2 2 2 2 2 2 2
left_child=2 3 6 -2 5 -4 -1
right_child=1 -3 4 -5 -6 -7 -8
leaf_value=-0.054852247925013753 0.057104692831651871 0.092263273964823922 0.015060504556449878 0.013095620299001349 -0.023260410633489905 -0.01844737423534076 -0.028045713200962687
leaf_weight=40.027832090854645 10.401549383997919 21.132493808865547 12.887963563203813 13.098923251032828 14.56053490936756 8.1084514409303647 9.5255245864391309
leaf_count=313 56 93 83 71 96 51 67
internal_value=-0.000241602 0.0612862 -0.0326003 0.0329458 -0.00832458 0.00185723 -0.0498669
internal_weight=129.743 44.633 85.1103 23.5005 35.5569 20.9964 49.5534
internal_count=830 220 610 127 230 134 380
is_linear=0
shrinkage=0.05


Tree=7
num_leaves=9
num_cat=0
split_feature=1 1 1 7 7 6 4 6
split_gain=92.9283 13.6443 13.4885 5.17618 2.18176 2.04642 1.93138 1.26187
threshold=0.78835389018058788 0.36316065490245825 0.9653061330318452 0.036852322518825538 0.036852322518825538 0.044136472046375282 0.43369844555854803 0.15901102125644687
decision_type=2 2 2 2 2 2 2 2
left_child=1 6 3 -2 5 -3 -1 -6
right_child=2 4 -4 -5 7 -7 -8 -9
leaf_value=-0.054222630744773848 0.0072122047368746809 -0.0021940157357947152 0.090423832031330642 0.052183554420465295 0.018020782145125605 -0.037118623614801165 -0.027164286811083124 -0.0081917065146072526
leaf_weight=38.507722862064838 11.024161547422411 8.4369582086801547 18.247213825583458 16.280231535434723 8.5455620884895342 8.9607228189706785 9.3506417423486692 9.4313799738883954
leaf_count=313 63 54 77 80 52 63 67 61
internal_value=-0.000259369 -0.0317097 0.0570414 0.0343014 -0.00795865 -0.0205771 -0.0491079 0.00402289
internal_weight=128.785 83.233 45.5516 27.3044 35.3746 17.3977 47.8584 17.9769
internal_count=830 610 220 143 230 117 380 113
is_linear=0
shrinkage=0.05


Tree=8
num_leaves=9
num_cat=0
split_feature=1 1 1 7 5 6 4 3
split_gain=83.7722 13.1402 11.8504 4.48395 2.09757 2.50188 1.9301 1.15902
threshold=0.78835389018058788 0.36316065490245825 0.9653061330318452 0.036852322518825538 0.0061264194082468757 0.15232906490564349 0.43369844555854803 0.017890722490847114
decision_type=2 2 2 2 2 2 2 2
left_child=1 6 3 -2 7 -6 -1 -3
right_child=2 4 -4 -5 5 -7 -8 -9
leaf_value=-0.053615847672720401 0.0068276160014621367 -0.0072334770026190962 0.084303607511555273 0.04849853986978403 -0.003144773837603033 -0.040454639448745992 -0.026300770881825808 0.019124869772279222
leaf_weight=37.034846603870392 11.067368656396868 8.2980106621980685 18.591064438223839 16.639266595244408 11.170360773801805 7.82464975118637 9.1823951154947263 7.8955860733985892
leaf_count=313 63 53 77 80 73 54 67 50
internal_value=-0.000275529 -0.0308446 0.0533173 0.0321174 -0.007619 -0.0189071 -0.0483654 0.00534981
internal_weight=127.704 81.4058 46.2977 27.7066 35.1886 18.995 46.2172 16.1936
internal_count=830 610 220 143 230 127 380 103
is_linear=0
shrinkage=0.05


Tree=9
num_leaves=10
num_cat=0
split_feature=1 1 1 7 7 6 6 6 1
split_gain=75.6842 12.6531 10.8069 2.84959 2.0373 1.94907 1.87605 1.05177 0.129203
threshold=0.78835389018058788 0.36316065490245825 0.91010102629661571 0.23987706750631335 0.036852322518825538 0.20741260796785357 0.044136472046375282 0.15901102125644687 0.10783859342336656
decision_type=2 2 2 2 2 2 2 2 2
left_child=1 5 -2 -4 6 8 -3 -6 -1
right_child=2 4 3 -5 7 -7 -8 -9 -10
leaf_value=-0.055493202318096527 0.019292325122264167 -0.0021329956033608868 0.054357581604661857 0.08867421030438058 0.016888303712387261 -0.021793837741200476 -0.035872164725045119 -0.0070272589609445841 -0.043544385775777093
leaf_weight=26.646678313612938 18.187489330768585 8.429787218570711 16.747983947396278 11.985989421606066 8.6403420418500918 7.0367928296327582 8.6700746119022352 9.2779666036367399 10.946651622653006
leaf_count=230 95 54 75 50 52 58 63 61 92
internal_value=-0.000288661 -0.0299932 0.0499844 0.0691036 -0.00729216 -0.0476372 -0.0196394 0.00425723 -0.0522713
internal_weight=126.57 79.6483 46.9215 28.734 35.0182 44.6301 17.0999 17.9183 37.5933
internal_count=830 610 220 125 230 380 117 113 322
is_linear=0
shrinkage=0.05


Tree=10
num_leaves=10
num_cat=0
split_feature=1 1 1 4 4 5 6 3 1
split_gain=68.466 12.1751 9.73468 3.71841 1.99828 1.93035 2.28768 1.03042 0.0171052
threshold=0.78835389018058788 0.36316065490245825 0.95736962556839 0.35384629666805273 0.43369844555854803 0.0061264194082468757 0.15232906490564349 0.017890722490847114 0.14589665830135348
decision_type=2 2 2 2 2 2 2 2 2
left_child=1 4 3 -2 8 7 -7 -3 -1
right_child=2 5 -4 -5 -6 6 -8 -9 -10
leaf_value=-0.054880738010641195 0.046365821807507278 -0.0065337115581132216 0.070758913512211308 0.0070154933179020001 -0.024124279999073916 -0.0029883850868637142 -0.039103900893481897 0.018299222996616092 -0.04310003571479832
leaf_weight=26.607274800539017 11.111589267849924 8.2156132906675357 22.598169922828674 13.784181222319601 8.7721171975135785 11.138643994927408 7.5318579971790305 7.9576905369758597 7.7318258583545676
leaf_count=243 56 53 93 71 67 73 54 50 70
internal_value=-0.000301609 -0.0291615 0.0469248 0.0248938 -0.0469161 -0.00697987 -0.0179548 0.00541486 -0.0525062
internal_weight=125.449 77.955 47.4939 24.8958 43.1112 34.8438 18.6705 16.1733 34.3391
internal_count=830 610 220 127 380 230 127 103 313
is_linear=0
shrinkage=0.05


Tree=11
num_leaves=10
num_cat=0
split_feature=1 1 1 7 4 7 6 8 1
split_gain=62.0383 11.716 8.94175 4.06533 1.99529 1.90023 1.71855 1.05078 0.0262433
threshold=0.78835389018058788 0.36316065490245825 0.97752526402473461 0.036852322518825538 0.43369844555854803 0.036852322518825538 0.044136472046375282 0.33070802688598638 0.14589665830135348
decision_type=2 2 2 2 2 2 2 2 2
left_child=1 4 3 -2 8 6 -3 -7 -1
right_child=2 5 -4 -5 -6 7 -8 -9 -10
leaf_value=-0.054404318034177251 0.0036701901855574976 -0.0020831911287924319 0.071616033685461364 0.041938467818323021 -0.023324025794140498 -0.0060198652451528391 -0.034664315794930033 0.01803987097715273 -0.042339280633256426
leaf_weight=25.526510640978813 11.948432564735414 8.4235343337059039 18.40678682923317 17.605744391679764 8.6266339868307096 9.9185797125101107 8.3943779915571195 7.9472874850034705 7.4853059202432624
leaf_count=243 65 54 74 81 67 64 63 49 70
internal_value=-0.000314202 -0.0283456 0.0441555 0.0267002 -0.0462137 -0.00667973 -0.0187498 0.00444518 -0.0519557
internal_weight=124.283 76.3222 47.961 29.5542 41.6385 34.6838 16.8179 17.8659 33.0118
internal_count=830 610 220 146 380 230 117 113 313
is_linear=0
shrinkage=0.05


Tree=12
num_leaves=10
num_cat=0
split_feature=1 1 1 3 6 7 6 8 1
split_gain=56.3174 11.2674 8.19665 2.83839 2.05175 1.7437 1.61243 0.94096 0.160685
threshold=0.78835389018058788 0.36316065490245825 0.91010102629661571 0.014975369442254307 0.20741260796785357 0.036852322518825538 0.044136472046375282 0.33070802688598638 0.10783859342336656
decision_type=2 2 2 2 2 2 2 2 2
left_child=1 4 -2 -4 8 6 -3 -7 -1
right_child=2 5 3 -5 -6 7 -8 -9 -10
leaf_value=-0.054106537368735198 0.015309285041334603 -0.0019828141360621709 0.07776292706762343 0.044295091522409666 -0.018271808210912479 -0.0057433949568860745 -0.033755229264599278 0.016965794011677228 -0.041316449379422554
leaf_weight=23.674540653824806 18.738466888666153 8.4128016531467456 11.840444684028627 17.730283632874489 6.5324653536081305 9.8820028752088565 8.1971947923302633 8.0319761931896192 10.011205822229384
leaf_count=230 95 54 50 75 58 64 63 49 92
internal_value=-0.000324 -0.0275463 0.0416599 0.0580814 -0.0455205 -0.00639205 -0.0180702 0.00419868 -0.0505869
internal_weight=123.051 74.7422 48.3092 29.5707 40.2182 34.524 16.61 17.914 33.6857
internal_count=830 610 220 125 380 230 117 113 322
is_linear=0
shrinkage=0.05


Tree=13
num_leaves=9
num_cat=0
split_feature=1 1 1 7 4 4 3 1
split_gain=51.1346 10.8258 7.68129 3.57291 2.06011 1.67471 4.15155 0.0437378
threshold=0.78835389018058788 0.36316065490245825 0.97752526402473461 0.036852322518825538 0.43369844555854803 0.43709889054298406 0.016275659203529361 0.14589665830135348
decision_type=2 2 2 2 2 2 2 2
left_child=1 4 3 -2 7 6 -3 -1
right_child=2 5 -4 -5 -6 -7 -8 -9
leaf_value=-0.053542154788008695 0.0019181153485721026 -0.034728410725519895 0.064775039849345101 0.037443237894575813 -0.021237323222185689 0.011387399852670933 0.0058211912438077395 -0.040913628010182695
leaf_weight=23.554166063666347 12.136437416076662 11.639899000525476 18.496418192982674 18.024052307009697 8.259869419038294 9.4955731704831106 13.233124136924742 7.0429302901029578
leaf_count=243 65 79 74 81 67 63 88 70
internal_value=-0.000331411 -0.0267588 0.0393109 0.0233669 -0.0448259 -0.00611643 -0.0130178 -0.0509409
internal_weight=121.882 73.2256 48.6569 30.1605 38.857 34.3686 24.873 30.5971
internal_count=830 610 220 146 380 230 167 313
is_linear=0
shrinkage=0.05


Tree=14
num_leaves=9
num_cat=0
split_feature=1 1 1 7 6 5 10 1
split_gain=46.4975 10.413 7.02656 2.94251 2.08958 1.61618 1.65639 0.183617
threshold=0.78835389018058788 0.36316065490245825 0.9653061330318452 0.036852322518825538 0.20741260796785357 0.0044761905446648606 0.32745434343814855 0.10783859342336656
decision_type=2 2 2 2 2 2 2 2
left_child=1 4 3 -2 7 -3 -7 -1
right_child=2 5 -4 -5 -6 6 -8 -9
leaf_value=-0.053255022920086229 0.0014907379253225152 0.0060285741290628499 0.060831211759071441 0.034188785888819788 -0.01623167596334758 -0.00090373431875814868 -0.030955544431045697 -0.039840683844326229
leaf_weight=21.840603359043602 11.652359694242479 15.260947883129118 19.227976784110069 17.988092392683029 6.263398900628089 9.9029785543680209 9.0642406120896322 9.4356905892491323
leaf_count=230 63 97 77 80 58 64 69 92
internal_value=-0.000332046 -0.0259749 0.037201 0.0215508 -0.0441461 -0.0058296 -0.0156144 -0.0495073
internal_weight=120.636 71.7679 48.8684 29.6405 37.5397 34.2282 18.9672 31.2763
internal_count=830 610 220 143 380 230 133 322
is_linear=0
shrinkage=0.05


Tree=15
num_leaves=9
num_cat=0
split_feature=1 1 1 3 4 6 1 1
split_gain=42.3239 9.99697 6.47755 2.57124 2.11981 1.63186 2.14711 0.0619234
threshold=0.78835389018058788 0.36316065490245825 0.91010102629661571 0.014975369442254307 0.43369844555854803 0.18016393482685092 0.63683935999870311 0.14589665830135348
decision_type=2 2 2 2 2 2 2 2
left_child=1 4 -2 -4 7 6 -3 -1
right_child=2 5 3 -5 -6 -7 -8 -9
leaf_value=-0.052740482015673454 0.012114049644285601 0.014788221439264129 0.068397829017085798 0.036878225731074542 -0.019212110303543091 -0.019923565869070414 -0.017625992969547088 -0.039510631091743742
leaf_weight=21.722589202225212 19.148924499750137 13.617479555308821 11.935399249196054 17.934842735528946 7.9221936985850325 12.491615213453768 7.9782032370567313 6.6341723203659049
leaf_count=243 95 90 50 75 67 89 51 70
internal_value=-0.000335246 -0.025211 0.0352504 0.0498257 -0.0434627 -0.00556929 0.00255677 -0.0499707
internal_weight=119.385 70.3663 49.0192 29.8702 36.279 34.0873 21.5957 28.3568
internal_count=830 610 220 125 380 230 141 313
is_linear=0
shrinkage=0.05


Tree=16
num_leaves=9
num_cat=0
split_feature=1 1 3 1 3 10 7 6
split_gain=38.5647 11.3983 4.58006 4.52676 2.31594 1.47023 1.44098 0.981396
threshold=0.57460319995880138 0.91010102629661571 0.055791787803173072 0.083369515836238875 0.014975369442254307 0.33239749073982244 0.018223971128463749 0.029849733226001266
decision_type=2 2 2 2 2 2 2 2
left_child=3 2 5 -1 -3 -2 7 -5
right_child=1 4 -4 6 -6 -7 -8 -9
leaf_value=-0.050580819534958188 0.0056324864629005754 0.064860776725413807 0.036777511775007973 -0.013980020919612202 0.034932427012531034 -0.017003748189680951 -0.0062379172237218136 -0.040617310516915257
leaf_weight=22.085388481616974 16.720279589295391 11.96161235868931 9.0093223452568036 6.8907671794295373 17.991188853979111 12.189415685832499 12.151944503188131 9.2227484211325628
leaf_count=249 91 50 50 62 75 79 93 81
internal_value=-0.000337138 0.0242025 0.00580741 -0.0334975 0.0472267 -0.00376516 -0.0198418 -0.029691
internal_weight=118.223 67.8718 37.919 50.3508 29.9528 28.9097 28.2655 16.1135
internal_count=830 345 220 485 125 170 236 143
is_linear=0
shrinkage=0.05


Tree=17
num_leaves=10
num_cat=0
split_feature=1 1 1 7 6 7 10 6 6
split_gain=35.393 10.285 4.46114 4.11415 2.55995 2.3534 1.35756 0.943629 0.509313
threshold=0.57460319995880138 0.91010102629661571 0.083369515836238875 0.036852322518825538 0.20432756841182712 0.23987706750631335 0.40721274912357336 0.029849733226001266 0.054059268906712539
decision_type=2 2 2 2 2 2 2 2 2
left_child=2 3 -1 8 -5 -3 -4 -8 -2
right_child=1 5 6 4 -6 -7 7 -9 -10
leaf_value=-0.050102807182725799 -0.0040390885445635216 0.032283198294718096 -0.0059537102167297401 0.0035049404679565171 0.037877811092813254 0.062195907703021226 -0.013426613156492529 -0.039794298834819622 -0.023117533953593658
leaf_weight=21.20458597689867 7.7079770863056165 17.757728517055511 12.101522058248522 12.398186385631563 10.076097428798674 12.240454673767092 6.8219610750675193 8.9518170878291112 7.8180017992854118
leaf_count=249 48 75 93 67 53 50 62 81 52
internal_value=-0.000337185 0.0229624 -0.0327006 0.00550316 0.0192367 0.044821 -0.0191524 -0.028862 -0.0140524
internal_weight=117.078 67.9984 49.0799 38.0003 22.4743 29.9982 27.8753 15.7738 15.526
internal_count=830 345 485 220 120 125 236 143 100
is_linear=0
shrinkage=0.05


Tree=18
num_leaves=9
num_cat=0
split_feature=1 1 1 3 4 10 10 6
split_gain=32.494 9.31013 4.39265 3.99156 2.2802 1.27783 1.15616 0.90655
threshold=0.57460319995880138 0.91010102629661571 0.083369515836238875 0.055791787803173072 0.39991511404514318 0.40721274912357336 0.33239749073982244 0.029849733226001266
decision_type=2 2 2 2 2 2 2 2
left_child=2 3 -1 6 -3 -4 -2 -7
right_child=1 4 5 -5 -6 7 -8 -9
leaf_value=-0.049631863382648141 0.0043823943003385886 0.054212359232871113 -0.0056814231052159242 0.033756379239938926 0.024763297303111595 -0.01289055661486267 -0.015728703281744336 -0.038978530108375153
leaf_weight=20.35792575776577 16.9031475186348 17.887691453099254 12.053475379943849 9.1987527012824994 12.103131666779516 6.756241798400878 11.95570847392082 8.6909782439470273
leaf_count=249 91 74 93 50 51 62 79 81
internal_value=-0.000338972 0.0218073 -0.031912 0.0052096 0.0426158 -0.018481 -0.00380216 -0.0280462
internal_weight=115.907 68.0484 47.8586 38.0576 29.9908 27.5007 28.8589 15.4472
internal_count=830 345 485 220 125 236 170 143
is_linear=0
shrinkage=0.05


Tree=19
num_leaves=9
num_cat=0
split_feature=1 1 1 3 1 4 1 10
split_gain=29.8367 8.62329 4.32124 2.80223 2.17013 1.23655 2.19943 0.836143
threshold=0.57460319995880138 0.95736962556839 0.083369515836238875 0.062021316960453994 0.87627550959587108 0.43369844555854803 0.37414966523647314 0.33239749073982244
decision_type=2 2 2 2 2 2 2 2
left_child=2 3 -1 4 7 6 -4 -2
right_child=1 -3 5 -5 -6 -7 -8 -9
leaf_value=-0.049166711537292948 0.00082872438416552218 0.04587066866778286 -0.043335582033464611 0.032755300703958427 0.019426546801656678 -0.001806944326579469 -0.0078635726702285889 -0.017457234162649694
leaf_weight=19.544578291475773 14.445872291922571 22.678293600678444 8.7506919577717834 9.0373174995183927 11.638534232974051 8.8312552496790868 9.5592700839042646 10.300411649048327
leaf_count=249 80 93 97 47 55 71 68 70
internal_value=-0.000337912 0.0207137 -0.0311313 0.00797034 0.00160426 -0.0178276 -0.0252312 -0.00662103
internal_weight=114.786 68.1004 46.6858 45.4221 36.3848 27.1412 18.31 24.7463
internal_count=830 345 485 252 205 236 165 150
is_linear=0
shrinkage=0.05


Tree=20
num_leaves=10
num_cat=0
split_feature=1 1 1 3 1 10 3 10 1
split_gain=27.4129 8.02098 4.24327 3.54262 2.43958 1.38593 1.20654 2.87742 1.8135
threshold=0.57460319995880138 0.97752526402473461 0.083369515836238875 0.062021316960453994 0.91010102629661571 0.33239749073982244 0.032988905906677253 0.40315222740173345 0.36316065490245825
decision_type=2 2 2 2 2 2 2 2 2
left_child=2 3 -1 4 5 -2 7 -4 -9
right_child=1 -3 6 -5 -6 -7 -8 8 -10
leaf_value=-0.048706147099983721 0.0047145064307312912 0.048383387449775411 0.017049178240334625 0.035136020061525879 0.024932159114283758 -0.016554085694514772 -0.031624045304698943 -0.044631342825197422 -0.0027630270173724515
leaf_weight=18.763677999377251 17.413696721196178 17.917298689484596 6.4303667396307054 10.403127357363699 9.1284801065921766 13.222345687448977 9.5169468671083433 5.4931293278932554 5.3440861701965332
leaf_count=249 93 74 51 52 39 87 82 63 40
internal_value=-0.00033716 0.0196948 -0.0303678 0.00927342 0.0023107 -0.00432622 -0.0172017 -0.00882873 -0.0246563
internal_weight=113.633 68.0849 45.5482 50.1676 39.7645 30.636 26.7845 17.2676 10.8372
internal_count=830 345 485 271 219 180 236 154 103
is_linear=0
shrinkage=0.05


Tree=21
num_leaves=10
num_cat=0
split_feature=1 1 1 3 1 10 4 6 1
split_gain=25.1934 7.36604 4.16404 3.1409 2.24948 1.55579 1.17797 2.3017 5.89449
threshold=0.57460319995880138 0.97752526402473461 0.083369515836238875 0.062021316960453994 0.88472145795822155 0.33239749073982244 0.43369844555854803 0.094127114862203612 0.37414966523647314
decision_type=2 2 2 2 2 2 2 2 2
left_child=2 3 -1 4 5 -2 7 8 -4
right_child=1 -3 6 -5 -6 -7 -8 -9 -10
leaf_value=-0.048249051923560105 0.0038541255771678412 0.046401728825170088 -0.045170273451096518 0.032967560540620965 0.020534422914921215 -0.02004852313889724 -0.00090597063515395241 -0.048274760294856459 0.025741933741101175
leaf_weight=18.01432628184557 16.98260755836964 17.756735816597939 5.8148142695426994 10.536050185561178 11.762588560581205 10.970314368605612 8.7135339453816396 6.2772398367524138 5.6378414034843445
leaf_count=249 91 74 69 52 53 75 71 58 38
internal_value=-0.000334024 0.0187454 -0.0296091 0.00880074 0.0021973 -0.00538642 -0.0165885 -0.0239671 -0.0099086
internal_weight=112.466 68.0083 44.4578 50.2516 39.7155 27.9529 26.4434 17.7299 11.4527
internal_count=830 345 485 271 219 166 236 165 107
is_linear=0
shrinkage=0.05


Tree=22
num_leaves=10
num_cat=0
split_feature=1 7 1 4 4 3 10 3 6
split_gain=23.1641 6.81044 4.07642 3.09276 7.66542 4.44248 1.18306 2.25347 0.309921
threshold=0.57460319995880138 0.2824715524911881 0.083369515836238875 0.35192480683326727 0.19662392884492877 0.039700977504253394 0.45065031945705419 0.03579972684383393 0.012892625760287048
decision_type=2 2 2 2 2 2 2 2 2
left_child=2 3 -1 4 -2 -5 7 -4 -8
right_child=1 -3 6 5 -6 -7 8 -9 -10
leaf_value=-0.047794367968612333 -0.011975666642017904 0.050470420005071341 0.0077142934628338143 0.014866355333266107 0.043545400533243857 -0.024855482510407048 -0.01737678403769383 -0.031473299876533044 -0.037783960408759601
leaf_weight=17.29560599476099 9.790536396205427 12.918990954756735 9.6518283635377902 17.247362382709984 16.231970824301243 11.724924847483633 5.1274745762348157 5.676622509956359 5.6441501453518867
leaf_count=249 56 55 82 94 81 59 52 48 54
internal_value=-0.000332809 0.0178462 -0.0288734 0.0100139 0.0224992 -0.00106707 -0.0160097 -0.006584 -0.0287789
internal_weight=111.309 67.9138 43.3957 54.9948 26.0225 28.9723 26.1001 15.3285 10.7716
internal_count=830 345 485 290 137 153 236 130 106
is_linear=0
shrinkage=0.05


Tree=23
num_leaves=9
num_cat=0
split_feature=1 1 7 4 7 6 10 3
split_gain=21.5382 8.40322 3.62061 3.48929 2.60746 2.01687 1.58418 0.34805
threshold=0.37414966523647314 0.88472145795822155 0.036852322518825538 0.43369844555854803 0.23987706750631335 0.057417582720518119 0.19109196960926059 0.030323929153382782
decision_type=2 2 2 2 2 2 2 2
left_child=3 2 5 -1 -3 -2 -4 -8
right_child=1 4 6 -5 -6 -7 7 -9
leaf_value=-0.046991246781342977 -0.0025282954303671892 0.020713105279429531 -0.0039354402832197264 -0.0054472392827377702 0.050705251697416437 -0.034945674991144531 0.012286101249612033 0.027825220160222021
leaf_weight=22.086703278124336 11.80556443333626 19.944413065910339 10.47482290863991 6.9486872032284728 12.465215414762495 8.4542187228798849 9.5404797643423098 8.6623707413673383
leaf_count=319 77 87 55 69 53 67 56 47
internal_value=-0.000335472 0.0128171 -0.000171124 -0.0372735 0.0325228 -0.0164065 0.011142 0.0200657
internal_weight=110.382 81.3471 48.9375 29.0354 32.4096 20.2598 28.6777 18.2029
internal_count=830 442 302 388 140 144 158 103
is_linear=0
shrinkage=0.05


Tree=24
num_leaves=10
num_cat=0
split_feature=1 1 6 7 4 4 3 5 1
split_gain=19.9689 7.89694 2.69444 2.09995 2.3794 2.91884 1.40824 1.95612 0.219416
threshold=0.36316065490245825 0.94666048884391796 0.20741260796785357 0.036852322518825538 0.29618492722511297 0.43709889054298406 0.03579972684383393 0.0080636474303901213 0.10783859342336656
decision_type=2 2 2 2 2 2 2 2 2
left_child=2 3 8 6 -5 -6 7 -2 -1
right_child=1 -3 -4 4 5 -7 -8 -9 -10
leaf_value=-0.049685770179920742 0.017763627231088649 0.03677370430285104 -0.0024690064294228668 0.030532545004727536 -0.01307207517001621 0.022681347115807673 -0.025553399686331014 -0.015439500345402242 -0.034317691145259392
leaf_weight=14.683601379394537 7.9640896990895333 22.903883069753647 4.8241851627826682 10.181057900190352 13.771245762705805 9.5668680220842344 8.1147034838795644 9.7435659840702993 7.5849138572812072
leaf_count=230 53 97 58 54 73 51 53 69 92
internal_value=-0.000331606 0.0118905 -0.0375255 0.00215662 0.0104654 0.00140505 -0.00843464 -0.000209587 -0.0448516
internal_weight=109.338 82.2454 27.0927 59.3415 33.5192 23.3381 25.8224 17.7077 22.2685
internal_count=830 450 380 353 178 124 175 122 322
is_linear=0
shrinkage=0.05


Tree=25
num_leaves=10
num_cat=0
split_feature=1 1 6 7 6 5 1 5 1
split_gain=18.5224 7.29039 2.61824 2.48165 2.93336 2.05111 4.95248 1.60163 0.232365
threshold=0.36316065490245825 0.97752526402473461 0.20741260796785357 0.036852322518825538 0.18016393482685092 0.0034872940741479401 0.78835389018058788 0.0080636474303901213 0.10783859342336656
decision_type=2 2 2 2 2 2 2 2 2
left_child=2 3 8 4 7 -5 -7 -2 -1
right_child=1 -3 -4 5 -6 6 -8 -9 -10
leaf_value=-0.049327355918593531 0.016499579743380552 0.040289210644508168 -0.0023527716037398225 -0.0037095778241747744 -0.034824190931460719 -0.0037403983176945406 0.040889755517865958 -0.011509373981641501 -0.033561249148682283
leaf_weight=14.067120712250476 9.7835726812481933 17.102780297398567 4.8145814388990393 13.088407188653944 7.253033645451068 11.152144134044649 13.385581031441687 10.34875578433275 7.3756985887885085
leaf_count=230 60 74 58 67 53 71 56 69 92
internal_value=-0.000332188 0.0113149 -0.0368505 0.00356564 -0.00775858 0.011939 0.02047 0.0018691 -0.0443173
internal_weight=108.372 82.1143 26.2574 65.0115 27.3854 37.6261 24.5377 20.1323 21.4428
internal_count=830 450 380 376 182 194 127 129 322
is_linear=0
shrinkage=0.05


Tree=26
num_leaves=10
num_cat=0
split_feature=1 1 7 6 3 10 6 1 3
split_gain=17.1825 6.7087 2.62519 2.54259 2.35266 1.32885 1.10602 0.244936 0.0171399
threshold=0.36316065490245825 0.88472145795822155 0.036852322518825538 0.20741260796785357 0.010863495059311392 0.23371426016092303 0.057417582720518119 0.10783859342336656 0.025144795887172226
decision_type=2 2 2 2 2 2 2 2 2
left_child=3 2 6 7 -3 8 -2 -1 -4
right_child=1 4 5 -5 -6 -7 -8 -9 -10
leaf_value=-0.048971307334364479 -0.0041441741485790185 0.046704262150701198 -0.00060423522973167406 -0.0022418046036294841 0.017781707081095773 0.022796943479168122 -0.028283779210579753 -0.032807482888838231 0.0021989115704450376
leaf_weight=13.476612951606517 12.16701513528824 11.687948167324068 9.60475698113442 4.8054430186748496 20.285127103328705 10.768329873681067 8.405900724232195 7.1753402203321448 8.9245148003101331
leaf_count=230 80 52 53 58 88 59 70 92 48
internal_value=-0.000336944 0.0107801 -0.000593766 -0.0361753 0.0286231 0.00890361 -0.0143384 -0.0437814 0.000482045
internal_weight=107.301 81.8436 49.8705 25.4574 31.9731 29.2976 20.5729 20.652 18.5293
internal_count=830 450 310 380 140 160 150 322 101
is_linear=0
shrinkage=0.05


Tree=27
num_leaves=10
num_cat=0
split_feature=1 1 4 7 5 1 3 5 1
split_gain=15.9383 6.32902 2.55457 2.05847 1.81412 4.36415 1.64812 1.8181 0.141952
threshold=0.36316065490245825 0.97752526402473461 0.43369844555854803 0.036852322518825538 0.0034872940741479401 0.78835389018058788 0.03579972684383393 0.0080636474303901213 0.14589665830135348
decision_type=2 2 2 2 2 2 2 2 2
left_child=2 3 8 6 -5 -6 7 -2 -1
right_child=1 -3 -4 4 5 -7 -8 -9 -10
leaf_value=-0.048764147039372097 0.017012777471446135 0.03759113703340166 -0.0066310257415151085 -0.0040325751309211897 -0.0040262819206544342 0.037729913348382549 -0.025965209330365221 -0.013798833169072058 -0.032295680794630473
leaf_weight=13.543332356959587 8.993155770003801 16.75448539853096 6.2007626295089713 13.110970318317412 11.192437261343004 13.502575382590292 8.153442442417143 9.9798066988587362 4.947381615638732
leaf_count=243 57 74 67 67 71 56 54 71 70
internal_value=-0.000335507 0.0102629 -0.0354999 0.00308756 0.0106707 0.0186633 -0.00729777 0.000556299 -0.0448242
internal_weight=106.378 81.6869 24.6915 64.9324 37.806 24.695 27.1264 18.973 18.4907
internal_count=830 450 380 376 194 127 182 128 313
is_linear=0
shrinkage=0.05


end of trees

feature_importances:
cooccurrence_score=100
region_fit=32
popularity_prior=27
age_group_fit=26
known_hobby_compatibility=19
novelty_bonus=15
occupation_fit=11
mismatch_penalty=2

parameters:
[boosting: gbdt]
[objective: binary]
[metric: auc]
[tree_learner: serial]
[device_type: cpu]
[data_sample_strategy: bagging]
[data: ]
[valid: ]
[num_iterations: 500]
[learning_rate: 0.05]
[num_leaves: 31]
[num_threads: -1]
[seed: 42]
[deterministic: 0]
[force_col_wise: 0]
[force_row_wise: 0]
[histogram_pool_size: -1]
[max_depth: -1]
[min_data_in_leaf: 50]
[min_sum_hessian_in_leaf: 0.001]
[bagging_fraction: 1]
[pos_bagging_fraction: 1]
[neg_bagging_fraction: 1]
[bagging_freq: 0]
[bagging_seed: 400]
[bagging_by_query: 0]
[feature_fraction: 1]
[feature_fraction_bynode: 1]
[feature_fraction_seed: 30056]
[extra_trees: 0]
[extra_seed: 12879]
[early_stopping_round: 0]
[early_stopping_min_delta: 0]
[first_metric_only: 0]
[max_delta_step: 0]
[lambda_l1: 0.1]
[lambda_l2: 0.1]
[linear_lambda: 0]
[min_gain_to_split: 0]
[drop_rate: 0.1]
[max_drop: 50]
[skip_drop: 0.5]
[xgboost_dart_mode: 0]
[uniform_drop: 0]
[drop_seed: 17869]
[top_rate: 0.2]
[other_rate: 0.1]
[min_data_per_group: 100]
[max_cat_threshold: 32]
[cat_l2: 10]
[cat_smooth: 10]
[max_cat_to_onehot: 4]
[top_k: 20]
[monotone_constraints: ]
[monotone_constraints_method: basic]
[monotone_penalty: 0]
[feature_contri: ]
[forcedsplits_filename: ]
[refit_decay_rate: 0.9]
[cegb_tradeoff: 1]
[cegb_penalty_split: 0]
[cegb_penalty_feature_lazy: ]
[cegb_penalty_feature_coupled: ]
[path_smooth: 0]
[interaction_constraints: ]
[verbosity: -1]
[saved_feature_importance_type: 0]
[use_quantized_grad: 0]
[num_grad_quant_bins: 4]
[quant_train_renew_leaf: 0]
[stochastic_rounding: 1]
[linear_tree: 0]
[max_bin: 255]
[max_bin_by_feature: ]
[min_data_in_bin: 3]
[bin_construct_sample_cnt: 200000]
[data_random_seed: 175]
[is_enable_sparse: 1]
[enable_bundle: 1]
[use_missing: 1]
[zero_as_missing: 0]
[feature_pre_filter: 1]
[pre_partition: 0]
[two_round: 0]
[header: 0]
[label_column: ]
[weight_column: ]
[group_column: ]
[ignore_column: ]
[categorical_feature: 12,13,14]
[forcedbins_filename: ]
[precise_float_parser: 0]
[parser_config_file: ]
[objective_seed: 16083]
[num_class: 1]
[is_unbalance: 0]
[scale_pos_weight: 1]
[sigmoid: 1]
[boost_from_average: 1]
[reg_sqrt: 0]
[alpha: 0.9]
[fair_c: 1]
[poisson_max_delta_step: 0.7]
[tweedie_variance_power: 1.5]
[lambdarank_truncation_level: 30]
[lambdarank_norm: 1]
[label_gain: ]
[lambdarank_position_bias_regularization: 0]
[eval_at: ]
[multi_error_top_k: 1]
[auc_mu_weights: ]
[num_machines: 1]
[local_listen_port: 12400]
[time_out: 120]
[machine_list_filename: ]
[machines: ]
[gpu_platform_id: -1]
[gpu_device_id: -1]
[gpu_use_dp: 0]
[num_gpu: 1]

end of parameters

pandas_categorical:null
