tree
version=v4
num_class=1
num_tree_per_iteration=1
label_index=0
max_feature_idx=12
objective=binary sigmoid:1
feature_names=lightgcn_score cooccurrence_score segment_popularity_score known_hobby_compatibility age_group_fit occupation_fit region_fit popularity_prior mismatch_penalty popularity_penalty novelty_bonus category_diversity_reward is_cold_start
feature_infos=none [0:1] none [0:0.39790576696395874] [0:0.65789473056793213] [0:0.6834532618522644] [0:0.66666668653488159] [0:1] [0:0.6547619104385376] [0:1] [0:1] none -1:1:0
tree_sizes=661 656 666 665 671 768 771 772 771 773 767 773 772 773 775 775 772 772 772 774 773 780 757 771 880 881 884 674 774 777 676 776 776 652 672 657 780 774 780 778 776 778 877 778 676 881 779 776 989 781 777 987 1091 991 890 992 1087

Tree=0
num_leaves=5
num_cat=0
split_feature=1 1 1 1
split_gain=195.276 44.8644 6.30079 2.86507
threshold=0.37414966523647314 0.94716554880142223 0.73877552151680004 0.083369515836238875
decision_type=2 2 2 2
left_child=3 2 -2 -1
right_child=1 -3 -4 -5
leaf_value=-0.76551662879178262 -0.67961126864639443 -0.56104649393898098 -0.63788402142008094 -0.7369234641425817
leaf_weight=42.666666984558105 18.000000134110451 17.777777910232544 19.111111253499985 13.111111208796499
leaf_count=192 81 80 86 59
internal_value=-0.693147 -0.626255 -0.657898 -0.758975
internal_weight=110.667 54.8889 37.1111 55.7778
internal_count=498 247 167 251
is_linear=0
shrinkage=1


Tree=1
num_leaves=5
num_cat=0
split_feature=1 1 1 4
split_gain=176.512 37.6284 7.48184 2.76791
threshold=0.37414966523647314 0.96822822093963634 0.79269602894783031 0.31289508938789373
decision_type=2 2 2 2
left_child=3 2 -2 -1
right_child=1 -3 -4 -5
leaf_value=-0.070624786658309111 0.015570928647691063 0.12977863617535432 0.058760653614317572 -0.04240898361816519
leaf_weight=41.431934252381325 20.795051828026772 15.035447031259535 20.208461165428162 13.085449904203413
leaf_count=191 93 65 89 60
internal_value=0 0.0622197 0.0370697 -0.0640339
internal_weight=110.556 56.039 41.0035 54.5174
internal_count=498 247 182 251
is_linear=0
shrinkage=0.05


Tree=2
num_leaves=5
num_cat=0
split_feature=1 1 7 1
split_gain=160.101 32.5291 5.6588 2.76499
threshold=0.37414966523647314 0.94716554880142223 0.036852322518825538 0.083369515836238875
decision_type=2 2 2 2
left_child=3 2 -2 -1
right_child=1 -3 -4 -5
leaf_value=-0.068981253521542787 0.0078324325583682703 0.11140472680023815 0.047422568315184085 -0.040428442338662107
leaf_weight=40.550531774759293 15.887351185083388 19.04030553996563 22.043628841638565 12.6710839420557
leaf_count=192 70 80 97 59
internal_value=-2.53104e-05 0.0581317 0.031036 -0.0623657
internal_weight=110.193 56.9713 37.931 53.2216
internal_count=498 247 167 251
is_linear=0
shrinkage=0.05


Tree=3
num_leaves=5
num_cat=0
split_feature=1 1 1 1
split_gain=145.618 28.443 6.21201 2.69259
threshold=0.37414966523647314 0.96822822093963634 0.79269602894783031 0.083369515836238875
decision_type=2 2 2 2
left_child=3 2 -2 -1
right_child=1 -3 -4 -5
leaf_value=-0.067457179901579845 0.0130749275400185 0.11151478787175904 0.052025068299839577 -0.039034810257018611
leaf_weight=39.424211591482162 21.09612163901329 15.841341540217398 20.787967756390572 12.47589662671089
leaf_count=192 93 65 89 59
internal_value=-5.06588e-05 0.0545008 0.0326037 -0.0608093
internal_weight=109.626 57.7254 41.8841 51.9001
internal_count=498 247 182 251
is_linear=0
shrinkage=0.05


Tree=4
num_leaves=5
num_cat=0
split_feature=1 1 7 4
split_gain=132.786 25.1866 4.93012 2.70915
threshold=0.37414966523647314 0.94716554880142223 0.036852322518825538 0.31289508938789373
decision_type=2 2 2 2
left_child=3 2 -2 -1
right_child=1 -3 -4 -5
leaf_value=-0.066174115898487859 0.005877169945913396 0.097208673153681036 0.042543993181092254 -0.037539976509779985
leaf_weight=38.184293657541275 16.058159455657005 19.719299525022507 22.528239741921425 12.378553211688994
leaf_count=191 70 80 97 60
internal_value=-6.98013e-05 0.0512667 0.0274686 -0.0593507
internal_weight=108.869 58.3057 38.5864 50.5628
internal_count=498 247 167 251
is_linear=0
shrinkage=0.05


Tree=5
num_leaves=6
num_cat=0
split_feature=1 1 1 1 4
split_gain=121.32 22.798 5.29951 2.66254 1.42498
threshold=0.37414966523647314 0.96822822093963634 0.73877552151680004 0.083369515836238875 0.34377656877040869
decision_type=2 2 2 2 2
left_child=3 2 -2 -1 -4
right_child=1 -3 4 -5 -6
leaf_value=-0.064817961548429906 0.0083570191036599403 0.098786240582517906 0.030655553317157261 -0.036066127263957734 0.056998365224131355
leaf_weight=37.182638198137283 18.548966869711876 16.19992271065712 11.883573621511461 12.038387745618818 12.1218926012516
leaf_count=192 81 65 50 59 51
internal_value=-8.62399e-05 0.0483405 0.0288327 -0.0579747 0.0443464
internal_weight=107.975 58.7544 42.5544 49.221 24.0055
internal_count=498 247 182 251 101
is_linear=0
shrinkage=0.05


Tree=6
num_leaves=6
num_cat=0
split_feature=1 1 3 1 4
split_gain=111.079 20.5781 5.0585 4.38715 2.68521
threshold=0.37414966523647314 0.96822822093963634 0.015566361136734487 0.79269602894783031 0.31289508938789373
decision_type=2 2 2 2 2
left_child=4 2 -2 -4 -1
right_child=1 -3 3 -5 -6
leaf_value=-0.063717692519368624 0.0064581742061751539 0.093583790502858921 0.018657243912516063 0.061531263550601283 -0.03469508854196348
leaf_weight=35.945221051573753 17.782875508069992 16.249380111694336 11.774085953831674 13.259500995278357 11.932601243257521
leaf_count=191 76 65 51 55 60
internal_value=-9.43362e-05 0.0457036 0.0272403 0.0417197 -0.056676
internal_weight=106.944 59.0658 42.8165 25.0336 47.8778
internal_count=498 247 182 106 251
is_linear=0
shrinkage=0.05


Tree=7
num_leaves=6
num_cat=0
split_feature=1 1 3 1 1
split_gain=101.862 18.7444 4.50076 3.88113 2.65844
threshold=0.37414966523647314 0.96822822093963634 0.015566361136734487 0.79269602894783031 0.083369515836238875
decision_type=2 2 2 2 2
left_child=4 2 -2 -4 -1
right_child=1 -3 3 -5 -6
leaf_value=-0.062541805389350377 0.0061271755390945306 0.089077785182015784 0.017641182063579324 0.057865460849227592 -0.033298972212910637
leaf_weight=34.932508647441864 17.811015501618385 16.223223730921745 11.833789661526682 13.39709749817848 11.610907346010206
leaf_count=192 76 65 51 55 59
internal_value=-0.000100417 0.0432968 0.0257589 0.039341 -0.055441
internal_weight=105.809 59.2651 43.0419 25.2309 46.5434
internal_count=498 247 182 106 251
is_linear=0
shrinkage=0.05


Tree=8
num_leaves=6
num_cat=0
split_feature=1 1 3 1 4
split_gain=93.5432 17.2033 4.0155 3.4508 2.68393
threshold=0.37414966523647314 0.96822822093963634 0.015566361136734487 0.79269602894783031 0.31289508938789373
decision_type=2 2 2 2 2
left_child=4 2 -2 -4 -1
right_child=1 -3 3 -5 -6
leaf_value=-0.061585566488576216 0.0058137258498597317 0.085134031482292857 0.016687614406192885 0.054544975314154268 -0.032031609539848467
leaf_weight=33.718486443161964 17.837434232234955 16.132734566926956 11.888754963874819 13.50515605509281 11.500869095325468
leaf_count=191 76 65 51 55 60
internal_value=-0.000104382 0.0410903 0.0243805 0.0371523 -0.0542666
internal_weight=104.583 59.3641 43.2313 25.3939 45.2194
internal_count=498 247 182 106 251
is_linear=0
shrinkage=0.05


Tree=9
num_leaves=6
num_cat=0
split_feature=1 1 7 1 1
split_gain=86.0076 15.8897 3.71521 2.67119 2.51111
threshold=0.37414966523647314 0.96822822093963634 0.036852322518825538 0.083369515836238875 0.78137212991714489
decision_type=2 2 2 2 2
left_child=3 2 -2 -1 -4
right_child=1 -3 4 -5 -6
leaf_value=-0.060553196764228871 0.0043912042643697536 0.081650472564981674 0.017285582220266115 -0.030702102459000805 0.049169402447427506
leaf_weight=32.715151637792587 16.895714372396469 15.987775623798369 12.21867483854294 11.198622494935988 14.274683415889738
leaf_count=192 72 65 52 59 58
internal_value=-0.000106563 0.0390561 0.0230946 -0.0531414 0.034773
internal_weight=103.291 59.3768 43.3891 43.9138 26.4934
internal_count=498 247 182 251 110
is_linear=0
shrinkage=0.05


Tree=10
num_leaves=6
num_cat=0
split_feature=1 1 3 1 4
split_gain=79.1602 14.759 3.50045 2.86595 2.69713
threshold=0.37414966523647314 0.96822822093963634 0.015566361136734487 0.79269602894783031 0.31289508938789373
decision_type=2 2 2 2 2
left_child=4 2 -2 -4 -1
right_child=1 -3 3 -5 -6
leaf_value=-0.059711501202722173 0.0045759516244530734 0.07854806075840999 0.015110281086960393 0.049536387101220797 -0.029523464634062992
leaf_weight=31.5394546687603 17.925218611955643 15.796975940465925 11.975881591439249 13.62591916322708 11.087525069713591
leaf_count=191 76 65 51 55 60
internal_value=-0.000107517 0.0371662 0.0218875 0.0337487 -0.0520639
internal_weight=101.951 59.324 43.527 25.6018 42.627
internal_count=498 247 182 106 251
is_linear=0
shrinkage=0.05


Tree=11
num_leaves=6
num_cat=0
split_feature=1 1 7 1 1
split_gain=72.9269 13.7692 3.23815 2.69405 2.06208
threshold=0.37414966523647314 0.96822822093963634 0.036852322518825538 0.083369515836238875 0.78137212991714489
decision_type=2 2 2 2 2
left_child=3 2 -2 -1 -4
right_child=1 -3 4 -5 -6
leaf_value=-0.058794374241828089 0.0033141597653912427 0.075764544290943509 0.015757995981295785 -0.028253011022980369 0.044634456181852591
leaf_weight=30.560422420501709 16.961844623088837 15.567898154258726 12.301300883293154 10.805057421326635 14.371845379471777
leaf_count=192 72 65 52 59 58
internal_value=-0.0001071 0.0354111 0.0207593 -0.0510246 0.0316124
internal_weight=100.568 59.2029 43.635 41.3655 26.6731
internal_count=498 247 182 251 110
is_linear=0
shrinkage=0.05


Tree=12
num_leaves=6
num_cat=0
split_feature=1 1 3 4 1
split_gain=67.2361 12.8978 3.06784 2.71865 2.40455
threshold=0.37414966523647314 0.96822822093963634 0.015566361136734487 0.31289508938789373 0.79269602894783031
decision_type=2 2 2 2 2
left_child=3 2 -2 -1 -4
right_child=1 -3 4 -5 -6
leaf_value=-0.058044352190558285 0.0035091987380665799 0.073250238901272996 0.013705353306427843 -0.027151986490848119 0.045213174432145564
leaf_weight=29.433335840702057 17.994115501642227 15.307163447141646 12.050332680344583 10.695300340652464 13.684658780694006
leaf_count=191 76 65 51 60 55
internal_value=-0.00010588 0.0337669 0.0196962 -0.050023 0.0307634
internal_weight=99.1649 59.0363 43.7291 40.1286 25.735
internal_count=498 247 182 251 106
is_linear=0
shrinkage=0.05


Tree=13
num_leaves=6
num_cat=0
split_feature=1 1 7 1 1
split_gain=62.0344 12.1187 2.83525 2.72183 1.70712
threshold=0.37414966523647314 0.96822822093963634 0.036852322518825538 0.083369515836238875 0.78137212991714489
decision_type=2 2 2 2 2
left_child=3 2 -2 -1 -4
right_child=1 -3 4 -5 -6
leaf_value=-0.057220301863235616 0.0023885918537884221 0.070964935609078364 0.014394236742113854 -0.025935617608963891 0.040686416624176991
leaf_weight=28.48920339345932 17.012672528624535 15.020574554800985 12.372000202536585 10.432478278875349 14.412981882691382
leaf_count=192 72 65 52 59 58
internal_value=-0.00010361 0.0322296 0.0186999 -0.0490509 0.0288267
internal_weight=97.7399 58.8182 43.7977 38.9217 26.785
internal_count=498 247 182 251 110
is_linear=0
shrinkage=0.05


Tree=14
num_leaves=6
num_cat=0
split_feature=1 1 7 3 1
split_gain=57.2677 11.4198 2.74511 2.69969 2.03313
threshold=0.37414966523647314 0.96822822093963634 0.011888714972883465 0.015566361136734487 0.79269602894783031
decision_type=2 2 2 2 2
left_child=2 3 -1 -2 -5
right_child=1 -3 -4 4 -6
leaf_value=-0.055459675250061839 0.0025890992096162988 0.06887576896432622 -0.021622621236820041 0.012450003905543945 0.041430009669981838
leaf_weight=29.310180082917213 18.047670423984528 14.713205844163893 8.4330867826938611 12.114083603024485 13.695416167378424
leaf_count=201 76 65 50 51 55
internal_value=-0.000100816 0.0307799 -0.0481086 0.0177581 0.0281213
internal_weight=96.3136 58.5704 37.7433 43.8572 25.8095
internal_count=498 247 251 182 106
is_linear=0
shrinkage=0.05


Tree=15
num_leaves=6
num_cat=0
split_feature=1 1 4 7 1
split_gain=52.8907 10.7837 2.78065 2.49113 1.42154
threshold=0.37414966523647314 0.96822822093963634 0.31289508938789373 0.036852322518825538 0.78137212991714489
decision_type=2 2 2 2 2
left_child=2 3 -1 -2 -5
right_child=1 -3 -4 4 -6
leaf_value=-0.055859948417564802 0.0015933826350143861 0.066955581220292243 -0.023692307847234223 0.013172993441580219 0.037207705788293723
leaf_weight=26.471781134605408 17.051045447587967 14.389492422342299 10.130817621946333 12.432635813951494 14.410979881882666
leaf_count=191 72 65 60 52 58
internal_value=-9.68223e-05 0.0294171 -0.0471817 0.0168734 0.0263518
internal_weight=94.8868 58.2842 36.6026 43.8947 26.8436
internal_count=498 247 251 182 110
is_linear=0
shrinkage=0.05


Tree=16
num_leaves=6
num_cat=0
split_feature=1 1 1 3 5
split_gain=48.8723 10.2041 2.80439 2.38312 1.7641
threshold=0.37414966523647314 0.96822822093963634 0.083369515836238875 0.015566361136734487 0.19282930344343188
decision_type=2 2 2 2 2
left_child=2 3 -1 -2 -5
right_child=1 -3 -4 4 -6
leaf_value=-0.05515813274988355 0.0017956851658897017 0.065181701436876946 -0.022464001586409009 0.011940615603561451 0.038902667448519807
leaf_weight=25.607400640845299 18.088717222213745 14.053308591246603 9.8817525506019575 12.86801400780678 12.970308139920233
leaf_count=192 76 65 59 53 53
internal_value=-9.28556e-05 0.0281251 -0.0462838 0.0160351 0.0257656
internal_weight=93.4695 57.9803 35.4892 43.927 25.8383
internal_count=498 247 251 182 106
is_linear=0
shrinkage=0.05


Tree=17
num_leaves=6
num_cat=0
split_feature=1 1 4 1 4
split_gain=45.1687 9.67621 2.80248 2.26334 1.1741
threshold=0.37414966523647314 0.96822822093963634 0.31289508938789373 0.73877552151680004 0.34377656877040869
decision_type=2 2 2 2 2
left_child=2 3 -1 -2 -5
right_child=1 -3 -4 4 -6
leaf_value=-0.054549622645835495 0.0020004551410406214 0.063535079151895199 -0.021618986986048694 0.013352787380972281 0.036132452625941607
leaf_weight=24.609318509697914 19.134783744812012 13.708024024963377 9.7981517910957319 12.274195030331613 12.567276909947394
leaf_count=191 81 65 60 50 51
internal_value=-8.86198e-05 0.026888 -0.0454067 0.0152329 0.0251761
internal_weight=92.0918 57.6843 34.4075 43.9763 24.8415
internal_count=498 247 251 182 101
is_linear=0
shrinkage=0.05


Tree=18
num_leaves=6
num_cat=0
split_feature=1 1 1 7 1
split_gain=41.7621 9.18423 2.8262 2.14468 1.17974
threshold=0.37414966523647314 0.96822822093963634 0.083369515836238875 0.036852322518825538 0.78137212991714489
decision_type=2 2 2 2 2
left_child=2 3 -1 -2 -5
right_child=1 -3 -4 4 -6
leaf_value=-0.053902650122527797 0.00033444503793452754 0.061999570672044924 -0.02044030688833099 0.011292511179516521 0.033197980580306534
leaf_weight=23.79273034632206 17.11635534465313 13.356569632887838 9.5675604343414289 12.517011597752573 14.369157075881956
leaf_count=192 72 65 59 52 58
internal_value=-8.37418e-05 0.0257206 -0.044545 0.0144795 0.0232647
internal_weight=90.7194 57.3591 33.3603 44.0025 26.8862
internal_count=498 247 251 182 110
is_linear=0
shrinkage=0.05


Tree=19
num_leaves=6
num_cat=0
split_feature=1 1 4 3 5
split_gain=38.6272 8.72333 2.81982 2.07533 1.5651
threshold=0.37414966523647314 0.96822822093963634 0.31289508938789373 0.015566361136734487 0.19282930344343188
decision_type=2 2 2 2 2
left_child=2 3 -1 -2 -5
right_child=1 -3 -4 4 -6
leaf_value=-0.053336666258107929 0.00051329835618989922 0.060561381057344536 -0.01965156527139806 0.0098343191439099718 0.035199792283482717
leaf_weight=22.856452152132988 18.147593691945076 13.001485019922255 9.4891209006309492 12.87826728820801 12.979358434677122
leaf_count=191 76 65 60 53 53
internal_value=-7.85699e-05 0.0246177 -0.0436997 0.0137714 0.0228458
internal_weight=89.3523 57.0067 32.3456 44.0052 25.8576
internal_count=498 247 251 182 106
is_linear=0
shrinkage=0.05


Tree=20
num_leaves=6
num_cat=0
split_feature=1 1 1 1 4
split_gain=35.7283 8.29604 2.84195 1.89863 1.06482
threshold=0.37414966523647314 0.96822822093963634 0.083369515836238875 0.73877552151680004 0.34377656877040869
decision_type=2 2 2 2 2
left_child=2 3 -1 -2 -5
right_child=1 -3 -4 4 -6
leaf_value=-0.052733988744794194 0.0010013083741906581 0.059208660691213014 -0.018522082946329257 0.010971505822978201 0.032623056434811497
leaf_weight=22.089383557438854 19.210260882973671 12.644963040947912 9.2761488705873472 12.263846293091776 12.552107125520704
leaf_count=192 81 65 59 50 51
internal_value=-7.32087e-05 0.0235568 -0.042866 0.0130928 0.0222107
internal_weight=88.0367 56.6712 31.3655 44.0262 24.816
internal_count=498 247 251 182 101
is_linear=0
shrinkage=0.05


Tree=21
num_leaves=6
num_cat=0
split_feature=1 1 10 7 1
split_gain=33.0561 7.89221 2.86746 1.84856 0.982256
threshold=0.37414966523647314 0.96822822093963634 0.47030495107173925 0.036852322518825538 0.78137212991714489
decision_type=2 2 2 2 2
left_child=2 3 -1 -2 -5
right_child=1 -3 -4 4 -6
leaf_value=-0.013957116492085812 -8.7169100573923272e-05 0.057931182378259886 -0.050869156617005251 0.0097139083092680403 0.029737346681755008
leaf_weight=7.4686625152826336 17.159093752503395 12.288890480995176 22.949230656027794 12.580197274684908 14.289473399519919
leaf_count=50 72 65 201 52 58
internal_value=-6.74146e-05 0.0225511 -0.0420452 0.0124539 0.0206187
internal_weight=86.7355 56.3177 30.4179 44.0288 26.8697
internal_count=498 247 251 182 110
is_linear=0
shrinkage=0.05


Tree=22
num_leaves=6
num_cat=0
split_feature=1 1 4 3 3
split_gain=30.576 7.51322 4.14515 1.81167 1.48016
threshold=0.37414966523647314 0.96822822093963634 0.38402678072452551 0.015566361136734487 0.050503561273217208
decision_type=2 2 2 2 2
left_child=2 3 -1 -2 -5
right_child=1 -3 -4 4 -6
leaf_value=-0.050813425486276625 0 0.056720052246809073 -0.0036991537184632491 0.032362100049602265 0.0077456330987140378
leaf_weight=23.369484484195713 18.184419691562653 11.934881955385206 6.1401656270027152 12.917628899216654 12.910623848438261
leaf_count=210 76 65 41 53 53
internal_value=-6.67963e-05 0.0215876 -0.0412247 0.0118405 0.0203274
internal_weight=85.4572 55.9476 29.5097 44.0127 25.8283
internal_count=498 247 251 182 106
is_linear=0
shrinkage=0.05


Tree=23
num_leaves=6
num_cat=0
split_feature=1 7 1 1 3
split_gain=28.3132 6.30483 5.3664 1.98129 1.46295
threshold=0.58058610558509838 0.018223971128463749 0.96822822093963634 0.112244900316 0.015566361136734487
decision_type=2 2 2 2 2
left_child=1 3 4 -1 -2
right_child=2 -3 -4 -5 -6
leaf_value=-0.053407490015429486 0.0028280404156264261 0.0039324098299016444 0.055567501652191389 -0.024456096239753033 0.024247922583743864
leaf_weight=18.719158031046394 13.773105174303053 8.9704261198639852 11.584313809871672 10.185375407338141 21.010287418961525
leaf_count=183 57 49 65 58 86
internal_value=-6.60763e-05 -0.0321516 0.0260478 -0.0434975 0.0159421
internal_weight=84.2427 37.875 46.3677 28.9045 34.7834
internal_count=498 290 208 241 143
is_linear=0
shrinkage=0.05


Tree=24
num_leaves=7
num_cat=0
split_feature=1 1 4 7 1 1
split_gain=26.2563 6.97392 3.33473 1.61869 1.92526 0.0211886
threshold=0.35124717652797705 0.96822822093963634 0.38402678072452551 0.12524936348199847 0.76216641068458568 0.041684757918119437
decision_type=2 2 2 2 2 2
left_child=2 3 5 4 -2 -1
right_child=1 -3 -4 -5 -6 -7
leaf_value=-0.05245179902889207 -0.0088347505820800688 0.054466718304486066 -0.0043810687327220403 0.023141886338309173 0.016774779551443342 -0.038323830028824273
leaf_weight=16.365782864391811 15.380179315805437 11.238350272178648 5.3824608102440825 15.879407122731207 13.687080249190329 5.100173979997634
leaf_count=169 67 65 37 65 56 39
internal_value=-6.13651e-05 0.0193101 -0.0407063 0.0103072 0.00306891 -0.0495202
internal_weight=83.0334 56.185 26.8484 44.9467 29.0673 21.466
internal_count=498 253 245 188 123 208
is_linear=0
shrinkage=0.05


Tree=25
num_leaves=7
num_cat=0
split_feature=1 1 4 7 1 1
split_gain=24.3249 6.63649 3.55248 1.46057 1.7398 0.0414637
threshold=0.35124717652797705 0.96822822093963634 0.40280905365943914 0.12524936348199847 0.76216641068458568 0.041684757918119437
decision_type=2 2 2 2 2 2
left_child=2 3 5 4 -2 -1
right_child=1 -3 -4 -5 -6 -7
leaf_value=-0.052094972959346043 -0.0084146868802347629 0.053411697636587908 -0.0015132800944306702 0.021994891113961645 0.015936142473412556 -0.037417221862167283
leaf_weight=15.95842912048102 15.346439585089685 10.897969603538511 5.1132277548313132 15.877366840839384 13.692114323377607 4.9683669656515113
leaf_count=171 67 65 35 65 56 39
internal_value=-6.63775e-05 0.0184866 -0.0399425 0.00980179 0.00291079 -0.0490425
internal_weight=81.8539 55.8139 26.04 44.9159 29.0386 20.9268
internal_count=498 253 245 188 123 210
is_linear=0
shrinkage=0.05


Tree=26
num_leaves=7
num_cat=0
split_feature=1 1 4 7 4 1
split_gain=22.5376 6.29163 3.44591 1.44192 1.44284 0.0562304
threshold=0.35124717652797705 0.94716554880142223 0.40280905365943914 0.022860839962959293 0.35673727095127111 0.041684757918119437
decision_type=2 2 2 2 2 2
left_child=2 3 5 -2 -5 -1
right_child=1 -3 -4 4 -6 -7
leaf_value=-0.051641190028803588 -0.0050899658143593457 0.046419702286019882 -0.0014404642496194265 0.025012858512434455 0.0015114365039611683 -0.036523217255066451
leaf_weight=15.31101249903441 14.034093931317328 14.150848791003225 5.1083083301782599 14.664946466684343 12.594947665929793 4.8411935195326796
leaf_count=171 60 80 35 60 53 39
internal_value=-7.09664e-05 0.0176988 -0.0391874 0.00764746 0.0143824 -0.0484545
internal_weight=80.7054 55.4448 25.2605 41.294 27.2599 20.1522
internal_count=498 253 245 173 113 210
is_linear=0
shrinkage=0.05


Tree=27
num_leaves=5
num_cat=0
split_feature=1 1 7 6
split_gain=21.0257 7.26302 2.76296 1.03866
threshold=0.083369515836238875 0.94716554880142223 0.018223971128463749 0.063353721052408232
decision_type=2 2 2 2
left_child=-1 2 -2 -4
right_child=1 -3 3 -5
leaf_value=-0.049188746608603659 -0.011137066956590828 0.045165096376341994 0.0013342637398386416 0.020711646348870086
leaf_weight=17.053651228547096 18.250264383852482 13.827805697917936 11.920860782265665 18.581764072179794
leaf_count=192 94 80 51 81
internal_value=-7.66916e-05 0.013284 0.00406529 0.0133312
internal_weight=79.6343 62.5807 48.7529 30.5026
internal_count=498 306 226 132
is_linear=0
shrinkage=0.05


Tree=28
num_leaves=6
num_cat=0
split_feature=1 1 4 1 8
split_gain=19.6475 6.93111 3.22266 2.96657 1.11738
threshold=0.083369515836238875 0.96822822093963634 0.21028887480497363 0.76216641068458568 0.33111602067947393
decision_type=2 2 2 2 2
left_child=-1 2 -2 4 -4
right_child=1 -3 3 -5 -6
leaf_value=-0.048663880823356459 -0.016836917570909101 0.050695433102791093 -0.0126059175312955 0.026496265451577145 0.010367024870945412
leaf_weight=16.393543533980846 12.320687755942343 9.9935157597064954 10.145033299922945 18.976650938391685 10.798661202192305
leaf_count=192 61 65 49 78 53
internal_value=-7.33172e-05 0.0127035 0.0052573 0.0122262 -0.000530389
internal_weight=78.6281 62.2345 52.241 39.9203 20.9437
internal_count=498 306 241 180 102
is_linear=0
shrinkage=0.05


Tree=29
num_leaves=6
num_cat=0
split_feature=1 1 4 4 3
split_gain=18.3652 6.37255 2.43777 2.76417 1.95049
threshold=0.083369515836238875 0.94716554880142223 0.21028887480497363 0.35673727095127111 0.018338761292397979
decision_type=2 2 2 2 2
left_child=-1 2 -2 -4 -5
right_child=1 -3 3 4 -6
leaf_value=-0.048144261176744196 -0.015872826497877798 0.042893039708242466 0.028002686659184314 0.013777231858216525 -0.014992018642833888
leaf_weight=15.759144142270086 11.799200445413588 13.180177211761473 13.492541357874869 11.884717866778375 11.476291343569754
leaf_count=192 59 80 59 55 53
internal_value=-7.18428e-05 0.0121574 0.0036576 0.0100719 -0.000146445
internal_weight=77.5921 61.8329 48.6528 36.8536 23.361
internal_count=498 306 226 167 108
is_linear=0
shrinkage=0.05


Tree=30
num_leaves=5
num_cat=0
split_feature=1 1 7 6
split_gain=17.1624 5.95231 2.33361 0.943104
threshold=0.083369515836238875 0.94716554880142223 0.018223971128463749 0.063353721052408232
decision_type=2 2 2 2
left_child=-1 2 -2 -4
right_child=1 -3 3 -5
leaf_value=-0.047628666622275842 -0.010559486522477962 0.041733777576898994 0.00053271543855228998 0.018980092332716539
leaf_weight=15.149812147021292 18.129836358129978 12.879478082060812 11.91769500076771 18.616109579801559
leaf_count=192 94 80 51 81
internal_value=-7.17225e-05 0.0116123 0.00346852 0.0119683
internal_weight=76.6929 61.5431 48.6636 30.5338
internal_count=498 306 226 132
is_linear=0
shrinkage=0.05


Tree=31
num_leaves=6
num_cat=0
split_feature=1 1 4 4 3
split_gain=16.0455 5.55421 2.15523 2.46147 1.7853
threshold=0.083369515836238875 0.94716554880142223 0.21028887480497363 0.35673727095127111 0.018338761292397979
decision_type=2 2 2 2 2
left_child=-1 2 -2 -4 -5
right_child=1 -3 3 4 -6
leaf_value=-0.047115960918545835 -0.015128204070565443 0.040602551469085146 0.026208321598520393 0.012943960972594804 -0.014570981384489343
leaf_weight=14.564880669116972 11.729762494564055 12.586706027388571 13.529647618532179 11.925113990902902 11.443856969475744
leaf_count=192 59 80 59 55 53
internal_value=-6.77768e-05 0.0111034 0.00329776 0.00931541 -0.000321817
internal_weight=75.78 61.2151 48.6284 36.8986 23.369
internal_count=498 306 226 167 108
is_linear=0
shrinkage=0.05


Tree=32
num_leaves=6
num_cat=0
split_feature=1 1 4 1 8
split_gain=14.9989 5.18597 3.27174 2.86437 0.992767
threshold=0.083369515836238875 0.91388890147209179 0.21028887480497363 0.76216641068458568 0.33111602067947393
decision_type=2 2 2 2 2
left_child=-1 2 -2 4 -4
right_child=1 -3 3 -5 -6
leaf_value=-0.04660509394163441 -0.021960508867955975 0.034268897577493275 -0.012958103797904503 0.028552326089722548 0.0085982074495940582
leaf_weight=14.003660939633845 10.942855060100554 16.699923321604729 10.154637306928636 12.242366686463354 10.89261658489704
leaf_count=192 56 98 49 50 53
internal_value=-6.73661e-05 0.010605 0.00150077 0.0094053 -0.00157769
internal_weight=74.9361 60.9324 44.2325 33.2896 21.0473
internal_count=498 306 208 152 102
is_linear=0
shrinkage=0.05


Tree=33
num_leaves=5
num_cat=0
split_feature=1 1 7 6
split_gain=14.0243 4.90243 1.96341 0.85559
threshold=0.083369515836238875 0.94716554880142223 0.018223971128463749 0.063353721052408232
decision_type=2 2 2 2
left_child=-1 2 -2 -4
right_child=1 -3 3 -5
leaf_value=-0.04609508798734837 -0.010018332530540755 0.038559639526134115 0 0.017359398591088659
leaf_weight=13.465452358126639 17.993638083338737 12.062341600656508 11.902454331517221 18.622357770800591
leaf_count=192 94 80 51 81
internal_value=-6.82405e-05 0.010139 0.00290559 0.010695
internal_weight=74.0462 60.5808 48.5185 30.5248
internal_count=498 306 226 132
is_linear=0
shrinkage=0.05


Tree=34
num_leaves=5
num_cat=0
split_feature=1 1 7 1
split_gain=13.1146 4.56945 1.80649 1.52651
threshold=0.083369515836238875 0.94716554880142223 0.12524936348199847 0.58058610558509838
decision_type=2 2 2 2
left_child=-1 2 3 -2
right_child=1 -3 -4 -5
leaf_value=-0.045585026737284248 -0.015078120112955076 0.037498149066437052 0.017459980578022598 0.0060689762401120407
leaf_weight=12.949543848633764 15.4743545204401 11.79336081445217 14.595947057008742 18.409026935696602
leaf_count=192 89 80 61 76
internal_value=-6.5396e-05 0.00969095 0.00276022 -0.00345761
internal_weight=73.2222 60.2727 48.4793 33.8834
internal_count=498 306 226 165
is_linear=0
shrinkage=0.05


Tree=35
num_leaves=5
num_cat=0
split_feature=1 1 7 6
split_gain=12.2674 4.25457 1.66457 0.77201
threshold=0.083369515836238875 0.94716554880142223 0.018223971128463749 0.063353721052408232
decision_type=2 2 2 2
left_child=-1 2 -2 -4
right_child=1 -3 3 -5
leaf_value=-0.045074073443316064 -0.0093186650176232642 0.036458082763817332 0 0.016122878779008587
leaf_weight=12.455218754708765 17.86535868793726 11.532863497734068 11.892728060483934 18.619671240448952
leaf_count=192 94 80 51 81
internal_value=-6.09165e-05 0.00927337 0.00262777 0.00979347
internal_weight=72.3658 59.9106 48.3778 30.5124
internal_count=498 306 226 132
is_linear=0
shrinkage=0.05


Tree=36
num_leaves=6
num_cat=0
split_feature=1 7 8 1 6
split_gain=11.4707 4.03564 2.14583 1.87282 1.55979
threshold=0.083369515836238875 0.12524936348199847 0.32784740626811987 0.58058610558509838 0.056423259899020202
decision_type=2 2 2 2 2
left_child=-1 3 -3 -2 -5
right_child=1 2 -4 4 -6
leaf_value=-0.044561445645083311 -0.014353934793290238 0.011151240751460553 0.043743761267458714 0.022562497674294864 -0.0033394976491769382
leaf_weight=11.981762774288653 15.345066130161284 11.812927693128588 9.6386272609233838 10.274951428174974 12.547124296426771
leaf_count=192 89 58 53 47 59
internal_value=-6.10931e-05 0.0088582 0.0261628 -0.000779982 0.00815152
internal_weight=71.6005 59.6187 21.4516 38.1671 22.8221
internal_count=498 306 111 195 106
is_linear=0
shrinkage=0.05


Tree=37
num_leaves=6
num_cat=0
split_feature=1 1 4 4 3
split_gain=10.7248 3.8671 1.5751 2.04786 1.71459
threshold=0.083369515836238875 0.94716554880142223 0.21028887480497363 0.35673727095127111 0.018338761292397979
decision_type=2 2 2 2 2
left_child=-1 2 -2 -4 -5
right_child=1 -3 3 4 -6
leaf_value=-0.044046430015107801 -0.01371930153970964 0.034899859802677104 0.022766895768122176 0.011462644914581412 -0.015551897213191047
leaf_weight=11.528463132679461 11.521057359874247 11.138715013861654 13.5015252828598 11.922501653432848 11.302840948104857
leaf_count=192 59 80 59 55 53
internal_value=-5.99469e-05 0.00845459 0.00218635 0.00733536 -0.0014802
internal_weight=70.9151 59.3866 48.2479 36.7269 23.2253
internal_count=498 306 226 167 108
is_linear=0
shrinkage=0.05


Tree=38
num_leaves=6
num_cat=0
split_feature=1 7 8 1 6
split_gain=10.0281 3.62965 1.94797 1.65105 1.20472
threshold=0.083369515836238875 0.12524936348199847 0.32784740626811987 0.76216641068458568 0.055428570136427886
decision_type=2 2 2 2 2
left_child=-1 3 -3 4 -2
right_child=1 2 -4 -5 -6
leaf_value=-0.043528369947770242 0.00072910524293474694 0.010272135540445329 0.041561494691916404 0.010936268107808065 -0.022275734964562866
leaf_weight=11.094612158834932 11.443313859403135 11.718066528439524 9.4600155949592573 16.040726155042648 10.472340568900107
leaf_count=192 63 58 53 78 54
internal_value=-5.87091e-05 0.00807223 0.0246134 -0.00106608 -0.0100878
internal_weight=70.2291 59.1345 21.1781 37.9564 21.9157
internal_count=498 306 111 195 117
is_linear=0
shrinkage=0.05


Tree=39
num_leaves=6
num_cat=0
split_feature=4 1 3 5 3
split_gain=9.49323 5.99751 3.86817 1.33302 1.12894
threshold=0.18163379281759265 0.76216641068458568 0.015986231155693535 0.0066519174724817285 0.028335777111351493
decision_type=2 2 2 2 2
left_child=2 3 -1 -2 -3
right_child=1 4 -4 -5 -6
leaf_value=-0.043963809744756055 0.0051212594308274852 0.037163316346513653 0.0083748802966237598 -0.01776676731883936 0.015256840225482416
leaf_weight=13.844175290316345 11.949358936399223 14.41834193468094 4.4880510941147795 12.855554796755312 12.023630380630491
leaf_count=193 66 78 24 73 64
internal_value=-5.11932e-05 0.0109266 -0.0309032 -0.00656378 0.0274854
internal_weight=69.5791 51.2469 18.3322 24.8049 26.442
internal_count=498 281 217 139 142
is_linear=0
shrinkage=0.05


Tree=40
num_leaves=6
num_cat=0
split_feature=1 1 4 4 3
split_gain=8.86965 3.32666 1.2639 1.77924 1.57377
threshold=0.083369515836238875 0.94716554880142223 0.21028887480497363 0.35673727095127111 0.018338761292397979
decision_type=2 2 2 2 2
left_child=-1 2 -2 -4 -5
right_child=1 -3 3 4 -6
leaf_value=-0.04257492964602469 -0.012630750729773941 0.032688132951856463 0.020733459456043716 0.010464300281446666 -0.015460526676078524
leaf_weight=10.340763013809918 11.382153883576391 10.593103826045988 13.466307535767553 11.908549875020983 11.211116805672644
leaf_count=192 59 80 59 55 53
internal_value=-4.26602e-05 0.00744224 0.00170661 0.00632563 -0.00190419
internal_weight=68.902 58.5612 47.9681 36.586 23.1197
internal_count=498 306 226 167 108
is_linear=0
shrinkage=0.05


Tree=41
num_leaves=6
num_cat=0
split_feature=1 7 8 6 5
split_gain=8.29199 3.13015 1.7377 1.53948 1.54334
threshold=0.083369515836238875 0.12524936348199847 0.32784740626811987 0.05264550261199475 0.017538832500576976
decision_type=2 2 2 2 2
left_child=-1 3 -3 -2 -5
right_child=1 2 -4 4 -6
leaf_value=-0.042044606524977171 0.0095332106103624345 0.0090276791037466504 0.038902185350301183 -0.025054603459975591 0.0019267181651711268
leaf_weight=9.9586229883134347 17.035820968449116 11.549787089228632 9.2143102660775167 9.7487725690007228 10.772257715463637
leaf_count=192 91 58 53 50 54
internal_value=-4.15798e-05 0.00710477 0.0226474 -0.00139284 -0.010708
internal_weight=68.2796 58.3209 20.7641 37.5569 20.521
internal_count=498 306 111 195 104
is_linear=0
shrinkage=0.05


Tree=42
num_leaves=7
num_cat=0
split_feature=4 1 3 4 3 1
split_gain=7.88683 5.1407 3.55317 1.3546 1.0164 0.0642536
threshold=0.18163379281759265 0.76216641068458568 0.015986231155693535 0.43063448369503027 0.028335777111351493 0.505102038383484
decision_type=2 2 2 2 2 2
left_child=2 3 5 -2 -3 -1
right_child=1 4 -4 -5 -6 -7
leaf_value=-0.037164400956567166 -0.016921104928028109 0.034722394055543303 0.0082085607164201057 0.0063625912149748685 0.013714239874179366 -0.0543805019955374
leaf_weight=9.4134816937148589 13.602178741246464 14.082131795585157 4.4627393037080756 11.012304082512854 11.814418509602545 3.4100186601281157
leaf_count=177 76 78 24 63 64 16
internal_value=-3.3935e-05 0.00987298 -0.0291602 -0.00631828 0.0254201 -0.0425148
internal_weight=67.7973 50.511 17.2862 24.6145 25.8966 12.8235
internal_count=498 281 217 139 142 193
is_linear=0
shrinkage=0.05


Tree=43
num_leaves=6
num_cat=0
split_feature=1 1 4 4 3
split_gain=7.38794 2.91305 1.00689 1.6413 1.41095
threshold=0.083369515836238875 0.94716554880142223 0.21028887480497363 0.35673727095127111 0.018338761292397979
decision_type=2 2 2 2 2
left_child=-1 2 -2 -4 -5
right_child=1 -3 3 4 -6
leaf_value=-0.041132299848385012 -0.01159312710663101 0.03079743455992702 0.019286376341457828 0.0091552381726387362 -0.015390872799275852
leaf_weight=9.3369955308735353 11.266651675105093 10.136587701737879 13.409032106399534 11.928054273128511 11.147543817758558
leaf_count=192 59 80 59 55 53
internal_value=-3.16267e-05 0.00657096 0.00127009 0.00539982 -0.00250219
internal_weight=67.2249 57.8879 47.7513 36.4846 23.0756
internal_count=498 306 226 167 108
is_linear=0
shrinkage=0.05


Tree=44
num_leaves=5
num_cat=0
split_feature=1 1 7 6
split_gain=6.90457 2.70185 0.952194 0.843021
threshold=0.083369515836238875 0.94716554880142223 0.018223971128463749 0.063353721052408232
decision_type=2 2 2 2
left_child=-1 2 -2 -4
right_child=1 -3 3 -5
leaf_value=-0.040586898649332008 -0.007943578161795601 0.029878660063349907 -0.0034302650105080194 0.01335579460430919
leaf_weight=8.9992872886359674 17.451827131211758 9.934174068272112 11.82009629905224 18.452270075678825
leaf_count=192 94 80 51 81
internal_value=-3.05173e-05 0.00627224 0.00120163 0.0066472
internal_weight=66.6577 57.6584 47.7242 30.2724
internal_count=498 306 226 132
is_linear=0
shrinkage=0.05


Tree=45
num_leaves=7
num_cat=0
split_feature=4 1 3 4 3 1
split_gain=6.47886 4.35416 3.24868 1.2797 0.924356 0.0612187
threshold=0.18163379281759265 0.76216641068458568 0.015986231155693535 0.43063448369503027 0.028335777111351493 0.505102038383484
decision_type=2 2 2 2 2 2
left_child=2 3 5 -2 -3 -1
right_child=1 4 -4 -5 -6 -7
leaf_value=-0.035280317564630063 -0.016379150881944686 0.032398283911996659 0.0081994775191501293 0.006317554982827666 0.012143377669448514 -0.052402100241497877
leaf_weight=8.5725092850625533 13.483803302049639 13.720183901488783 4.424873635172843 10.969607949256895 11.58512184768915 3.3425446525216094
leaf_count=177 76 78 24 63 64 16
internal_value=-3.28567e-05 0.00886683 -0.0273276 -0.00600969 0.0234064 -0.0408958
internal_weight=66.0986 49.7587 16.3399 24.4534 25.3053 11.9151
internal_count=498 281 217 139 142 193
is_linear=0
shrinkage=0.05


Tree=46
num_leaves=6
num_cat=0
split_feature=1 3 1 3 10
split_gain=6.15336 2.6928 3.55631 2.61866 1.85043
threshold=0.083369515836238875 0.065226212143898024 0.91388890147209179 0.015566361136734487 0.38442796468734747
decision_type=2 2 2 2 2
left_child=-1 2 3 4 -2
right_child=1 -3 -4 -5 -6
leaf_value=-0.039655114826302296 0.0063706618869849088 -0.015724015700278926 0.03673735000927935 0.01884319431086905 -0.023855482497824324
leaf_weight=8.4555072523653489 9.9198803603649157 11.344915792345999 10.491062067449091 15.573053248226641 9.7927410900592786
leaf_count=192 43 59 75 72 57
internal_value=-3.00646e-05 0.00580716 0.0112749 0.00348072 -0.00843719
internal_weight=65.5772 57.1217 45.7767 35.2857 19.7126
internal_count=498 306 247 172 100
is_linear=0
shrinkage=0.05


Tree=47
num_leaves=6
num_cat=0
split_feature=1 3 1 3 10
split_gain=5.74825 2.4425 3.29667 2.36316 1.69318
threshold=0.083369515836238875 0.065226212143898024 0.91388890147209179 0.015566361136734487 0.38442796468734747
decision_type=2 2 2 2 2
left_child=-1 2 3 4 -2
right_child=1 -3 -4 -5 -6
leaf_value=-0.039092727203122631 0.006051138594644118 -0.014923818349516865 0.035567525306657646 0.017878725856164214 -0.022922877487452867
leaf_weight=8.1573311612009984 9.9266065210104006 11.360503830015658 10.302469894289969 15.59723376482725 9.68837623298168
leaf_count=192 43 59 75 72 57
internal_value=-2.92448e-05 0.00554446 0.0107845 0.00331164 -0.00804999
internal_weight=65.0325 56.8752 45.5147 35.2122 19.615
internal_count=498 306 247 172 100
is_linear=0
shrinkage=0.05


Tree=48
num_leaves=8
num_cat=0
split_feature=4 1 3 4 1 1 3
split_gain=5.40462 3.5242 2.74063 1.20113 0.912056 1.36693 0.722915
threshold=0.18163379281759265 0.76216641068458568 0.015986231155693535 0.43063448369503027 0.5634920895099641 0.041684757918119437 0.028335777111351493
decision_type=2 2 2 2 2 2 2
left_child=2 3 4 -2 5 -1 -3
right_child=1 6 -4 -5 -6 -7 -8
leaf_value=-0.041828718045739274 -0.015484246599019215 0.029451908170792282 0.0064141946990923446 0.0066037536469784166 -0.064780519449110216 0.00093388190961692812 0.011230721772165844
leaf_weight=5.7896553725004178 13.334732159972193 13.303445279598238 4.4285819157958022 10.904078274965284 2.8545844107866278 2.4025515057146549 11.488395735621451
leaf_count=153 76 78 24 63 14 26 64
internal_value=-2.82845e-05 0.00803052 -0.0257697 -0.00535599 -0.0390623 -0.0288246 0.0212882
internal_weight=64.506 49.0307 15.4754 24.2388 11.0468 8.19221 24.7918
internal_count=498 281 217 139 193 179 142
is_linear=0
shrinkage=0.05


Tree=49
num_leaves=6
num_cat=0
split_feature=1 3 1 3 10
split_gain=5.0801 2.20875 2.90322 2.07327 1.45886
threshold=0.083369515836238875 0.065226212143898024 0.91388890147209179 0.015566361136734487 0.38442796468734747
decision_type=2 2 2 2 2
left_child=-1 2 3 4 -2
right_child=1 -3 -4 -5 -6
leaf_value=-0.038068902199850083 0.0054759369251194756 -0.014348670931756582 0.033782014202532115 0.016782913871586588 -0.021516887898358466
leaf_weight=7.6474866755306712 9.9067610204219836 11.343891993165014 10.017751947045324 15.589457139372824 9.5345091968774778
leaf_count=192 43 59 75 72 57
internal_value=-2.39846e-05 0.00510511 0.0101355 0.00315412 -0.00754855
internal_weight=64.0399 56.3924 45.0485 35.0307 19.4413
internal_count=498 306 247 172 100
is_linear=0
shrinkage=0.05


Tree=50
num_leaves=6
num_cat=0
split_feature=7 1 6 4 5
split_gain=4.75072 4.31773 1.71634 1.59016 1.46081
threshold=0.12524936348199847 0.083369515836238875 0.05264550261199475 0.35192480683326727 0.23525204509496692
decision_type=2 2 2 2 2
left_child=1 -1 -3 -2 -4
right_child=3 2 4 -5 -6
leaf_value=-0.044074951243184848 0.0034507805770284923 0.0096882041927197713 -0.025043613399673526 0.032791263966542063 0.0014416599954640444
leaf_weight=7.3168353065848342 8.6396716907620448 16.512701652944088 10.290843263268473 11.04207634180784 9.7439420968294126
leaf_count=191 42 91 55 70 49
internal_value=-2.29487e-05 -0.0092571 -0.00204886 0.020247 -0.011971
internal_weight=63.5461 43.8643 36.5475 19.6817 20.0348
internal_count=498 386 195 112 104
is_linear=0
shrinkage=0.05


Tree=51
num_leaves=8
num_cat=0
split_feature=4 7 1 3 6 1 4
split_gain=4.52725 3.94525 2.76778 2.65728 0.66251 1.59106 0.364752
threshold=0.21028887480497363 0.12524936348199847 0.76216641068458568 0.015986231155693535 0.023700587451457981 0.13265306502580645 0.43709889054298406
decision_type=2 2 2 2 2 2 2
left_child=3 2 6 4 5 -1 -2
right_child=1 -3 -4 -5 -6 -7 -8
leaf_value=-0.041372725847231305 -0.022027544598003591 0.028450084904388113 0.015344882923483325 0.0032895454482867684 -0.057444413503209515 0.0056743265974584789 -0.0062881485465827794
leaf_weight=5.5725067518651503 9.573630262166267 15.669469967484472 12.555732466280459 6.3708980754017821 3.1356024108827114 2.3435941189527512 7.909527074545621
leaf_count=160 61 95 64 32 17 19 50
internal_value=-1.59765e-05 0.00817301 -0.00229772 -0.0217092 -0.0364687 -0.0269235 -0.0152675
internal_weight=63.131 45.7084 30.0389 17.4226 11.0517 7.9161 17.4832
internal_count=498 270 175 228 196 179 111
is_linear=0
shrinkage=0.05


Tree=52
num_leaves=9
num_cat=0
split_feature=4 7 1 3 3 1 1 4
split_gain=4.16908 2.75121 2.51652 2.25622 1.18207 0.848596 1.56612 0.332565
threshold=0.18163379281759265 0.12524936348199847 0.76216641068458568 0.015986231155693535 0.028959373943507675 0.5634920895099641 0.083369515836238875 0.43709889054298406
decision_type=2 2 2 2 2 2 2 2
left_child=3 2 7 5 -3 6 -1 -2
right_child=1 4 -4 -5 -6 -7 -8 -9
leaf_value=-0.040421134495492776 -0.021116301357894746 0.033957879865635289 0.014640939558636282 0.0052045091002851608 0.0073681726066564118 -0.061325789567574777 0.0084929686703716766 -0.0059951962027428134
leaf_weight=5.213500574231146 9.4938209019601398 9.9524432569742221 12.507514402270315 4.4304422065615645 8.2500508427619916 2.7664619386196136 2.1006366312503815 7.8867062181234351
leaf_count=160 61 61 64 24 45 14 19 50
internal_value=-2.0651e-05 0.00699312 -0.00219694 -0.0234957 0.0222857 -0.0365279 -0.0257734 -0.0146144
internal_weight=62.6016 48.0905 29.888 14.511 18.2025 10.0806 7.31414 17.3805
internal_count=498 281 175 217 106 193 179 111
is_linear=0
shrinkage=0.05


Tree=53
num_leaves=8
num_cat=0
split_feature=4 7 3 1 7 1 4
split_gain=3.87324 3.34001 2.3154 2.28788 0.616191 1.52346 0.303001
threshold=0.21028887480497363 0.12524936348199847 0.015986231155693535 0.76216641068458568 0.0058769611641764649 0.15097402781248095 0.43709889054298406
decision_type=2 2 2 2 2 2 2
left_child=2 3 4 6 5 -1 -2
right_child=1 -3 -4 -5 -6 -7 -8
leaf_value=-0.041094683938638278 -0.020238806535038747 0.026372383328530664 0.0026915582656895469 0.01396792647028865 -0.057650610276014702 0.0034995719564357404 -0.0057151886086323871
leaf_weight=5.4056667089462298 9.4165211990475708 15.427429258823393 6.3710523769259444 12.460694901645182 2.5663435831665984 2.6140642613172531 7.8649177476763716
leaf_count=162 61 95 32 64 15 19 50
internal_value=-1.98717e-05 0.00755073 -0.0204052 -0.00210029 -0.0346687 -0.0260791 -0.0139876
internal_weight=62.1267 45.1696 16.9571 29.7421 10.5861 8.01973 17.2814
internal_count=498 270 228 175 196 181 111
is_linear=0
shrinkage=0.05


Tree=54
num_leaves=7
num_cat=0
split_feature=1 3 1 3 4 10
split_gain=3.6071 2.14617 2.28477 1.69237 0.256115 0.0196037
threshold=0.083369515836238875 0.065226212143898024 0.91388890147209179 0.015566361136734487 0.35673727095127111 0.61230087280273449
decision_type=2 2 2 2 2 2
left_child=5 2 3 4 -2 -1
right_child=1 -3 -4 -5 -6 -7
leaf_value=-0.019473749930514567 -0.012649981086215421 -0.015256246256858327 0.030795277389845811 0.015294935788679921 -0.00050030649580596785 -0.039234717726810663
leaf_weight=1.7028823494911183 9.4709852412343043 11.175727367401121 9.4556496739387494 15.445904061198233 9.6108063831925374 4.7555047199130058
leaf_count=35 54 59 75 72 46 157
internal_value=-2.47448e-05 0.00405519 0.00909893 0.00294107 -0.0068258 -0.0351631
internal_weight=61.6175 55.1591 43.9833 34.5277 19.0818 6.45839
internal_count=498 306 247 172 100 192
is_linear=0
shrinkage=0.05


Tree=55
num_leaves=8
num_cat=0
split_feature=4 7 3 1 7 1 4
split_gain=3.38443 3.00473 2.05978 2.01551 0.572456 1.43829 0.272429
threshold=0.21028887480497363 0.12524936348199847 0.015986231155693535 0.76216641068458568 0.0058769611641764649 0.15097402781248095 0.43709889054298406
decision_type=2 2 2 2 2 2 2
left_child=2 3 4 6 5 -1 -2
right_child=1 -3 -4 -5 -6 -7 -8
leaf_value=-0.040160780255824959 -0.019320054803038382 0.025030110332541718 0.002160364124602048 0.012977881888742019 -0.055656718035853772 0.0037632615244827215 -0.0054395957270786839
leaf_weight=5.0291080400347727 9.3218222707510048 15.204548373818396 6.3692687451839438 12.385111846029757 2.5101107507944107 2.5954051315784454 7.8359743095934382
leaf_count=162 61 95 32 64 15 19 50
internal_value=-3.64044e-05 0.00702172 -0.0194015 -0.00213098 -0.0333296 -0.0247065 -0.0133388
internal_weight=61.2513 44.7475 16.5039 29.5429 10.1346 7.62451 17.1578
internal_count=498 270 228 175 196 181 111
is_linear=0
shrinkage=0.05


Tree=56
num_leaves=9
num_cat=0
split_feature=4 7 1 3 1 1 3 4
split_gain=3.10702 2.07382 1.83215 1.80831 0.787749 1.57273 0.474772 0.247787
threshold=0.18163379281759265 0.12524936348199847 0.76216641068458568 0.015986231155693535 0.5634920895099641 0.112244900316 0.024882121942937378 0.43709889054298406
decision_type=2 2 2 2 2 2 2 2
left_child=3 2 7 4 5 -1 -3 -2
right_child=1 6 -4 -5 -6 -7 -8 -9
leaf_value=-0.038630968144113868 -0.018508966821660405 0.027862731135626179 0.012377965379059355 0.0041379939923042522 -0.057646559844492254 0.01248301243700784 0.010088296037164803 -0.0051842839407685746
leaf_weight=4.5598794035613519 9.2500534467399174 8.9472958371043223 12.342077821493147 4.4334693700075141 2.6548227667808533 1.9795101881027219 8.7878937274217588 7.8162228390574446
leaf_count=161 61 57 64 24 14 18 49 50
internal_value=-4.02453e-05 0.00596174 -0.00203645 -0.0210599 -0.0336621 -0.0224504 0.0194417 -0.0127634
internal_weight=60.7712 47.1435 29.4084 13.6277 9.19421 6.53939 17.7352 17.0663
internal_count=498 281 175 217 193 179 106 111
is_linear=0
shrinkage=0.05


end of trees

feature_importances:
cooccurrence_score=152
age_group_fit=48
known_hobby_compatibility=39
popularity_prior=30
region_fit=10
occupation_fit=5
mismatch_penalty=5
novelty_bonus=5

parameters:
[boosting: gbdt]
[objective: binary]
[metric: auc]
[tree_learner: serial]
[device_type: cpu]
[data_sample_strategy: bagging]
[data: ]
[valid: ]
[num_iterations: 500]
[learning_rate: 0.05]
[num_leaves: 31]
[num_threads: -1]
[seed: 42]
[deterministic: 0]
[force_col_wise: 0]
[force_row_wise: 0]
[histogram_pool_size: -1]
[max_depth: -1]
[min_data_in_leaf: 50]
[min_sum_hessian_in_leaf: 0.001]
[bagging_fraction: 1]
[pos_bagging_fraction: 1]
[neg_bagging_fraction: 1]
[bagging_freq: 0]
[bagging_seed: 400]
[bagging_by_query: 0]
[feature_fraction: 1]
[feature_fraction_bynode: 1]
[feature_fraction_seed: 30056]
[extra_trees: 0]
[extra_seed: 12879]
[early_stopping_round: 0]
[early_stopping_min_delta: 0]
[first_metric_only: 0]
[max_delta_step: 0]
[lambda_l1: 0.1]
[lambda_l2: 0.1]
[linear_lambda: 0]
[min_gain_to_split: 0]
[drop_rate: 0.1]
[max_drop: 50]
[skip_drop: 0.5]
[xgboost_dart_mode: 0]
[uniform_drop: 0]
[drop_seed: 17869]
[top_rate: 0.2]
[other_rate: 0.1]
[min_data_per_group: 100]
[max_cat_threshold: 32]
[cat_l2: 10]
[cat_smooth: 10]
[max_cat_to_onehot: 4]
[top_k: 20]
[monotone_constraints: ]
[monotone_constraints_method: basic]
[monotone_penalty: 0]
[feature_contri: ]
[forcedsplits_filename: ]
[refit_decay_rate: 0.9]
[cegb_tradeoff: 1]
[cegb_penalty_split: 0]
[cegb_penalty_feature_lazy: ]
[cegb_penalty_feature_coupled: ]
[path_smooth: 0]
[interaction_constraints: ]
[verbosity: -1]
[saved_feature_importance_type: 0]
[use_quantized_grad: 0]
[num_grad_quant_bins: 4]
[quant_train_renew_leaf: 0]
[stochastic_rounding: 1]
[linear_tree: 0]
[max_bin: 255]
[max_bin_by_feature: ]
[min_data_in_bin: 3]
[bin_construct_sample_cnt: 200000]
[data_random_seed: 175]
[is_enable_sparse: 1]
[enable_bundle: 1]
[use_missing: 1]
[zero_as_missing: 0]
[feature_pre_filter: 1]
[pre_partition: 0]
[two_round: 0]
[header: 0]
[label_column: ]
[weight_column: ]
[group_column: ]
[ignore_column: ]
[categorical_feature: 12]
[forcedbins_filename: ]
[precise_float_parser: 0]
[parser_config_file: ]
[objective_seed: 16083]
[num_class: 1]
[is_unbalance: 0]
[scale_pos_weight: 1]
[sigmoid: 1]
[boost_from_average: 1]
[reg_sqrt: 0]
[alpha: 0.9]
[fair_c: 1]
[poisson_max_delta_step: 0.7]
[tweedie_variance_power: 1.5]
[lambdarank_truncation_level: 30]
[lambdarank_norm: 1]
[label_gain: ]
[lambdarank_position_bias_regularization: 0]
[eval_at: ]
[multi_error_top_k: 1]
[auc_mu_weights: ]
[num_machines: 1]
[local_listen_port: 12400]
[time_out: 120]
[machine_list_filename: ]
[machines: ]
[gpu_platform_id: -1]
[gpu_device_id: -1]
[gpu_use_dp: 0]
[num_gpu: 1]

end of parameters

pandas_categorical:null
