tree
version=v4
num_class=1
num_tree_per_iteration=1
label_index=0
max_feature_idx=12
objective=lambdarank
feature_names=lightgcn_score cooccurrence_score segment_popularity_score known_hobby_compatibility age_group_fit occupation_fit region_fit popularity_prior mismatch_penalty popularity_penalty novelty_bonus category_diversity_reward is_cold_start
feature_infos=none [0:1] none [0:0.43571427464485168] [0:0.8125] [0:0.6834532618522644] [0:0.66666668653488159] [0:1] [0:0.66666668653488159] [0:1] [0:1] none -1:1:0
tree_sizes=1178 1078 1070 1287 1078 1181 1182

Tree=0
num_leaves=10
num_cat=0
split_feature=1 1 1 4 7 6 7 8 1
split_gain=179.602 41.4602 10.6588 6.9182 3.4542 4.33521 2.53635 1.87934 0.225045
threshold=0.78835389018058788 0.36316065490245825 0.95736962556839 0.43369844555854803 0.036852322518825538 0.057111890986561782 0.091119859367609038 0.33129119873046881 0.14589665830135348
decision_type=2 2 2 2 2 2 2 2 2
left_child=1 3 6 8 5 -3 -2 -6 -1
right_child=2 4 -4 -5 7 -7 -8 -9 -10
leaf_value=-0.096513857136321143 0.023403834512807691 -0.0034924361725305513 0.086876750736369024 -0.039465110477788064 -0.0083285139656270549 -0.058345419536908784 0.056161853540705145 0.023572529245859085 -0.076589706851577385
leaf_weight=27.287544265389442 11.02694082260132 9.2282409816980344 30.932946585118771 8.124370373785494 9.7203470990061778 6.0561219230294219 15.39230304956436 8.4067417681217176 7.4160863161087027
leaf_count=243 63 63 93 67 66 54 64 47 70
internal_value=0 -0.0502562 0.0667778 -0.0827783 -0.00829637 -0.0257898 0.0428176 0.00623997 -0.0926321
internal_weight=133.592 76.2395 57.3522 42.828 33.4115 15.2844 26.4192 18.1271 34.7036
internal_count=830 610 220 380 230 117 127 113 313
is_linear=0
shrinkage=0.05


Tree=1
num_leaves=9
num_cat=0
split_feature=1 1 1 7 7 5 5 3
split_gain=240.16 61.34 55.8486 16.6942 12.5773 6.28878 5.65259 2.89445
threshold=0.78835389018058788 0.9653061330318452 0.36316065490245825 0.036852322518825538 0.018223971128463749 0.00044718550634570425 0.20379784703254702 0.027249777689576152
decision_type=2 2 2 2 2 2 2 2
left_child=2 3 4 -2 7 -4 -7 -1
right_child=1 -3 5 -5 -6 6 -8 -9
leaf_value=-0.086866825775530412 -0.0072787799325408908 0.074864584081268656 0.00072503000136603108 0.031776363717005165 -0.03313490834732765 -0.042730650486311167 -0.013760685692687544 -0.055565863127460063
leaf_weight=52.538924034684896 44.311310619115829 75.067677721381187 35.682080022990704 70.559977144002914 17.554159635677934 27.441258639097214 45.741462722420692 10.611360386013983
leaf_count=275 63 77 70 80 63 63 97 42
internal_value=0 0.0397258 -0.0398033 0.0166742 -0.071317 -0.0163514 -0.0247352 -0.0817824
internal_weight=379.508 189.939 189.569 114.871 80.7044 108.865 73.1827 63.1503
internal_count=830 220 610 143 380 230 160 317
is_linear=0
shrinkage=0.05


Tree=2
num_leaves=9
num_cat=0
split_feature=1 1 1 4 9 6 1 1
split_gain=177.982 43.112 40.216 13.0308 10.82 6.56612 5.49999 0.486997
threshold=0.78835389018058788 0.9653061330318452 0.36316065490245825 0.43369844555854803 0.6642865538597108 0.15232906490564349 0.61257407069206249 0.14589665830135348
decision_type=2 2 2 2 2 2 2 2
left_child=2 4 3 7 -2 6 -4 -1
right_child=1 -3 5 -5 -6 -7 -8 -9
leaf_value=-0.083603567796789027 -0.0031499424994564131 0.070762948509813919 0.0063434522357600238 -0.028086858457166231 0.030266434387642524 -0.032933829812508267 -0.02353409977635626 -0.066904860110017422
leaf_weight=36.713863741606474 39.218573391437531 60.355593614280224 36.204099174588919 17.003716425970197 62.137203514575958 36.823335580527782 26.457660168409348 12.663777887821196
leaf_count=243 63 77 76 67 80 96 58 70
internal_value=0 0.0373142 -0.03638 -0.0665167 0.0172967 -0.0161746 -0.00620947 -0.0795658
internal_weight=327.578 161.711 165.866 66.3814 101.356 99.4851 62.6618 49.3776
internal_count=830 220 610 380 143 230 134 313
is_linear=0
shrinkage=0.05


Tree=3
num_leaves=11
num_cat=0
split_feature=1 7 1 1 3 4 4 1 5 7
split_gain=136.331 52.802 14.6073 13.4529 9.40374 8.89375 7.64564 6.4924 1.53058 1.32807
threshold=0.88472145795822155 0.010729498229920866 0.57460319995880138 0.9653061330318452 0.012094866950064899 0.43369844555854803 0.28072555363178259 0.14589665830135348 0.011955533176660539 0.0019949317793361847
decision_type=2 2 2 2 2 2 2 2 2 2
left_child=1 7 5 -2 -4 6 -3 -1 -6 -9
right_child=3 2 4 -5 8 -7 -8 9 -10 -11
leaf_value=-0.07926074030748409 0.028137805355981777 -0.018138844534117408 -0.016024605137491828 0.066307581759520007 0.0084710105046154321 -0.0044370040282093277 -0.072290207098401019 -0.035134308773597855 0.024759666626685953 -0.057327983873483326
leaf_weight=29.058082924224436 42.532029412686825 12.450042702257635 33.397688344120979 52.712166495621204 29.415338262915611 21.769028104841709 14.538676794618366 17.280819397419691 31.096976034343243 15.030822183936833
leaf_count=227 63 47 68 77 51 59 67 64 57 50
internal_value=0 -0.0230551 -0.00631967 0.0493624 0.00516609 -0.0285095 -0.0476536 -0.0618056 0.0169512 -0.0457577
internal_weight=299.282 204.037 142.668 95.2442 93.91 48.7577 26.9887 61.3697 60.5123 32.3116
internal_count=830 690 349 140 176 173 114 341 108 114
is_linear=0
shrinkage=0.05


Tree=4
num_leaves=9
num_cat=0
split_feature=1 1 1 4 7 1 1 7
split_gain=108.607 28.1442 27.1791 11.8468 9.17618 4.26674 7.10048 0.112044
threshold=0.78835389018058788 0.9653061330318452 0.37414966523647314 0.43369844555854803 0.036852322518825538 0.65607607364654552 0.57460319995880138 0.0042324904352426538
decision_type=2 2 2 2 2 2 2 2
left_child=2 4 3 7 -2 6 -4 -1
right_child=1 -3 5 -5 -6 -7 -8 -9
leaf_value=-0.068443926285147227 -0.0051799499302690359 0.063069633874940745 -0.017138365838604473 -0.021983455423769244 0.027924330229966238 -0.026620347101437083 0.022510941039917333 -0.082045429946001849
leaf_weight=27.882782929576933 33.869226709008217 47.195902846753597 32.265565326437354 16.75726368650794 53.660262621939182 32.780867341905832 17.194187335669994 11.682236108928917
leaf_count=233 63 77 97 69 80 81 44 86
internal_value=0 0.0319539 -0.0310696 -0.0578231 0.0150664 -0.0126388 -0.00323618 -0.0727828
internal_weight=273.288 134.725 138.563 56.3223 87.5295 82.2406 49.4598 39.565
internal_count=830 220 610 388 143 222 141 319
is_linear=0
shrinkage=0.05


Tree=5
num_leaves=10
num_cat=0
split_feature=1 1 1 6 7 5 6 6 6
split_gain=90.6644 24.5699 23.0885 9.87299 6.17022 9.22021 4.13399 3.49815 3.27827
threshold=0.78835389018058788 0.083369515836238875 0.9653061330318452 0.050868857651948936 0.010729498229920866 0.37035535275936132 0.01956001948565245 0.035446412861347205 0.20741260796785357
decision_type=2 2 2 2 2 2 2 2 2
left_child=1 -1 3 -2 6 7 -3 -6 -9
right_child=2 4 -4 -5 5 -7 -8 8 -10
leaf_value=-0.070250937543566636 0.039010638154800707 -0.019385282533302361 0.060082595073546935 0.0023945867826346496 0.017422781707678657 -0.040108292318324301 -0.060565944310288979 -0.02382215427713924 0.0046827411187209816
leaf_weight=28.29323697835207 27.846795946359634 13.652805518358948 42.975990355014801 54.945682272315025 18.484879545867443 19.538877800107002 11.910541838034986 19.02044352889061 20.80734776891768
leaf_count=249 44 61 77 99 46 67 63 61 63
internal_value=0 -0.0289827 0.0303503 0.0148027 -0.0175868 -0.010474 -0.0389284 -0.000407209 -0.0088306
internal_weight=257.477 131.708 125.768 82.7925 103.415 77.8515 25.5633 58.3127 39.8278
internal_count=830 610 220 143 361 237 124 170 124
is_linear=0
shrinkage=0.05


Tree=6
num_leaves=10
num_cat=0
split_feature=1 1 1 7 7 8 6 6 8
split_gain=79.2375 21.6219 18.9085 6.96882 5.25386 4.07054 9.26832 3.03714 1.37208
threshold=0.78835389018058788 0.083369515836238875 0.9653061330318452 0.036852322518825538 0.010729498229920866 0.33105255663394934 0.071481250226497664 0.01956001948565245 0.33321446180343633
decision_type=2 2 2 2 2 2 2 2 2
left_child=1 -1 3 -2 7 6 -6 -3 -7
right_child=2 4 -4 -5 5 8 -8 -9 -10
leaf_value=-0.06823434706726679 -0.0041820177104851626 -0.020624074937990285 0.057573899234474479 0.02666319711792663 0.0035937482935318511 0.011475750927860981 -0.046736922333063327 -0.057741975692897053 -0.0079153418174824058
leaf_weight=26.330327135510743 29.18197301030159 13.130992529913785 39.565237980335951 47.835900448262691 17.681143566966057 17.912063509225845 18.451380531303585 10.492954608052967 18.209544558078051
leaf_count=249 63 61 77 80 57 52 79 63 49
internal_value=0 -0.0281203 0.029476 0.0149209 -0.0169923 -0.0101771 -0.0220281 -0.0374952 0.00156745
internal_weight=238.792 122.208 116.583 77.0179 95.8781 72.2541 36.1325 23.6239 36.1216
internal_count=830 610 220 143 361 237 136 124 101
is_linear=0
shrinkage=0.05


end of trees

feature_importances:
cooccurrence_score=27
popularity_prior=11
region_fit=8
age_group_fit=5
occupation_fit=4
mismatch_penalty=3
known_hobby_compatibility=2
popularity_penalty=1

parameters:
[boosting: gbdt]
[objective: lambdarank]
[metric: ndcg]
[tree_learner: serial]
[device_type: cpu]
[data_sample_strategy: bagging]
[data: ]
[valid: ]
[num_iterations: 500]
[learning_rate: 0.05]
[num_leaves: 15]
[num_threads: -1]
[seed: 42]
[deterministic: 0]
[force_col_wise: 0]
[force_row_wise: 0]
[histogram_pool_size: -1]
[max_depth: -1]
[min_data_in_leaf: 50]
[min_sum_hessian_in_leaf: 0.001]
[bagging_fraction: 1]
[pos_bagging_fraction: 1]
[neg_bagging_fraction: 1]
[bagging_freq: 0]
[bagging_seed: 400]
[bagging_by_query: 0]
[feature_fraction: 0.8]
[feature_fraction_bynode: 1]
[feature_fraction_seed: 30056]
[extra_trees: 0]
[extra_seed: 12879]
[early_stopping_round: 0]
[early_stopping_min_delta: 0]
[first_metric_only: 0]
[max_delta_step: 0]
[lambda_l1: 0.1]
[lambda_l2: 0.1]
[linear_lambda: 0]
[min_gain_to_split: 0]
[drop_rate: 0.1]
[max_drop: 50]
[skip_drop: 0.5]
[xgboost_dart_mode: 0]
[uniform_drop: 0]
[drop_seed: 17869]
[top_rate: 0.2]
[other_rate: 0.1]
[min_data_per_group: 100]
[max_cat_threshold: 32]
[cat_l2: 10]
[cat_smooth: 10]
[max_cat_to_onehot: 4]
[top_k: 20]
[monotone_constraints: ]
[monotone_constraints_method: basic]
[monotone_penalty: 0]
[feature_contri: ]
[forcedsplits_filename: ]
[refit_decay_rate: 0.9]
[cegb_tradeoff: 1]
[cegb_penalty_split: 0]
[cegb_penalty_feature_lazy: ]
[cegb_penalty_feature_coupled: ]
[path_smooth: 0]
[interaction_constraints: ]
[verbosity: -1]
[saved_feature_importance_type: 0]
[use_quantized_grad: 0]
[num_grad_quant_bins: 4]
[quant_train_renew_leaf: 0]
[stochastic_rounding: 1]
[linear_tree: 0]
[max_bin: 255]
[max_bin_by_feature: ]
[min_data_in_bin: 3]
[bin_construct_sample_cnt: 200000]
[data_random_seed: 175]
[is_enable_sparse: 1]
[enable_bundle: 1]
[use_missing: 1]
[zero_as_missing: 0]
[feature_pre_filter: 1]
[pre_partition: 0]
[two_round: 0]
[header: 0]
[label_column: ]
[weight_column: ]
[group_column: ]
[ignore_column: ]
[categorical_feature: 12]
[forcedbins_filename: ]
[precise_float_parser: 0]
[parser_config_file: ]
[objective_seed: 16083]
[num_class: 1]
[is_unbalance: 0]
[scale_pos_weight: 1]
[sigmoid: 1]
[boost_from_average: 1]
[reg_sqrt: 0]
[alpha: 0.9]
[fair_c: 1]
[poisson_max_delta_step: 0.7]
[tweedie_variance_power: 1.5]
[lambdarank_truncation_level: 30]
[lambdarank_norm: 1]
[label_gain: ]
[lambdarank_position_bias_regularization: 0]
[eval_at: 10]
[multi_error_top_k: 1]
[auc_mu_weights: ]
[num_machines: 1]
[local_listen_port: 12400]
[time_out: 120]
[machine_list_filename: ]
[machines: ]
[gpu_platform_id: -1]
[gpu_device_id: -1]
[gpu_use_dp: 0]
[num_gpu: 1]

end of parameters

pandas_categorical:null
