tree
version=v4
num_class=1
num_tree_per_iteration=1
label_index=0
max_feature_idx=12
objective=lambdarank
feature_names=lightgcn_score cooccurrence_score segment_popularity_score known_hobby_compatibility age_group_fit occupation_fit region_fit popularity_prior mismatch_penalty popularity_penalty novelty_bonus category_diversity_reward is_cold_start
feature_infos=none [0:1] none [0:0.43571427464485168] [0:0.8125] [0:0.6834532618522644] [0:0.66666668653488159] [0:1] [0:0.66666668653488159] [0:1] [0:1] none -1:1:0
tree_sizes=1175 1182 1177 1290 1077

Tree=0
num_leaves=10
num_cat=0
split_feature=1 1 1 4 9 6 9 8 1
split_gain=179.602 41.4602 10.6588 6.9182 3.4542 4.33521 2.53635 1.87934 0.225045
threshold=0.78835389018058788 0.36316065490245825 0.95736962556839 0.43369844555854803 0.6642865538597108 0.057111890986561782 0.75614634156227123 0.33129119873046881 0.14589665830135348
decision_type=2 2 2 2 2 2 2 2 2
left_child=1 3 6 8 5 -3 -2 -6 -1
right_child=2 4 -4 -5 7 -7 -8 -9 -10
leaf_value=-0.096513857136321143 0.023403834512807691 -0.0034924361725305513 0.086876750736369024 -0.039465110477788064 -0.0083285139656270549 -0.058345419536908784 0.056161853540705145 0.023572529245859085 -0.076589706851577385
leaf_weight=27.287544265389442 11.02694082260132 9.2282409816980344 30.932946585118771 8.124370373785494 9.7203470990061778 6.0561219230294219 15.39230304956436 8.4067417681217176 7.4160863161087027
leaf_count=243 63 63 93 67 66 54 64 47 70
internal_value=0 -0.0502562 0.0667778 -0.0827783 -0.00829637 -0.0257898 0.0428176 0.00623997 -0.0926321
internal_weight=133.592 76.2395 57.3522 42.828 33.4115 15.2844 26.4192 18.1271 34.7036
internal_count=830 610 220 380 230 117 127 113 313
is_linear=0
shrinkage=0.05


Tree=1
num_leaves=10
num_cat=0
split_feature=1 1 1 7 7 3 3 1 3
split_gain=240.16 61.34 55.8486 16.6942 12.5773 4.59455 8.75611 3.18666 2.89445
threshold=0.78835389018058788 0.9653061330318452 0.36316065490245825 0.036852322518825538 0.018223971128463749 0.015566361136734487 0.031715067103505142 0.60875403881073009 0.027249777689576152
decision_type=2 2 2 2 2 2 2 2 2
left_child=2 3 4 -2 8 7 -7 -4 -1
right_child=1 -3 5 -5 -6 6 -8 -9 -10
leaf_value=-0.086866825775530412 -0.0072787799325408908 0.074864584081268656 -0.014406626627102154 0.031776363717005165 -0.03313490834732765 0.015187460108083198 -0.023741688228603463 -0.040014586188438159 -0.055565863127460063
leaf_weight=52.538924034684896 44.311310619115829 75.067677721381187 25.168712750077248 70.559977144002914 17.554159635677934 25.476094491779804 32.870778262615204 25.349215880036354 10.611360386013983
leaf_count=275 63 77 58 80 63 43 74 55 42
internal_value=0 0.0397258 -0.0398033 0.0166742 -0.071317 -0.0163514 -0.00666154 -0.0274088 -0.0817824
internal_weight=379.508 189.939 189.569 114.871 80.7044 108.865 58.3469 50.5179 63.1503
internal_count=830 220 610 143 380 230 117 113 317
is_linear=0
shrinkage=0.05


Tree=2
num_leaves=10
num_cat=0
split_feature=1 1 1 9 9 5 6 4 3
split_gain=176.938 41.6716 39.405 10.8389 8.01555 7.96565 7.22508 2.81409 7.78866
threshold=0.78835389018058788 0.9653061330318452 0.083369515836238875 0.6642865538597108 0.53897055983543407 0.35369960963726049 0.01956001948565245 0.43369844555854803 0.027786645106971267
decision_type=2 2 2 2 2 2 2 2 2
left_child=2 3 -1 -2 6 7 -4 8 -6
right_child=1 -3 4 -5 5 -7 -8 -9 -10
leaf_value=-0.080305724052088634 -0.003285413097913914 0.070033184455830733 -0.020348756376348132 0.03035404594866601 -0.038225708617411765 -0.038359198105387314 -0.069365992636635371 0.0047291968236136232 0.0070341344222411483
leaf_weight=38.885485719889402 38.468940660357475 60.583706215023994 15.668062243610622 62.178825572133064 18.768317651003599 27.118997037410736 15.284512810409067 31.117283412255347 18.79765247926116
leaf_count=249 63 77 61 80 54 72 63 60 51
internal_value=0 0.0372746 -0.0362831 0.0174565 -0.0226859 -0.0154302 -0.0448601 -0.0062616 -0.0154868
internal_weight=326.872 161.231 165.64 100.648 126.755 95.8023 30.9526 68.6833 37.566
internal_count=830 220 610 143 361 237 124 165 105
is_linear=0
shrinkage=0.05


Tree=3
num_leaves=11
num_cat=0
split_feature=1 1 4 7 1 1 5 5 7 1
split_gain=136.261 53.0126 14.6884 13.695 13.2259 9.58281 4.3733 1.97442 0.194673 0.990654
threshold=0.88472145795822155 0.36316065490245825 0.43369844555854803 0.036852322518825538 0.9653061330318452 0.78835389018058788 0.0080636474303901213 0.0066298423334956178 0.0042324904352426538 0.083369515836238875
decision_type=2 2 2 2 2 2 2 2 2 2
left_child=1 2 8 6 -2 7 -3 -5 9 -1
right_child=4 3 -4 5 -6 -7 -8 -9 -10 -11
leaf_value=-0.077822800295499803 0.027892259140211834 -0.010132503940541765 -0.020149480323321978 0.0022225617275260443 0.065752392038935986 0.026552240807072011 -0.039337515568076076 -0.017735644816296584 -0.08606772081270575 -0.052713381797107467
leaf_weight=24.576278287917376 42.259499818086624 24.306228637695312 15.888439062982796 23.979773506522179 53.073275327682495 34.499715983867645 28.660551253706217 24.670712176710367 13.451802734285591 7.6417355909943572
leaf_count=186 63 66 67 47 77 47 84 66 82 45
internal_value=0 -0.0236772 -0.062149 -0.006209 0.0490688 0.00640112 -0.026074 -0.00781132 -0.0765754 -0.0722034
internal_weight=293.008 197.675 61.5583 136.117 95.3328 83.1502 52.9668 48.6505 45.6698 32.218
internal_count=830 690 380 310 140 160 150 113 313 231
is_linear=0
shrinkage=0.05


Tree=4
num_leaves=9
num_cat=0
split_feature=1 1 1 7 5 1 7 7
split_gain=111.961 26.1693 26.1241 5.09313 5.1806 3.69971 3.63089 2.96372
threshold=0.78835389018058788 0.9653061330318452 0.083369515836238875 0.010729498229920866 0.37035535275936132 0.45176252722740179 0.036852322518825538 0.039979510009288795
decision_type=2 2 2 2 2 2 2 2
left_child=2 6 -1 5 7 -4 -2 -5
right_child=1 -3 3 4 -6 -7 -8 -9
leaf_value=-0.072605563821317026 0.0021516853243315611 0.062325472194157017 -0.057801758789427851 0.0052496947532317019 -0.036243701953479875 -0.018575359590421055 0.023725583021421699 -0.016489378807368889
leaf_weight=30.307076273486018 31.024634815752506 47.617252290248871 13.378727829083802 28.142620537430048 19.553397338837385 11.972682196646927 55.088667675852776 34.482002580538392
leaf_count=249 63 77 83 85 67 41 80 85
internal_value=0 0.0325812 -0.0316113 -0.0199539 -0.013786 -0.0396186 0.0160225 -0.00664764
internal_weight=271.567 133.731 137.837 107.529 82.178 25.3514 86.1133 62.6246
internal_count=830 220 610 361 237 124 143 170
is_linear=0
shrinkage=0.05


end of trees

feature_importances:
cooccurrence_score=20
popularity_prior=7
known_hobby_compatibility=4
occupation_fit=4
popularity_penalty=4
age_group_fit=3
region_fit=2
mismatch_penalty=1

parameters:
[boosting: gbdt]
[objective: lambdarank]
[metric: ndcg]
[tree_learner: serial]
[device_type: cpu]
[data_sample_strategy: bagging]
[data: ]
[valid: ]
[num_iterations: 500]
[learning_rate: 0.05]
[num_leaves: 15]
[num_threads: -1]
[seed: 42]
[deterministic: 0]
[force_col_wise: 0]
[force_row_wise: 0]
[histogram_pool_size: -1]
[max_depth: -1]
[min_data_in_leaf: 50]
[min_sum_hessian_in_leaf: 0.001]
[bagging_fraction: 1]
[pos_bagging_fraction: 1]
[neg_bagging_fraction: 1]
[bagging_freq: 0]
[bagging_seed: 400]
[bagging_by_query: 0]
[feature_fraction: 0.7]
[feature_fraction_bynode: 1]
[feature_fraction_seed: 30056]
[extra_trees: 0]
[extra_seed: 12879]
[early_stopping_round: 0]
[early_stopping_min_delta: 0]
[first_metric_only: 0]
[max_delta_step: 0]
[lambda_l1: 0.1]
[lambda_l2: 0.1]
[linear_lambda: 0]
[min_gain_to_split: 0]
[drop_rate: 0.1]
[max_drop: 50]
[skip_drop: 0.5]
[xgboost_dart_mode: 0]
[uniform_drop: 0]
[drop_seed: 17869]
[top_rate: 0.2]
[other_rate: 0.1]
[min_data_per_group: 100]
[max_cat_threshold: 32]
[cat_l2: 10]
[cat_smooth: 10]
[max_cat_to_onehot: 4]
[top_k: 20]
[monotone_constraints: ]
[monotone_constraints_method: basic]
[monotone_penalty: 0]
[feature_contri: ]
[forcedsplits_filename: ]
[refit_decay_rate: 0.9]
[cegb_tradeoff: 1]
[cegb_penalty_split: 0]
[cegb_penalty_feature_lazy: ]
[cegb_penalty_feature_coupled: ]
[path_smooth: 0]
[interaction_constraints: ]
[verbosity: -1]
[saved_feature_importance_type: 0]
[use_quantized_grad: 0]
[num_grad_quant_bins: 4]
[quant_train_renew_leaf: 0]
[stochastic_rounding: 1]
[linear_tree: 0]
[max_bin: 255]
[max_bin_by_feature: ]
[min_data_in_bin: 3]
[bin_construct_sample_cnt: 200000]
[data_random_seed: 175]
[is_enable_sparse: 1]
[enable_bundle: 1]
[use_missing: 1]
[zero_as_missing: 0]
[feature_pre_filter: 1]
[pre_partition: 0]
[two_round: 0]
[header: 0]
[label_column: ]
[weight_column: ]
[group_column: ]
[ignore_column: ]
[categorical_feature: 12]
[forcedbins_filename: ]
[precise_float_parser: 0]
[parser_config_file: ]
[objective_seed: 16083]
[num_class: 1]
[is_unbalance: 0]
[scale_pos_weight: 1]
[sigmoid: 1]
[boost_from_average: 1]
[reg_sqrt: 0]
[alpha: 0.9]
[fair_c: 1]
[poisson_max_delta_step: 0.7]
[tweedie_variance_power: 1.5]
[lambdarank_truncation_level: 30]
[lambdarank_norm: 1]
[label_gain: ]
[lambdarank_position_bias_regularization: 0]
[eval_at: 10]
[multi_error_top_k: 1]
[auc_mu_weights: ]
[num_machines: 1]
[local_listen_port: 12400]
[time_out: 120]
[machine_list_filename: ]
[machines: ]
[gpu_platform_id: -1]
[gpu_device_id: -1]
[gpu_use_dp: 0]
[num_gpu: 1]

end of parameters

pandas_categorical:null
