tree
version=v4
num_class=1
num_tree_per_iteration=1
label_index=0
max_feature_idx=4
objective=binary sigmoid:1
feature_names=kure_sim_0 kure_sim_1 kure_sim_2 kure_sim_3 kure_sim_4
feature_infos=[0.00080634852362800003:0.99488091521336663] [0.0033214068060507:0.99687626806048824] [0.005806640889694:0.99969561424091435] [0.00048002514661940002:0.99867142783057861] [0.0017970253127369:0.998186668752024]
tree_sizes=1137 1279 1076 1065 1276 963 1275 1056 1074 1280 1046 1079 1268 1283 1073 959 944 948 1052 1161 977 1180 964 969 958 1176 1149 971 1255 867 1140 966 1184 1080 1080 1264 1266 1077 1165 1161 1181 1187

Tree=0
num_leaves=10
num_cat=0
split_feature=3 4 0 0 4 3 1 0 1
split_gain=19.6058 27.7749 18.8692 3.86997 9.66674 1.40198 1.33285 1.18966 2.69178
threshold=0.21335048184545272 0.15202131893923473 0.24159736237491028 0.29854791212753157 0.12355803214233756 0.94819064879068327 0.23566183868515264 0.16627092604960544 0.41068258965205989
decision_type=2 2 2 2 2 2 2 2 2
left_child=1 -1 -3 4 -2 -5 -4 -6 -9
right_child=3 2 6 5 7 -7 -8 8 -10
leaf_value=3.3796471617140522 3.5698087884073821 3.5305617632606063 3.7344373707941818 3.8212954568847528 3.8160822230186904 3.7517609522576958 3.8170945820404425 3.6819439206356903 3.8094623753153347
leaf_weight=0.57183751836419405 0.48386251553893034 0.74778752401471171 0.43987501412630114 9.3253502994775737 1.8254813086241486 0.57183751836419183 2.177381319925189 0.59383126907050587 0.85775627754628658
leaf_count=26 22 34 20 424 83 26 99 27 39
internal_value=3.77148 3.6746 3.73674 3.79991 3.7585 3.81637 3.79959 3.78929 3.75972
internal_weight=17.595 3.93688 3.36504 13.6581 3.76093 9.89719 2.61726 3.27707 1.45159
internal_count=800 179 153 621 171 450 119 149 66
is_linear=0
shrinkage=1


Tree=1
num_leaves=11
num_cat=0
split_feature=4 3 1 0 4 1 1 0 0 1
split_gain=17.032 11.1529 8.34465 27.5608 3.58906 2.76554 3.96383 1.51747 3.83024 0.481607
threshold=0.044904455672403157 0.15549699395860253 0.67980216724206921 0.24449078602442262 0.25342181155254662 0.38717425206292916 0.35544384785468969 0.49885835262715045 0.40637382245185089 0.20928648074763204
decision_type=2 2 2 2 2 2 2 2 2 2
left_child=-1 2 3 -2 -5 6 7 8 9 -3
right_child=1 5 -4 4 -6 -7 -8 -9 -10 -11
leaf_value=-0.20352729087090357 -0.39573391456653939 0.041027547039053133 0.039908987458486728 -0.10795649153046778 0.040358606253994511 0.049628472319409055 -0.12231736818716968 0.045938626663640174 -0.1268964793990518 -0.00075371328560366977
leaf_weight=0.87171753682196396 0.56552939675748692 1.145195605233311 1.0084188804030416 0.51267527602612961 1.0717942062765358 8.3469376694411022 0.46270184963941563 2.3420219719409943 0.44833906181156624 0.81657419726252545
leaf_count=36 20 52 42 20 50 391 21 111 21 36
internal_value=0 0.0117651 -0.0707359 -0.125432 -0.0067382 0.0319049 0.00172519 0.0176206 -0.00764342 0.0208057
internal_weight=17.5919 16.7202 3.15842 2.15 1.58447 13.5618 5.21483 4.75213 2.41011 1.96177
internal_count=800 764 132 90 70 632 241 220 109 88
is_linear=0
shrinkage=0.05


Tree=2
num_leaves=9
num_cat=0
split_feature=2 0 4 0 4 2 1 0
split_gain=21.7511 29.9924 11.6777 6.14601 9.72254 2.52971 4.98473 0.822839
threshold=0.31795612479346586 0.23547627642733948 0.53267046587688982 0.57762191460310552 0.31939702921051299 0.45493636568879731 0.38717425206292916 0.48702850562200978
decision_type=2 2 2 2 2 2 2 2
left_child=1 2 -1 4 -3 6 -2 -6
right_child=5 3 -4 -5 7 -7 -8 -9
leaf_value=-0.38856861324733782 -0.093840471986957941 -0.21907785667421842 -0.077927401407606664 0.045634524271386312 0.037426164975375154 0.049849139697219477 0.044152410953861167 -0.038832923484059541
leaf_weight=0.80336576327681786 0.91672024130821173 0.63080985471606243 0.65467561781406403 2.2171187866479158 0.81995864398777463 9.4039765503257495 1.7115824390202758 0.4295354038476944
leaf_count=29 38 26 26 108 38 432 82 21
internal_value=0 -0.0809529 -0.267855 -0.00786114 -0.0738458 0.0377787 -0.00290429 0.00471815
internal_weight=17.5877 5.55546 1.45804 4.09742 1.8803 12.0323 2.6283 1.24949
internal_count=800 248 55 193 85 552 120 59
is_linear=0
shrinkage=0.05


Tree=3
num_leaves=9
num_cat=0
split_feature=2 0 4 0 1 1 2 1
split_gain=18.8927 21.9279 14.5993 4.81712 2.48701 3.19827 2.47459 4.33073
threshold=0.31795612479346586 0.42431746378045315 0.32628073579425404 0.21628684610414609 0.36083793197804431 0.20928648074763204 0.45493636568879731 0.38717425206292916
decision_type=2 2 2 2 2 2 2 2
left_child=1 2 -1 -4 5 -3 7 -2
right_child=6 4 3 -5 -6 -7 -8 -9
leaf_value=-0.30067195495659327 -0.082521852156920761 0.029347331129988104 -0.12730616198533615 0.034005941244585607 0.045802345431370392 -0.1360407822698137 0.049728638100067828 0.04382381628462699
leaf_weight=1.1684166472405224 1.0016683172434562 0.47972487285733256 1.0040702261030672 0.63650277443230141 2.27915676869452 0.4212761614471674 8.9667091071605665 1.6407412998378275
leaf_count=31 38 23 34 30 111 19 432 82
internal_value=0 -0.0713264 -0.170811 -0.062054 0.0167887 -0.046355 0.0372572 -0.00259837
internal_weight=17.5983 5.98915 2.80899 1.64057 3.18016 0.901001 11.6091 2.64241
internal_count=800 248 95 64 153 42 552 120
is_linear=0
shrinkage=0.05


Tree=4
num_leaves=11
num_cat=0
split_feature=2 3 3 4 2 0 2 3 3 0
split_gain=16.4975 22.4889 6.74185 6.3353 2.41966 3.2092 7.39414 1.00154 1.13094 1.94071
threshold=0.31795612479346586 0.21335048184545272 0.91152505461142075 0.53267046587688982 0.45493636568879731 0.40637382245185089 0.40098534522550899 0.57492385774089327 0.41285335924758321 0.4814446094424723
decision_type=2 2 2 2 2 2 2 2 2 2
left_child=1 3 7 -1 5 6 -2 8 -3 -10
right_child=4 2 -4 -5 -6 -7 -8 -9 9 -11
leaf_value=-0.28214476920258574 0.035376662882830687 0.037014019207195152 -0.1370698753940803 -0.065926649099628212 0.049608018209982702 0.043074945356495198 -0.19394849038328857 0.045718920682053715 -0.095861034332402076 0.026982831757430131
leaf_weight=1.0862510763108755 0.68744243122637205 0.78763310424983524 0.68251886032521714 0.73056862503290165 8.549854723736642 1.4665443077683447 0.50162789598107338 2.1317391693592072 0.56197578832507133 0.42341839335858822
leaf_count=25 28 36 27 28 432 71 21 91 20 21
internal_value=0 -0.0632151 -0.0014308 -0.207088 0.0367303 -0.002304 -0.0630902 0.0232356 -0.0007899 -0.038543
internal_weight=17.6096 6.40411 4.58729 1.81682 11.2055 2.65561 1.18907 3.90477 1.77303 0.985394
internal_count=800 248 195 53 552 120 49 168 77 41
is_linear=0
shrinkage=0.05


Tree=5
num_leaves=8
num_cat=0
split_feature=2 3 4 3 1 4 1
split_gain=14.895 19.8646 5.55415 5.41054 1.95289 0.911609 4.51524
threshold=0.45493636568879731 0.21335048184545272 0.34069157416746548 0.91152505461142075 0.50757381872979079 0.49863563127714344 0.3890560997008628
decision_type=2 2 2 2 2 2 2
left_child=1 2 -1 5 -4 6 -3
right_child=-2 3 4 -5 -6 -7 -8
leaf_value=-0.22566892907596159 0.04948700057176552 -0.074149941767445576 -0.1239114206818762 -0.1053039208706229 -0.0026171571442261065 0.046198947109703646 0.045876468337414364
leaf_weight=1.3219432607293149 8.1525030098855478 1.0737341940402987 0.73930555023252942 0.83992918580770481 0.77724743075668812 2.4727261029183865 2.2164402659982443
leaf_count=25 432 39 23 30 31 121 99
internal_value=0 -0.0422443 -0.15048 0.00471693 -0.0703939 0.023554 0.00346229
internal_weight=17.5938 9.44133 2.8385 6.60283 1.51655 5.7629 3.29017
internal_count=800 368 79 289 54 259 138
is_linear=0
shrinkage=0.05


Tree=6
num_leaves=11
num_cat=0
split_feature=3 0 3 0 4 3 0 1 0 1
split_gain=10.9033 13.7849 2.95587 3.68599 2.86487 1.87436 1.49012 2.7447 3.92453 0.690797
threshold=0.21335048184545272 0.4282958543800528 0.91152505461142075 0.51366844801432088 0.23635272240165309 0.073322174117167266 0.29854791212753157 0.40255817443298181 0.16627092604960544 0.34172642452155771
decision_type=2 2 2 2 2 2 2 2 2 2
left_child=1 4 6 -4 -1 -6 7 8 -2 -3
right_child=2 9 3 -5 5 -7 -8 -9 -10 -11
leaf_value=-0.21652741203688095 0.03559004160409681 -0.0056133969046693573 -0.1008741226462236 0.036990776022539383 -0.13837975354493862 -0.029090056039581993 0.049224865395111901 0.045341376893847068 -0.11288842341144681 0.044085668171408271
leaf_weight=0.8122384212911159 0.7064025923609718 0.73156897164881263 0.86667157150804885 0.79334012418985367 0.92872097156941924 1.1023837048560379 7.1161859780550003 2.032592412084341 0.79674568399786949 1.6537311077117918
leaf_count=14 33 29 33 39 23 35 393 95 28 78
internal_value=0 -0.0595292 0.0259759 -0.0323673 -0.132454 -0.0867304 0.0359822 0.00664579 -0.0405654 0.0262127
internal_weight=17.5406 5.22864 12.3119 1.66001 2.84334 2.0311 10.6519 3.53574 1.50315 2.3853
internal_count=800 179 621 72 72 58 549 156 61 107
is_linear=0
shrinkage=0.05


Tree=7
num_leaves=9
num_cat=0
split_feature=2 0 1 4 0 2 0 0
split_gain=13.3232 14.8339 8.89372 8.78756 3.50509 3.47269 1.60848 0.579899
threshold=0.45493636568879731 0.42431746378045315 0.66785891321509305 0.15202131893923473 0.23547627642733948 0.074402106685181921 0.16627092604960544 0.3311666987625132
decision_type=2 2 2 2 2 2 2 2
left_child=1 2 3 -1 6 -3 -5 -6
right_child=-2 5 -4 4 7 -7 -8 -9
leaf_value=-0.23274062645681229 0.049345950305407643 -0.06040820609189284 0.038953733878659323 -0.055221720749284477 0.033495368886833438 0.047896643788930028 -0.16583056294057635 -0.03470905392924644
leaf_weight=1.2786664273589865 7.660977140069007 0.77279966697096814 0.902349418029189 1.2618775218725211 0.59948306344449498 3.7503926530480385 0.80151335336267937 0.45197205990552902
leaf_count=18 432 35 34 34 24 187 18 18
internal_value=0 -0.0381148 -0.0944722 -0.123802 -0.0709 0.0268638 -0.107333 0
internal_weight=17.48 9.81905 5.29586 4.39351 3.11485 4.52319 2.06339 1.05146
internal_count=800 368 146 112 94 222 52 42
is_linear=0
shrinkage=0.05


Tree=8
num_leaves=9
num_cat=0
split_feature=2 3 1 0 1 3 2 3
split_gain=12.2423 12.3406 4.68032 4.01233 4.54515 3.32255 3.22096 1.62127
threshold=0.45493636568879731 0.21335048184545272 0.50757381872979079 0.29854791212753157 0.51890839892552509 0.066394047877626719 0.23069245076626879 0.94819064879068327
decision_type=2 2 2 2 2 2 2 2
left_child=1 2 -1 4 6 -4 -3 -5
right_child=-2 3 5 7 -6 -7 -8 -9
leaf_value=-0.1596627002182181 0.049222137056775556 -0.0039088555977728158 -0.098503536189326391 0.047658468623039373 0.038892773169872066 0.036012971887303367 -0.15415813722886207 -0.042907449643029519
leaf_weight=1.9825929813087007 7.3054646197706452 0.74966916255652927 0.85307666100561597 3.6496310979127884 0.89879864640533913 0.70523182488977909 0.85404982045292854 0.4032018519937991
leaf_count=35 432 21 17 198 35 27 22 13
internal_value=0 -0.0352418 -0.109147 0.00459192 -0.0428622 -0.0346031 -0.0926771 0.0360261
internal_weight=17.4017 10.0963 3.5409 6.55535 2.50252 1.55831 1.60372 4.05283
internal_count=800 368 79 289 78 44 43 211
is_linear=0
shrinkage=0.05


Tree=9
num_leaves=11
num_cat=0
split_feature=0 1 3 4 3 4 4 4 4 4
split_gain=9.15698 6.85216 9.18567 3.98689 1.34261 1.03087 1.42617 0.677702 0.490496 0.482866
threshold=0.42431746378045315 0.65762447770932908 0.21607048494949857 0.12355803214233756 0.94819064879068327 0.49863563127714344 0.29374764116577601 0.097415324810330217 0.18474524269223416 0.054285583777701353
decision_type=2 2 2 2 2 2 2 2 2 2
left_child=1 2 8 -4 7 6 -5 9 -1 -2
right_child=4 -3 3 5 -6 -7 -8 -9 -10 -11
leaf_value=-0.17018328800524085 0.033308277274693744 0.044954619380032833 -0.096385229845641796 0.035813784048611762 -0.03021201465388261 0.044137623367959539 -0.053479320690477838 0.04906603436608592 -0.090298319125703116 -0.026944167405796013
leaf_weight=0.97434399276972028 0.59305523987859288 1.9337855055928228 0.88510235399007786 0.70045726001262687 0.48419517464935768 1.6900745676830409 0.82599453255534172 6.7772908508777618 1.9535305369645355 0.50367635767906904
leaf_count=8 25 100 21 30 22 84 32 414 42 22
internal_value=0 -0.0346046 -0.0578665 -0.00697202 0.0377279 0.0175351 -0.00821061 0.0431727 -0.124102 0
internal_weight=17.3215 8.96329 7.0295 4.10163 8.35822 3.21653 1.52645 7.87402 2.92787 1.09673
internal_count=800 317 217 167 483 146 62 461 50 47
is_linear=0
shrinkage=0.05


Tree=10
num_leaves=9
num_cat=0
split_feature=2 3 3 2 2 1 1 1
split_gain=10.9217 8.75307 3.50297 3.04401 5.98431 1.94667 2.97356 0.387924
threshold=0.45493636568879731 0.21335048184545272 0.91152505461142075 0.15597721666139433 0.27342556859099659 0.38717425206292916 0.33646396853333543 0.20928648074763204
decision_type=2 2 2 2 2 2 2 2
left_child=1 3 5 -1 -5 6 7 -3
right_child=-2 2 -4 4 -6 -7 -8 -9
leaf_value=-0.14230706029279 0.049059714964692025 0.039029461061016235 -0.073768046896451944 0.043274592646366628 -0.10902815114365721 0.047130793462775739 -0.10886221139661315 0
leaf_weight=1.6317680031061188 6.8204385172575703 0.90661834832280896 1.0643008071929214 0.96467376127839122 1.4103727219626305 3.0871232599020004 0.50433354824781407 0.82922502979636192
leaf_count=27 432 40 30 20 32 173 14 32
internal_value=0 -0.031847 0.00357385 -0.0888871 -0.044888 0.0214818 -0.011163 0.0175209
internal_weight=17.2189 10.3984 6.3916 4.00681 2.37505 5.3273 2.24018 1.73584
internal_count=800 368 289 79 52 259 86 72
is_linear=0
shrinkage=0.05


Tree=11
num_leaves=9
num_cat=0
split_feature=2 1 4 3 1 1 1 4
split_gain=10.0993 6.96605 6.08602 5.42852 1.87393 3.02401 0.898523 0.797677
threshold=0.45493636568879731 0.65762447770932908 0.044904455672403157 0.21607048494949857 0.38717425206292916 0.20928648074763204 0.18689695989212618 0.50748573717019585
decision_type=2 2 2 2 2 2 2 2
left_child=1 2 -1 6 5 -5 -4 -7
right_child=-2 -3 3 4 -6 7 -8 -9
leaf_value=-0.16129221293889337 0.048931486586349736 0.045750470586910397 -0.12804036893813439 0.039997834636554153 0.043968198113873348 -0.095122503757203547 -0.052952235540902684 -0.0088650305794636917
leaf_weight=1.0257827825844303 6.5046346113085738 2.2278456585481754 0.95891206339001689 0.98627145867794785 1.6779236989095805 0.89863775856792905 2.157124225050211 0.68879057466983795
leaf_count=13 432 117 13 42 94 25 37 27
internal_value=0 -0.0296651 -0.0508684 -0.0325361 0.00278862 -0.0218937 -0.0816543 -0.0648831
internal_weight=17.1259 10.6213 8.39344 7.36766 4.25162 2.5737 3.11604 1.58743
internal_count=800 368 251 238 188 94 50 52
is_linear=0
shrinkage=0.05


Tree=12
num_leaves=11
num_cat=0
split_feature=3 2 2 1 3 1 4 2 3 4
split_gain=6.05783 7.2729 2.66919 2.99072 2.82669 2.29239 1.46898 1.48855 1.02874 0.453514
threshold=0.21335048184545272 0.46221674688100567 0.40386537477524392 0.5128764491620551 0.91152505461142075 0.50757381872979079 0.49863563127714344 0.31448078274737357 0.050207377864849252 0.35557461974463428
decision_type=2 2 2 2 2 2 2 2 2 2
left_child=1 5 3 4 6 -1 7 9 -7 -2
right_child=2 -3 -4 -5 -6 8 -8 -9 -10 -11
leaf_value=-0.10190533322682377 0.032740593629033657 0.044104832610732538 0.048455157181344251 0.045324479751594281 -0.10386834045722859 -0.065823986773200505 0.040344040734019863 -0.089306574919592249 0.0035580224208273076 -0.026325258687914382
leaf_weight=2.6909057479351786 0.56476832646876463 1.7221362907439468 5.1602634256705642 2.0815106015652418 0.83264218270778645 0.68696223013102997 1.0788652803748844 0.58648187108337868 1.0937875676900146 0.50775784440338612
leaf_count=35 21 100 364 120 18 14 60 19 30 19
internal_value=0 -0.0387837 0.02281 0 -0.0285665 -0.072613 -0.000169715 -0.0315756 -0.0212965 0
internal_weight=17.0061 6.19379 10.8123 5.65203 3.57052 4.47166 2.73787 1.65901 1.78075 1.07253
internal_count=800 179 621 257 137 79 119 59 44 40
is_linear=0
shrinkage=0.05


Tree=13
num_leaves=11
num_cat=0
split_feature=0 4 1 3 4 0 3 0 3 4
split_gain=7.32211 5.19997 2.88534 3.60248 1.51214 1.49823 1.25447 0.945175 0.734146 0.146738
threshold=0.42431746378045315 0.044904455672403157 0.65762447770932908 0.22624481441475594 0.49863563127714344 0.16627092604960544 0.94819064879068327 0.24159736237491028 0.073322174117167266 0.57090551222358921
decision_type=2 2 2 2 2 2 2 2 2 2
left_child=1 -1 3 -3 5 -5 8 -7 9 -2
right_child=6 2 -4 4 -6 7 -8 -9 -10 -11
leaf_value=-0.11991242966735115 -0.011401529192375841 -0.067093120196881906 0.043678317233848407 0.033574898345370523 0.043161386176607669 -0.098401012002828636 -0.027579184926126234 -0.0033623785929428151 0.048836114847119465 0.024069378500117661
leaf_weight=1.2733167344704295 0.64226574636995681 3.0483252285048348 1.6093379845842717 0.59701904188841615 1.4889130145311353 0.54335053544491507 0.50235308147966851 0.75756653863936663 6.0896234624087811 0.36666233092546463
leaf_count=18 21 47 97 25 84 14 22 32 419 21
internal_value=0 -0.0292483 -0.0126807 -0.0283755 0.00524606 -0.0214158 0.0364807 -0.0526011 0.0423761 0
internal_weight=16.9187 9.31783 8.04451 6.43517 3.38685 1.89794 7.6009 1.30092 7.09855 1.00893
internal_count=800 317 299 202 155 71 483 46 461 42
is_linear=0
shrinkage=0.05


Tree=14
num_leaves=9
num_cat=0
split_feature=0 2 2 4 2 2 4 2
split_gain=6.70051 8.30282 3.65679 2.99309 1.59995 4.16249 1.76021 0.642719
threshold=0.42431746378045315 0.45493636568879731 0.074402106685181921 0.044904455672403157 0.15597721666139433 0.27342556859099659 0.32628073579425404 0.080650854255879062
decision_type=2 2 2 2 2 2 2 2
left_child=1 3 -2 -1 7 -6 -7 -5
right_child=2 -3 -4 4 5 6 -8 -9
leaf_value=-0.1282717280906891 -0.055608818817467071 0.046219044588568854 0.049043894651031164 -0.027820108039323267 0.046882547432205143 -0.11751012149303126 -0.015325078767797054 -0.10027807872535291
leaf_weight=1.1942520625889317 0.80612469185143609 2.5885146837681532 6.525329583324492 1.0369188264012339 1.4421684304252269 0.75188750587403808 1.3247599648311732 1.1333840573206542
leaf_count=10 35 171 448 22 39 15 42 18
internal_value=0 -0.027341 0.0359342 -0.0563432 -0.0379937 -0.013717 -0.0594676 -0.0717132
internal_weight=16.8033 9.47189 7.33145 6.88337 5.68912 3.51882 2.07665 2.1703
internal_count=800 317 483 146 136 96 57 40
is_linear=0
shrinkage=0.05


Tree=15
num_leaves=8
num_cat=0
split_feature=2 0 1 4 0 2 4
split_gain=7.89481 7.26354 4.57105 2.21955 1.83318 1.77976 1.0251
threshold=0.45493636568879731 0.5711318225555545 0.65762447770932908 0.15202131893923473 0.23547627642733948 0.15597721666139433 0.49222282749165791
decision_type=2 2 2 2 2 2 2
left_child=1 2 3 -1 6 -6 -5
right_child=-2 -3 -4 4 5 -7 -8
leaf_value=-0.099602892318575442 0.048496426803033295 0.046408786809779105 0.040887174551819276 -0.016760834886657472 -0.05091325683381645 0.040981496410065772 -0.088399248048710966
leaf_weight=2.6255772896111029 5.5369899841025463 2.6038412731140843 1.1173059837892649 1.2063778899610045 0.84070697892457236 1.09735064022243 1.6269555184990165
leaf_count=25 432 160 57 18 27 47 34
internal_value=0 -0.0240329 -0.0467348 -0.0613392 -0.0371317 0 -0.0620651
internal_weight=16.6551 11.1181 8.51427 7.39697 4.77139 1.93806 2.83333
internal_count=800 368 208 151 126 74 52
is_linear=0
shrinkage=0.05


Tree=16
num_leaves=8
num_cat=0
split_feature=2 0 3 2 4 2 4
split_gain=7.34235 6.52431 3.18019 1.14964 3.24099 1.58629 0.619846
threshold=0.45493636568879731 0.5711318225555545 0.22163345610922452 0.074402106685181921 0.30173153327689184 0.3023895339877532 0.15884571504895292
decision_type=2 2 2 2 2 2 2
left_child=1 2 6 -4 5 -5 -1
right_child=-2 -3 3 4 -6 -7 -8
leaf_value=-0.10474756929769816 0.048357157789228278 0.046158687654260663 -0.064262681379449627 0 0.045232822389420863 -0.088594575746714699 -0.049935800342779613
leaf_weight=1.5894246771931664 5.2820191467180839 2.4904639124870291 0.73949537053704251 0.9308409318327906 1.8962393580004571 0.91718515940010548 2.6802644189447165
leaf_count=9 432 160 25 22 92 18 42
internal_value=0 -0.0225541 -0.0432513 -0.0113718 0 -0.0454168 -0.0739865
internal_weight=16.5259 11.2439 8.75345 4.48376 3.74427 1.84803 4.26969
internal_count=800 368 208 157 132 40 51
is_linear=0
shrinkage=0.05


Tree=17
num_leaves=8
num_cat=0
split_feature=2 0 3 3 1 2 2
split_gain=6.85689 5.90786 2.68398 2.8164 1.53334 1.0298 0.439288
threshold=0.45493636568879731 0.5711318225555545 0.22163345610922452 0.91152505461142075 0.38717425206292916 0.15971110669409824 0.31448078274737357
decision_type=2 2 2 2 2 2 2
left_child=1 2 5 4 6 -1 -4
right_child=-2 -3 3 -5 -6 -7 -8
leaf_value=-0.09692705954667985 0.048214881668420521 0.045903220583790066 0 -0.083647533248560335 0.044086975013667172 -0.037882347703411291 -0.04263703269408961
leaf_weight=2.0144140422344226 5.0391564201563588 2.3824004298076025 1.0348315136507156 0.9467578101903199 1.6297630807384846 2.4220198858529329 0.90185824595391739
leaf_count=19 432 160 35 17 86 32 19
internal_value=0 -0.021318 -0.0403505 -0.0107678 0.00828718 -0.0678912 -0.0188421
internal_weight=16.3712 11.332 8.94964 4.51321 3.56645 4.43643 1.93669
internal_count=800 368 208 157 140 51 54
is_linear=0
shrinkage=0.05


Tree=18
num_leaves=9
num_cat=0
split_feature=2 0 4 1 0 2 0 4
split_gain=6.40357 5.35859 2.04314 2.46046 2.44353 3.1497 2.21594 0.597513
threshold=0.45493636568879731 0.5711318225555545 0.044904455672403157 0.38717425206292916 0.15591267545731649 0.15971110669409824 0.19642475903029072 0.33588798162068201
decision_type=2 2 2 2 2 2 2 2
left_child=1 2 -1 4 -4 -6 -5 -7
right_child=-2 -3 3 6 5 7 -8 -9
leaf_value=-0.092667104715730073 0.048069334928172378 0.045642090070003805 0.0072800539804044086 -0.035716952545573291 -0.12316992557813802 -0.050117521696608283 0.044889402803100317 0
leaf_weight=1.434628419578077 4.8078409666195503 2.2794092083349815 1.174472579732537 1.4324036817997696 1.4949435889720919 0.80523136444389809 1.7426625881344078 1.0535157909616826
leaf_count=11 432 160 18 33 22 10 82 32
internal_value=0 -0.0201334 -0.0376693 -0.0254092 -0.048887 -0.0703697 0.0062543 -0.0199546
internal_weight=16.2251 11.4173 9.13786 7.70323 4.52816 3.35369 3.17507 1.85875
internal_count=800 368 208 197 82 64 115 42
is_linear=0
shrinkage=0.05


Tree=19
num_leaves=10
num_cat=0
split_feature=2 0 1 4 2 2 2 1 1
split_gain=5.98049 4.87169 3.26212 1.29369 2.61291 3.20591 2.15955 0.908417 0.00523693
threshold=0.45493636568879731 0.5711318225555545 0.65762447770932908 0.050008764395824003 0.15597721666139433 0.27342556859099659 0.31795612479346586 0.29464925841134798 0.26905266243137366
decision_type=2 2 2 2 2 2 2 2 2
left_child=1 2 3 -1 7 -6 -7 -5 -8
right_child=-2 -3 -4 4 5 6 8 -9 -10
leaf_value=-0.09219861618922115 0.047920257985973991 0.045375012850150762 0.040525871725516117 -0.10177808472179839 0.047807146236900189 -0.10415614164224224 -0.00550408713362529 -0.031924373406023325 0
leaf_weight=1.4143079966306702 4.587535914964973 2.181258753873407 1.0709615135565389 1.3779968405142429 1.5014284718781712 0.8096833257004622 0.70275325886905171 1.4993086950853465 0.92608947679400444
leaf_count=8 432 160 57 19 38 15 16 28 27
internal_value=0 -0.0190119 -0.0352291 -0.0463534 -0.0345628 -0.00559289 -0.0420144 -0.0701925 -0.00254833
internal_weight=16.0713 11.4838 9.30253 8.23157 6.81726 3.93995 2.43853 2.87731 1.62884
internal_count=800 368 208 151 143 96 58 47 43
is_linear=0
shrinkage=0.05


Tree=20
num_leaves=8
num_cat=0
split_feature=2 0 3 4 2 3 2
split_gain=5.60228 4.45353 2.27219 0.780849 1.6509 0.939239 0.547499
threshold=0.45493636568879731 0.5711318225555545 0.22163345610922452 0.12355803214233756 0.074402106685181921 0.41588222543003306 0.15971110669409824
decision_type=2 2 2 2 2 2 2
left_child=1 2 6 -4 -5 -6 -1
right_child=-2 -3 3 4 5 -7 -8
leaf_value=-0.079149580690150823 0.047767387193742857 0.045101718081638653 -0.036869726279461751 -0.048098729937330074 -0.017865852355136796 0.045509436865666456 -0.03355958936159794
leaf_weight=2.1966138649731857 4.3777287239208826 2.0877272980287662 1.4335590638220308 0.86817610170692239 0.56496040802449021 1.8822894301265476 2.4920491501688957
leaf_count=19 432 160 24 24 26 83 32
internal_value=0 -0.0180528 -0.0331362 -0.00665648 0.00490854 0.0278076 -0.0576913
internal_weight=15.9031 11.5254 9.43765 4.74899 3.31543 2.44725 4.68866
internal_count=800 368 208 157 133 109 51
is_linear=0
shrinkage=0.05


Tree=21
num_leaves=10
num_cat=0
split_feature=2 0 1 3 0 1 3 3 1
split_gain=5.25355 4.07938 2.83758 1.76038 1.91056 1.53438 0.469592 0.420098 1.21141
threshold=0.45493636568879731 0.5711318225555545 0.65762447770932908 0.12187098983557466 0.090488708398043224 0.3890560997008628 0.61841590634169197 0.42650981584471387 0.20928648074763204
decision_type=2 2 2 2 2 2 2 2 2
left_child=1 2 3 -1 -5 7 -7 -6 -9
right_child=-2 -3 -4 4 5 6 -8 8 -10
leaf_value=-0.075547098057920051 0.047610464610406154 0.044821949009208273 0.040302342066403492 0.040428989159392109 -0.07456880139797134 0.036280775853487747 -0.017954573181758804 0.0037245416670957164 -0.062624429036899007
leaf_weight=2.6740064639598113 4.1779288481920966 1.9986024862155307 1.0459297467023123 0.81269783340394486 1.5851488020271065 0.6963335173204539 0.52891432028263807 1.0661245109513404 1.1638086028397081
leaf_count=22 432 160 57 19 18 25 19 23 25
internal_value=0 -0.0171599 -0.0312052 -0.0412112 -0.0232592 -0.0355739 0.007621 -0.0512024 -0.0288858
internal_weight=15.7495 11.5716 9.57296 8.52703 5.85303 5.04033 1.22525 3.81508 2.22993
internal_count=800 368 208 151 129 110 44 66 48
is_linear=0
shrinkage=0.05


Tree=22
num_leaves=8
num_cat=0
split_feature=2 0 1 3 1 2 2
split_gain=4.90388 3.722 2.23583 2.58031 1.19511 2.01434 2.39194
threshold=0.45493636568879731 0.5711318225555545 0.51448787044962441 0.066394047877626719 0.37265733166096332 0.1673521338170352 0.3023895339877532
decision_type=2 2 2 2 2 2 2
left_child=1 2 4 -4 5 -1 -7
right_child=-2 -3 3 -5 -6 6 -8
leaf_value=-0.066104363553209852 0.047449230172868888 0.04453546198688952 -0.049228521842235133 0.045065661635784002 -0.084470187111689563 0.047428486777251325 -0.038251055684257435
leaf_weight=2.1554633080959302 3.9876680863089868 1.9136810535565008 1.0695650652050974 1.7327293260022996 1.5833432702347634 1.2542367978021505 1.9105643387883899
leaf_count=28 432 160 9 84 32 27 28
internal_value=0 -0.0161497 -0.0292118 0.00603564 -0.0444721 -0.0298459 -0.00158564
internal_weight=15.6073 11.6196 9.7059 2.80229 6.90361 5.32026 3.1648
internal_count=800 368 208 93 115 83 55
is_linear=0
shrinkage=0.05


Tree=23
num_leaves=8
num_cat=0
split_feature=2 0 1 4 0 0 1
split_gain=4.59154 3.41083 1.93983 2.52204 1.49497 1.00667 0.840372
threshold=0.45493636568879731 0.5711318225555545 0.51448787044962441 0.31939702921051299 0.17638002198335898 0.19642475903029072 0.2609810244470972
decision_type=2 2 2 2 2 2 2
left_child=1 2 3 -1 -5 -4 -6
right_child=-2 -3 5 4 6 -7 -8
leaf_value=-0.072229224084915819 0.047283428036350064 0.04424202916674936 -0.016442136258779421 -0.053426556052905097 0.043719538235236721 0.041517781899262744 -0.010782182421699347
leaf_weight=3.3853510329499823 3.8064988334663221 1.8327684467658389 1.6003694264218213 1.2396013922989371 1.0543633271008732 1.1477635307237504 1.4026007913053034
leaf_count=30 432 160 30 20 28 63 37
internal_value=0 -0.0152762 -0.0274622 -0.0412909 -0.00982556 0.00573943 0.0104682
internal_weight=15.4693 11.6628 9.83005 7.08192 3.69657 2.74813 2.45696
internal_count=800 368 208 115 85 93 65
is_linear=0
shrinkage=0.05


Tree=24
num_leaves=8
num_cat=0
split_feature=2 0 1 0 1 2 2
split_gain=4.29926 3.12954 1.70316 0.945283 0.881817 1.70865 2.08702
threshold=0.45493636568879731 0.5711318225555545 0.51448787044962441 0.19642475903029072 0.37265733166096332 0.1673521338170352 0.3023895339877532
decision_type=2 2 2 2 2 2 2
left_child=1 2 4 -4 5 -1 -7
right_child=-2 -3 3 -5 -6 6 -8
leaf_value=-0.058014891002809703 0.047112800524414009 0.043941437733916011 -0.015544346090455442 0.041089157173560181 -0.071762494477904282 0.047103299190812499 -0.032838053924622079
leaf_weight=2.2700610123574716 3.6339937155134985 1.7556786048226047 1.613587877713144 1.1039074347354469 1.7203553924337027 1.2280382597818973 2.0060286642983556
leaf_count=28 432 160 30 63 32 27 28
internal_value=0 -0.0144404 -0.025832 0.00544134 -0.0385331 -0.0257135 0
internal_weight=15.3317 11.6977 9.94198 2.7175 7.22448 5.50413 3.23407
internal_count=800 368 208 93 115 83 55
is_linear=0
shrinkage=0.05


Tree=25
num_leaves=10
num_cat=0
split_feature=2 3 1 3 1 1 2 1 4
split_gain=4.0276 2.2103 1.39082 1.54014 1.13153 4.08345 1.21516 0.671918 0.291118
threshold=0.45493636568879731 0.21335048184545272 0.5128764491620551 0.91152505461142075 0.37265733166096332 0.38717425206292916 0.040009440349908207 0.50757381872979079 0.32390024695722891
decision_type=2 2 2 2 2 2 2 2 2
left_child=1 7 3 4 6 -6 -3 -1 -9
right_child=-2 2 -4 -5 5 -7 -8 8 -10
leaf_value=-0.049377410803028904 0.046937094244126593 -0.030970569299682556 0.044023194128399307 -0.055445597791971273 -0.14936608409061536 0.034858707527185805 0.047236958049971016 0.009365380449026647 -0.025233617914115478
leaf_weight=3.6382633894681913 3.4697446092031905 0.46101943217218 1.6710988474078474 1.1608266066759823 0.36285311728715874 0.67355507100000978 1.9151213727891443 0.80664866231381882 1.0580491274595258
leaf_count=35 432 10 137 19 3 47 73 12 32
internal_value=0 -0.013641 0.00570667 -0.00733166 0.00801233 -0.0305079 0.0283962 -0.0366443 -0.0067342
internal_weight=15.2172 11.7474 6.24447 4.57338 3.41255 1.03641 2.37614 5.50296 1.8647
internal_count=800 368 289 152 133 50 83 79 44
is_linear=0
shrinkage=0.05


Tree=26
num_leaves=10
num_cat=0
split_feature=2 0 3 3 4 4 2 4 3
split_gain=3.78309 2.75743 1.49448 1.75335 0.541713 0.85531 0.697283 0.26941 1.31084
threshold=0.45493636568879731 0.5711318225555545 0.22163345610922452 0.91152505461142075 0.49863563127714344 0.11905627717365891 0.31448078274737357 0.15884571504895292 0.083291518655094973
decision_type=2 2 2 2 2 2 2 2 2
left_child=1 2 7 4 5 -4 -7 -1 -9
right_child=-2 -3 3 -5 -6 6 -8 8 -10
leaf_value=-0.061737005939638968 0.04675605761606668 0.043557248975142404 0.040966617486863095 -0.054518990734054709 0.040775788505746702 0.0022764655021424007 -0.051601494756931779 -0.06023384276004469 0
leaf_weight=1.8423024229705314 3.3133618147112438 1.6597559065558005 0.80132905486971218 1.1613940838724373 1.1090335375629363 1.1262232665903864 0.78723776480182994 1.5020904857665303 1.7807837463915346
leaf_count=9 432 160 19 17 62 36 23 16 26
internal_value=0 -0.0129663 -0.0233157 -0.0020722 0.0129293 0 -0.017627 -0.0421086 -0.027377
internal_weight=15.0835 11.7702 10.1104 4.98522 3.82382 2.71479 1.91346 5.12518 3.28287
internal_count=800 368 208 157 140 78 59 51 42
is_linear=0
shrinkage=0.05


Tree=27
num_leaves=8
num_cat=0
split_feature=0 2 1 4 0 0 2
split_gain=3.0291 3.0598 1.30846 1.86936 1.24355 0.844832 0.583646
threshold=0.5711318225555545 0.45493636568879731 0.51448787044962441 0.31939702921051299 0.21628684610414609 0.19642475903029072 0.087145896532843117
decision_type=2 2 2 2 2 2 2
left_child=1 2 3 -1 -5 -4 -6
right_child=-2 -3 5 4 6 -7 -8
leaf_value=-0.058339557479764159 0.046216214593736246 0.044315233192174945 -0.013618751486657688 -0.033853895712252176 -0.0073049673254819113 0.040519559715807105 0.041974292174020329
leaf_weight=3.6312173064798099 2.8133268910460183 1.942022185306995 1.6183373173698785 2.0233520166948442 0.68548240326344956 1.0452836174517868 1.1715512303635476
leaf_count=30 348 244 30 26 14 63 45
internal_value=0 -0.0105121 -0.0220357 -0.0327693 -0.00609217 0.00561031 0.0205078
internal_weight=14.9306 12.1172 10.1752 7.5116 3.88039 2.66362 1.85703
internal_count=800 452 208 115 85 93 59
is_linear=0
shrinkage=0.05


Tree=28
num_leaves=11
num_cat=0
split_feature=2 3 0 3 4 0 4 2 0 4
split_gain=3.33669 1.70666 1.11441 1.1147 1.04963 0.837727 0.49673 1.13203 0.776426 0.330766
threshold=0.45493636568879731 0.21335048184545272 0.29854791212753157 0.94819064879068327 0.12355803214233756 0.16627092604960544 0.050008764395824003 0.15597721666139433 0.12792003413517053 0.65154638952049726
decision_type=2 2 2 2 2 2 2 2 2 2
left_child=1 6 4 -4 -3 -6 -1 -8 -9 -10
right_child=-2 2 3 -5 5 -7 7 8 9 -11
leaf_value=-0.070456230433127764 0.046383482353268835 -0.048933171916644792 0.045721447339369524 -0.02529637375432265 0.040293033960963412 -0.017622111750087349 -0.04685162758173117 -0.034490697640346256 0.041981150316042486 0
leaf_weight=0.80796487815677931 3.0272455038502821 1.1722565088421109 2.2365487408824269 0.50495373830199231 0.98623242788016829 1.2093830052763221 2.2908647283911705 0.88836173899471793 0.8034284198656676 0.86212758254259825
leaf_count=5 432 11 198 13 36 31 26 7 22 19
internal_value=0 -0.0116635 0.00563104 0.0295714 -0.0119849 0.00574726 -0.0314317 -0.0221136 0 0.0208198
internal_weight=14.7894 11.7621 6.10937 2.7415 3.36787 2.19562 5.65275 4.84478 2.55392 1.66556
internal_count=800 368 289 211 78 67 79 74 48 41
is_linear=0
shrinkage=0.05


Tree=29
num_leaves=7
num_cat=0
split_feature=2 0 3 1 3 0
split_gain=3.1472 2.22872 1.26352 1.77805 0.887127 0.582164
threshold=0.45493636568879731 0.5711318225555545 0.12187098983557466 0.3890560997008628 0.87457487452491145 0.29546495677193746
decision_type=2 2 2 2 2 2
left_child=1 2 -1 5 -5 -4
right_child=-2 -3 3 4 -6 -7
leaf_value=-0.045527616794639826 0.046185168493675731 0.042708060606286458 -0.0052408650749508952 0.045196546879268704 -0.021061041895874429 -0.044398893844676629
leaf_weight=3.2929821815341693 2.8920804252848038 1.4830639730207611 2.6571371518075466 1.7659966652281585 0.45026023220270861 2.0725999288260937
leaf_count=30 432 160 35 93 10 40
internal_value=0 -0.0112103 -0.020083 -0.00648074 0.0281694 -0.024517
internal_weight=14.6141 11.722 10.239 6.94599 2.21626 4.72974
internal_count=800 368 208 178 103 75
is_linear=0
shrinkage=0.05


Tree=30
num_leaves=10
num_cat=0
split_feature=2 0 1 4 2 4 0 4 4
split_gain=2.95979 2.0649 1.09183 1.54782 0.907019 1.04625 0.740681 0.620758 0.565968
threshold=0.45493636568879731 0.5711318225555545 0.51448787044962441 0.15202131893923473 0.15971110669409824 0.72892531171256325 0.11435990902319697 0.52374812937659299 0.32227761455239406
decision_type=2 2 2 2 2 2 2 2 2
left_child=1 2 3 -1 -5 8 -4 -8 -6
right_child=-2 -3 6 4 5 -7 7 -9 -10
leaf_value=-0.059116611961602061 0.045980555019050545 0.042367795764568256 -0.02514154781373721 -0.035612000935354736 0 -0.031005771470771909 0.052033677384704928 0 0.046489227262647842
leaf_weight=2.6929051633924228 2.7634031008929023 1.422564118169247 0.88029241841286454 2.0083789452910423 0.66750506497919593 1.000850497279316 0.96985488617792703 0.76153784524649382 1.3189115468412635
leaf_count=18 432 160 18 32 8 20 41 34 37
internal_value=0 -0.0106685 -0.0190514 -0.0286471 -0.00991288 0.00552951 0.00644619 0.0270975 0.0281362
internal_weight=14.4862 11.7228 10.3002 7.68855 4.99565 2.98727 2.61169 1.73139 1.98642
internal_count=800 368 208 115 97 65 93 75 45
is_linear=0
shrinkage=0.05


Tree=31
num_leaves=8
num_cat=0
split_feature=0 2 4 3 2 2 4
split_gain=2.4314 2.26835 0.965012 1.26604 1.68101 1.47613 1.16389
threshold=0.5711318225555545 0.45493636568879731 0.044904455672403157 0.083291518655094973 0.15597721666139433 0.061963057732235809 0.30173153327689184
decision_type=2 2 2 2 2 2 2
left_child=1 2 -1 -4 5 -5 -6
right_child=-2 -3 3 4 6 -7 -8
leaf_value=-0.052936127346142829 0.04540670432961303 0.043103064267543401 -0.043105383062724517 0.010286966908621865 -0.0064473537904700187 -0.054439955866244963 0.047447227288589015
leaf_weight=1.6687371116131533 2.3834351324476311 1.6223967880941916 2.0798432976007444 1.2913970770314338 1.4052780740894379 1.7995417565107343 2.1046009277924895
leaf_count=11 348 244 18 26 30 34 89
internal_value=0 -0.00890945 -0.0181153 -0.0100407 0 -0.0255717 0.0242105
internal_weight=14.3552 11.9718 10.3494 8.68066 6.60082 3.09094 3.50988
internal_count=800 452 208 197 179 60 119
is_linear=0
shrinkage=0.05


Tree=32
num_leaves=10
num_cat=0
split_feature=2 3 1 3 1 1 2 2 2
split_gain=2.62768 1.31797 1.05751 0.971611 1.05774 2.87446 1.13312 0.508093 0.729879
threshold=0.45493636568879731 0.21335048184545272 0.5128764491620551 0.91152505461142075 0.37265733166096332 0.38717425206292916 0.040009440349908207 0.15597721666139433 0.28461429526761811
decision_type=2 2 2 2 2 2 2 2 2
left_child=1 7 3 4 6 -6 -3 -1 -9
right_child=-2 2 -4 -5 5 -7 -8 8 -10
leaf_value=-0.043883595605250257 0.045560208063971153 -0.026991970416634897 0.04273449457501334 -0.041014619899989002 -0.11880879512807972 0.032652415536318952 0.047465764501272129 0.015838948432083496 -0.030116146594924665
leaf_weight=2.5978881083428842 2.5287207104265699 0.48490519262850362 1.3965088156983254 1.2792821535840628 0.42626497335731961 0.58165281778201461 1.8065174012444911 1.2364675700664522 1.8601793972775338
leaf_count=27 432 10 137 19 3 47 73 21 31
internal_value=0 -0.00972302 0.00564944 -0.00473034 0.00792485 -0.0295756 0.0281032 -0.0269664 -0.00949896
internal_weight=14.1984 11.6697 5.97513 4.57862 3.29934 1.00792 2.29142 5.69454 3.09665
internal_count=800 368 289 152 133 50 83 79 52
is_linear=0
shrinkage=0.05


Tree=33
num_leaves=9
num_cat=0
split_feature=2 0 4 3 2 2 2 4
split_gain=2.47461 1.71253 0.86872 1.08749 1.48031 1.34351 0.551549 0.207101
threshold=0.45493636568879731 0.5711318225555545 0.044904455672403157 0.083291518655094973 0.15597721666139433 0.061963057732235809 0.40098534522550899 0.30173153327689184
decision_type=2 2 2 2 2 2 2 2
left_child=1 2 -1 -4 5 -5 7 -6
right_child=-2 -3 3 4 6 -7 -8 -9
leaf_value=-0.049663009580778003 0.045335584338320994 0.041525289069730631 -0.039144722026818478 0.010899169128368962 0.0073145813270170728 -0.050409693843866558 -0.009560394994486493 0.046199382506774647
leaf_weight=1.6710597146302451 2.4174977499060342 1.2874443982727815 2.134067213162778 1.3053672993555667 1.1388578605838127 1.832276679575443 0.61181628052145232 1.6559977098368106
leaf_count=11 432 160 18 26 25 34 23 71
internal_value=0 -0.00928694 -0.0166625 -0.00896037 0.000194806 -0.0230378 0.0237782 0.0337453
internal_weight=14.0544 11.6369 10.3494 8.67838 6.54432 3.13764 3.40667 2.79486
internal_count=800 368 208 197 179 60 119 96
is_linear=0
shrinkage=0.05


Tree=34
num_leaves=9
num_cat=0
split_feature=2 1 3 1 1 2 3 1
split_gain=2.32616 1.74692 1.21693 0.973246 1.00845 1.6294 0.813477 0.719115
threshold=0.45493636568879731 0.65762447770932908 0.12187098983557466 0.3890560997008628 0.35544384785468969 0.16117359533965606 0.91152505461142075 0.11352814063973071
decision_type=2 2 2 2 2 2 2 2
left_child=1 2 -1 4 5 -4 -5 -7
right_child=-2 -3 3 6 -6 7 -8 -9
leaf_value=-0.041167357069015142 0.045103768346057505 0.042179729214764691 -0.032697345670185181 0.044059227008600883 -0.059094948279761431 -0.010980590571670501 -0.02269172725459663 0.046528217851618717
leaf_weight=3.2904982017353159 2.3116207197308549 1.3049352350644756 2.2011349303647876 1.4677115934900937 0.96956251142546523 0.50773972552269686 0.40647625271230925 1.4520180602557955
leaf_count=30 432 117 37 99 13 16 9 47
internal_value=0 -0.00881585 -0.0163447 -0.00321313 -0.0153729 -0.00227692 0.0253671 0.0281777
internal_weight=13.9117 11.6001 10.2951 7.00464 5.13046 4.16089 1.87419 1.95976
internal_count=800 368 251 221 113 100 108 63
is_linear=0
shrinkage=0.05


Tree=35
num_leaves=11
num_cat=0
split_feature=0 1 4 4 3 4 3 1 1 3
split_gain=2.01126 1.65213 0.774935 1.6389 1.75269 1.4449 1.07181 0.629136 2.47498 0.674509
threshold=0.5711318225555545 0.65762447770932908 0.044904455672403157 0.092307748661812211 0.083291518655094973 0.31132641040975578 0.45953471113676531 0.20928648074763204 0.2632143181341336 0.12835499178149978
decision_type=2 2 2 2 2 2 2 2 2 2
left_child=1 2 -1 -4 -5 6 -6 -7 -9 -10
right_child=-2 -3 3 4 5 7 -8 8 9 -11
leaf_value=-0.046083278896377103 0.044641606051714168 0.042023435072158562 0.055604512044224952 -0.056640011026723017 -0.066214165584493348 0.044499987141556757 0 -0.077815982108693837 -0.0072300680709925921 0.044699908228827134
leaf_weight=1.6789489593356837 2.0680987467058012 1.2988945064134885 0.77445819694548657 1.8628370892256496 1.1173323900438847 1.1788983726873992 0.95105528365820635 0.6353426938876513 0.60332187078893218 1.5937268296256659
leaf_count=17 348 146 17 27 17 57 36 20 9 106
internal_value=0 -0.0077444 -0.0150182 -0.00772945 -0.0154522 -0.000906047 -0.035009 0.0152784 0 0.0274806
internal_weight=13.7629 11.6948 10.3959 8.71697 7.94251 6.07968 2.06839 4.01129 2.83239 2.19705
internal_count=800 452 306 289 272 245 53 192 135 115
is_linear=0
shrinkage=0.05


Tree=36
num_leaves=11
num_cat=0
split_feature=2 1 3 0 0 1 1 0 3 3
split_gain=2.11525 1.52619 0.937964 0.889618 1.14758 0.98787 2.14943 1.79379 0.525644 0.856194
threshold=0.45493636568879731 0.65762447770932908 0.12187098983557466 0.090488708398043224 0.18798052838268758 0.3890560997008628 0.36569670136235538 0.40637382245185089 0.21335048184545272 0.92721164724133509
decision_type=2 2 2 2 2 2 2 2 2 2
left_child=1 2 -1 -4 -5 6 7 -6 -9 -10
right_child=-2 -3 3 4 5 -7 -8 8 9 -11
leaf_value=-0.036504622524188728 0.044723012628484049 0.041393516102822638 0.041373162149287102 -0.049232061332203252 0.047432848477303426 0.040975850407389651 -0.080460908369423795 -0.064406464981412698 0.032110833142932275 -0.059000604702165997
leaf_weight=3.3826395049691182 2.1533328345976779 1.2028966406360257 0.81245680060237635 1.3849799521267412 1.4104463183321065 1.081372800748795 0.781505568884313 0.51548383757472016 0.5626026438549161 0.3186276126652956
leaf_count=30 432 117 19 18 27 91 9 4 46 7
internal_value=0 -0.00822264 -0.0151136 -0.00312815 -0.010893 0 -0.0114799 0.00725143 -0.0287722 0
internal_weight=13.6063 11.453 10.2501 6.86748 6.05502 4.67004 3.58867 2.80716 1.39671 0.88123
internal_count=800 368 251 221 202 184 93 84 57 53
is_linear=0
shrinkage=0.05


Tree=37
num_leaves=9
num_cat=0
split_feature=2 0 4 4 3 4 2 0
split_gain=1.99123 1.37401 0.682598 1.50211 1.19806 1.21305 1.45366 0.322083
threshold=0.45493636568879731 0.5711318225555545 0.044904455672403157 0.092307748661812211 0.083291518655094973 0.31939702921051299 0.1420698192951633 0.2108627618840381
decision_type=2 2 2 2 2 2 2 2
left_child=1 2 -1 -4 -5 -6 7 -7
right_child=-2 -3 3 4 5 6 -8 -9
leaf_value=-0.04370700353150913 0.044471436182450468 0.040433425851427535 0.055127978436750484 -0.047276895203934244 -0.032958706275837031 -0.0328081436053708 0.046327318064656398 0.00052217277595387949
leaf_weight=1.6556460354477156 2.0601637731306264 1.1414040736854065 0.72639309242367556 1.9968383200466631 2.040712084621191 0.95041768718510944 1.7786476239562032 1.0803340082056818
leaf_count=11 432 160 11 17 36 14 88 31
internal_value=0 -0.00784478 -0.0142973 -0.0073147 -0.0146598 -0.00165851 0.0136048 -0.0123646
internal_weight=13.4306 11.3704 10.229 8.57334 7.84695 5.85011 3.8094 2.03075
internal_count=800 368 208 197 186 169 133 45
is_linear=0
shrinkage=0.05


Tree=38
num_leaves=10
num_cat=0
split_feature=2 0 3 3 0 4 0 4 3
split_gain=1.87205 1.2779 0.631735 0.977401 0.485123 0.388273 1.25321 0.181354 0.0568539
threshold=0.45493636568879731 0.5711318225555545 0.22163345610922452 0.91152505461142075 0.29854791212753157 0.11905627717365891 0.16627092604960544 0.15884571504895292 0.05678336556047326
decision_type=2 2 2 2 2 2 2 2 2
left_child=1 2 7 4 5 -4 -7 -1 -9
right_child=-2 -3 3 -5 -6 6 -8 8 -10
leaf_value=-0.041196261477754841 0.0442119734541511 0.04003961146292475 0.036059343289058757 -0.036352328587300392 0.040526015183985575 0.036229884552502804 -0.039191910893906112 -0.023852674364274531 -0.0040356361361981322
leaf_weight=1.7610587812960128 1.9714746412355459 1.0971080376766611 0.51238594669848758 1.2826330168172715 1.0137466602027414 0.72360058128833804 1.3494586171582339 1.4584068655967715 2.1314499359577894
leaf_count=9 432 160 8 17 68 33 31 13 29
internal_value=0 -0.00743024 -0.0135838 0 0.0129082 0 -0.00895884 -0.0252886 -0.0145473
internal_weight=13.3013 11.3298 10.2327 4.88182 3.59919 2.58545 2.07306 5.35092 3.58986
internal_count=800 368 208 157 140 72 64 51 42
is_linear=0
shrinkage=0.05


Tree=39
num_leaves=10
num_cat=0
split_feature=2 1 0 2 4 4 2 1 2
split_gain=1.76243 1.34049 0.697964 0.871183 0.457713 0.888729 0.988348 1.46193 0.050236
threshold=0.45493636568879731 0.65762447770932908 0.51366844801432088 0.019620600128498904 0.050008764395824003 0.29374764116577601 0.31795612479346586 0.2609810244470972 0.13454350064024637
decision_type=2 2 2 2 2 2 2 2 2
left_child=1 2 4 -4 -1 -6 7 -7 -9
right_child=-2 -3 3 -5 5 6 -8 8 -10
leaf_value=-0.044672260600568475 0.043944450742263663 0.0408494181953915 -0.0378281874861668 0.040319856693940032 0.012459264476451281 0 0.010035776881696337 -0.029934568107707001 -0.077993818958866243
leaf_weight=1.5789207592606525 1.8870502174831933 1.131489791208877 0.33698621531948347 1.0797259439714251 2.1344746612012386 1.5955947930924597 1.2278060079552231 0.97052863752469454 1.2269459622912107
leaf_count=8 432 117 5 113 26 27 31 18 23
internal_value=0 -0.00706944 -0.0134888 0.0155178 -0.0191651 -0.0119647 -0.023853 -0.0367252 -0.0622594
internal_weight=13.1695 11.2825 10.151 1.41671 8.73427 7.15535 5.02088 3.79307 2.19747
internal_count=800 368 251 118 133 125 99 68 41
is_linear=0
shrinkage=0.05


Tree=40
num_leaves=10
num_cat=0
split_feature=2 0 1 3 1 0 0 1 1
split_gain=1.65962 1.11066 0.712194 1.37502 0.642465 2.00354 1.12079 0.382225 0.698673
threshold=0.45493636568879731 0.5711318225555545 0.51448787044962441 0.03414235018602281 0.37265733166096332 0.40230799001965417 0.17638002198335898 0.65522710848089183 0.6697117729945774
decision_type=2 2 2 2 2 2 2 2 2
left_child=1 2 4 -4 5 6 -1 -5 -9
right_child=-2 -3 3 7 -6 -7 -8 8 -10
leaf_value=-0.017208541846115321 0.043668708595103661 0.039229098305638171 -0.051069728144415474 0.053589952419350328 -0.046086364768564106 -0.054348496236275301 0.03221974137027428 -0.044338617126712346 0.034827638308598807
leaf_weight=1.9875149196013788 1.8066853170748807 1.0148028987459827 0.53929864615201983 0.91949697537347652 1.8604390854015944 1.7191100115887819 2.225138948764652 0.31637159967795014 0.66555062076076865
leaf_count=22 432 160 4 31 32 27 34 6 52
internal_value=0 -0.00672412 -0.0123427 0.00892935 -0.0199847 -0.00992638 0.0073023 0.0313956 0.000647902
internal_weight=13.0544 11.2477 10.2329 2.44072 7.7922 5.93176 4.21265 1.90142 0.981922
internal_count=800 368 208 93 115 83 56 89 58
is_linear=0
shrinkage=0.05


Tree=41
num_leaves=10
num_cat=0
split_feature=2 1 0 4 2 2 2 2 4
split_gain=1.56412 1.18627 0.608095 0.728278 0.424913 1.4566 1.94836 1.44218 0.342613
threshold=0.45493636568879731 0.65762447770932908 0.51366844801432088 0.10595353519738801 0.27342556859099659 0.31795612479346586 0.40098534522550899 0.15597721666139433 0.46831078365195006
decision_type=2 2 2 2 2 2 2 2 2
left_child=1 2 4 -4 7 -6 -7 8 -1
right_child=-2 -3 3 -5 5 6 -8 -9 -10
leaf_value=-0.0038693902638077295 0.043384599836771218 0.040148475292836806 -0.030010196088625946 0.039656452233832067 -0.068338344521476843 0.043275708324940911 -0.048093838174327969 0.029620964403105656 -0.040521436722747606
leaf_weight=1.7662378270179018 1.7301844265311963 1.0585367721505452 0.36811596108600397 1.0018131709657607 1.449797382578254 1.0228237845003607 1.0971692050807176 1.6198022910393772 1.8125827843323348
leaf_count=17 432 117 11 107 13 25 16 36 26
internal_value=0 -0.00641916 -0.0123584 0.0150659 -0.0176103 -0.0313086 -0.000669132 -0.00637517 -0.0250683
internal_weight=12.9271 11.1969 10.1383 1.36993 8.76841 3.56979 2.11999 5.19862 3.57882
internal_count=800 368 251 118 133 54 41 79 43
is_linear=0
shrinkage=0.05


end of trees

feature_importances:
kure_sim_2=87
kure_sim_0=71
kure_sim_1=70
kure_sim_4=64
kure_sim_3=61

parameters:
[boosting: gbdt]
[objective: binary]
[metric: auc]
[tree_learner: serial]
[device_type: cpu]
[data_sample_strategy: bagging]
[data: ]
[valid: ]
[num_iterations: 100]
[learning_rate: 0.05]
[num_leaves: 31]
[num_threads: 0]
[seed: 0]
[deterministic: 0]
[force_col_wise: 0]
[force_row_wise: 0]
[histogram_pool_size: -1]
[max_depth: -1]
[min_data_in_leaf: 20]
[min_sum_hessian_in_leaf: 0.001]
[bagging_fraction: 1]
[pos_bagging_fraction: 1]
[neg_bagging_fraction: 1]
[bagging_freq: 0]
[bagging_seed: 3]
[bagging_by_query: 0]
[feature_fraction: 0.85]
[feature_fraction_bynode: 0.85]
[feature_fraction_seed: 2]
[extra_trees: 0]
[extra_seed: 6]
[early_stopping_round: 0]
[early_stopping_min_delta: 0]
[first_metric_only: 0]
[max_delta_step: 0]
[lambda_l1: 0.15]
[lambda_l2: 0.1]
[linear_lambda: 0]
[min_gain_to_split: 0]
[drop_rate: 0.1]
[max_drop: 50]
[skip_drop: 0.5]
[xgboost_dart_mode: 0]
[uniform_drop: 0]
[drop_seed: 4]
[top_rate: 0.2]
[other_rate: 0.1]
[min_data_per_group: 100]
[max_cat_threshold: 32]
[cat_l2: 10]
[cat_smooth: 10]
[max_cat_to_onehot: 4]
[top_k: 20]
[monotone_constraints: ]
[monotone_constraints_method: basic]
[monotone_penalty: 0]
[feature_contri: ]
[forcedsplits_filename: ]
[refit_decay_rate: 0.9]
[cegb_tradeoff: 1]
[cegb_penalty_split: 0]
[cegb_penalty_feature_lazy: ]
[cegb_penalty_feature_coupled: ]
[path_smooth: 0]
[interaction_constraints: ]
[verbosity: -1]
[saved_feature_importance_type: 0]
[use_quantized_grad: 0]
[num_grad_quant_bins: 4]
[quant_train_renew_leaf: 0]
[stochastic_rounding: 1]
[linear_tree: 0]
[max_bin: 255]
[max_bin_by_feature: ]
[min_data_in_bin: 3]
[bin_construct_sample_cnt: 200000]
[data_random_seed: 1]
[is_enable_sparse: 1]
[enable_bundle: 1]
[use_missing: 1]
[zero_as_missing: 0]
[feature_pre_filter: 1]
[pre_partition: 0]
[two_round: 0]
[header: 0]
[label_column: ]
[weight_column: ]
[group_column: ]
[ignore_column: ]
[categorical_feature: ]
[forcedbins_filename: ]
[precise_float_parser: 0]
[parser_config_file: ]
[objective_seed: 5]
[num_class: 1]
[is_unbalance: 0]
[scale_pos_weight: 1]
[sigmoid: 1]
[boost_from_average: 1]
[reg_sqrt: 0]
[alpha: 0.9]
[fair_c: 1]
[poisson_max_delta_step: 0.7]
[tweedie_variance_power: 1.5]
[lambdarank_truncation_level: 30]
[lambdarank_norm: 1]
[label_gain: ]
[lambdarank_position_bias_regularization: 0]
[eval_at: ]
[multi_error_top_k: 1]
[auc_mu_weights: ]
[num_machines: 1]
[local_listen_port: 12400]
[time_out: 120]
[machine_list_filename: ]
[machines: ]
[gpu_platform_id: -1]
[gpu_device_id: -1]
[gpu_use_dp: 0]
[num_gpu: 1]

end of parameters

pandas_categorical:[]
