tree
version=v4
num_class=1
num_tree_per_iteration=1
label_index=0
max_feature_idx=12
objective=binary sigmoid:1
feature_names=lightgcn_score cooccurrence_score segment_popularity_score known_hobby_compatibility age_group_fit occupation_fit region_fit popularity_prior mismatch_penalty popularity_penalty novelty_bonus category_diversity_reward is_cold_start
feature_infos=none [0:1] none [0:0.4166666567325592] [0:0.8125] [0:0.56578946113586426] [0:0.40909090638160706] [0:1] [0:0.6547619104385376] [0:1] [0:1] none -1:1:0
tree_sizes=1230 1169 1295 1194

Tree=0
num_leaves=11
num_cat=0
split_feature=1 1 5 7 4 1 6 10 1 1
split_gain=198.867 33.9606 10.0939 8.38402 4.351 4.08093 3.7399 1.7664 0.361023 0.929938
threshold=0.95505049824714672 0.75532880425453197 0.0066946779843419799 0.12524936348199847 0.36163836717605596 0.35124717652797705 0.030102664604783062 0.38442796468734747 0.18758141994476321 0.083369515836238875
decision_type=2 2 2 2 2 2 2 2 2 2
left_child=1 3 -3 5 -2 8 -7 -8 9 -1
right_child=4 2 -4 -5 -6 6 7 -9 -10 -11
leaf_value=-1.4445702253559563 -1.254938424049636 -1.3941456010865008 -1.3331239496308385 -1.3850210164144192 -1.1944057341596661 -1.3889596064290453 -1.409627695324587 -1.4380300105744879 -1.4481286829462563 -1.4230712219934316
leaf_weight=14.39999967813492 8.1599998176097888 11.9999997317791 15.039999663829802 11.679999738931654 8.1599998176097852 9.2799997925758344 10.399999767541887 14.87999966740608 16.799999624490738 11.999999731779097
leaf_count=90 51 75 94 73 51 58 65 93 105 75
internal_value=-1.38629 -1.40924 -1.36032 -1.4241 -1.22338 -1.43003 -1.41673 -1.42668 -1.44045 -1.43516
internal_weight=132.8 116.48 27.04 89.44 16.32 77.76 34.56 25.28 43.2 26.4
internal_count=830 728 169 559 102 486 216 158 270 165
is_linear=0
shrinkage=1


Tree=1
num_leaves=10
num_cat=0
split_feature=1 1 5 7 1 6 4 7 4
split_gain=165.495 31.3353 8.73619 7.9664 3.99391 4.02298 2.76659 1.66547 0.639756
threshold=0.95505049824714672 0.75532880425453197 0.0066946779843419799 0.12524936348199847 0.37117347121238714 0.030102664604783062 0.36163836717605596 0.02933088876307011 0.46274097263813024
decision_type=2 2 2 2 2 2 2 2 2
left_child=1 3 -3 4 8 -6 -2 -7 -1
right_child=6 2 -4 -5 5 7 -8 -9 -10
leaf_value=-0.055960066921929896 0.11559669959839547 -0.0074978556019439204 0.048934413462906674 0.0012092778991445803 0 -0.050531709394336793 0.16328465950181395 -0.021055842593095661 -0.037377510768095805
leaf_weight=35.651650115847588 8.8041602522134799 11.943486705422403 15.520448505878447 11.68892392516136 8.7859287112951296 14.111716955900194 9.099864184856413 8.6769062280654889 8.524242237210272
leaf_count=230 51 75 94 73 55 91 51 55 55
internal_value=-3.74072e-05 -0.0221425 0.0242736 -0.0367896 -0.0427129 -0.0286279 0.140885 -0.0396681 -0.0525798
internal_weight=132.807 114.903 27.4639 87.4394 75.7504 31.5746 17.904 22.7886 44.1759
internal_count=830 728 169 559 486 201 102 146 285
is_linear=0
shrinkage=0.05


Tree=2
num_leaves=11
num_cat=0
split_feature=1 1 5 7 1 1 6 10 1 1
split_gain=140.425 28.9236 7.59535 7.56774 4.04894 3.91567 3.33116 1.67693 0.403463 0.972241
threshold=0.95505049824714672 0.75532880425453197 0.0066946779843419799 0.12524936348199847 0.98979592323303234 0.35124717652797705 0.030102664604783062 0.38442796468734747 0.18758141994476321 0.083369515836238875
decision_type=2 2 2 2 2 2 2 2 2 2
left_child=1 3 -3 5 -2 8 -7 -8 9 -1
right_child=4 2 -4 -5 -6 6 7 -9 -10 -11
leaf_value=-0.056667741208762147 0.098458422822615188 -0.0071589797655813789 0.045188407440458385 0.0011484793112438176 0.14998269409023787 -0.0024158401738167135 -0.021577469951114106 -0.049830935536510718 -0.060457943466828007 -0.0342686616332935
leaf_weight=13.441576361656191 9.9059391766786575 11.889547482132913 15.963008165359495 11.697399944067 9.3430595695972443 9.2508624345064145 10.096024498343469 13.969938486814497 15.665529027581213 11.356433629989622
leaf_count=90 53 75 94 73 49 58 65 93 105 75
internal_value=-8.88537e-05 -0.0213634 0.0227181 -0.0357953 0.124372 -0.0417138 -0.0285399 -0.0383234 -0.0523406 -0.0467896
internal_weight=132.579 113.33 27.8526 85.4778 19.249 73.7804 33.3168 24.066 40.4635 24.798
internal_count=830 728 169 559 102 486 216 158 270 165
is_linear=0
shrinkage=0.05


Tree=3
num_leaves=10
num_cat=0
split_feature=1 1 1 7 6 1 6 1 7
split_gain=121.304 18.4628 12.5493 6.84694 3.59178 2.46866 2.45253 2.38644 1.20816
threshold=0.91010102629661571 0.55182597041130077 0.97825059294700634 0.038011537864804275 0.062066640704870231 0.37117347121238714 0.13058923929929736 0.7188449800014497 0.018223971128463749
decision_type=2 2 2 2 2 2 2 2 2
left_child=1 5 -2 4 -3 8 -7 -5 -1
right_child=2 3 -4 7 -6 6 -8 -9 -10
leaf_value=-0.054080452528971493 0.054331913700374324 0.0010218572871440515 0.12534347773100679 -0.0025383061075950485 -0.04201484922588674 -0.0095000517424221175 -0.047203848581665875 0.028706698303722036 -0.032679384657833391
leaf_weight=31.785786420106888 11.549997434020042 8.5812236517667788 15.059665337204933 9.3039660602808016 10.40898637473583 10.589282751083376 7.7933720201253882 16.213214665651321 10.895698755979536
leaf_count=219 64 54 75 59 67 68 52 98 74
internal_value=-0.000135915 -0.0242365 0.0950267 0.000151676 -0.0224022 -0.0420651 -0.0259241 0.0171537 -0.0488232
internal_weight=132.181 105.572 26.6097 44.5074 18.9902 61.0641 18.3827 25.5172 42.6815
internal_count=830 691 139 278 121 413 120 157 293
is_linear=0
shrinkage=0.05


end of trees

feature_importances:
cooccurrence_score=19
popularity_prior=6
region_fit=5
age_group_fit=3
occupation_fit=3
novelty_bonus=2

parameters:
[boosting: gbdt]
[objective: binary]
[metric: auc]
[tree_learner: serial]
[device_type: cpu]
[data_sample_strategy: bagging]
[data: ]
[valid: ]
[num_iterations: 500]
[learning_rate: 0.05]
[num_leaves: 31]
[num_threads: -1]
[seed: 42]
[deterministic: 0]
[force_col_wise: 0]
[force_row_wise: 0]
[histogram_pool_size: -1]
[max_depth: -1]
[min_data_in_leaf: 50]
[min_sum_hessian_in_leaf: 0.001]
[bagging_fraction: 1]
[pos_bagging_fraction: 1]
[neg_bagging_fraction: 1]
[bagging_freq: 0]
[bagging_seed: 400]
[bagging_by_query: 0]
[feature_fraction: 1]
[feature_fraction_bynode: 1]
[feature_fraction_seed: 30056]
[extra_trees: 0]
[extra_seed: 12879]
[early_stopping_round: 0]
[early_stopping_min_delta: 0]
[first_metric_only: 0]
[max_delta_step: 0]
[lambda_l1: 0.1]
[lambda_l2: 0.1]
[linear_lambda: 0]
[min_gain_to_split: 0]
[drop_rate: 0.1]
[max_drop: 50]
[skip_drop: 0.5]
[xgboost_dart_mode: 0]
[uniform_drop: 0]
[drop_seed: 17869]
[top_rate: 0.2]
[other_rate: 0.1]
[min_data_per_group: 100]
[max_cat_threshold: 32]
[cat_l2: 10]
[cat_smooth: 10]
[max_cat_to_onehot: 4]
[top_k: 20]
[monotone_constraints: ]
[monotone_constraints_method: basic]
[monotone_penalty: 0]
[feature_contri: ]
[forcedsplits_filename: ]
[refit_decay_rate: 0.9]
[cegb_tradeoff: 1]
[cegb_penalty_split: 0]
[cegb_penalty_feature_lazy: ]
[cegb_penalty_feature_coupled: ]
[path_smooth: 0]
[interaction_constraints: ]
[verbosity: -1]
[saved_feature_importance_type: 0]
[use_quantized_grad: 0]
[num_grad_quant_bins: 4]
[quant_train_renew_leaf: 0]
[stochastic_rounding: 1]
[linear_tree: 0]
[max_bin: 255]
[max_bin_by_feature: ]
[min_data_in_bin: 3]
[bin_construct_sample_cnt: 200000]
[data_random_seed: 175]
[is_enable_sparse: 1]
[enable_bundle: 1]
[use_missing: 1]
[zero_as_missing: 0]
[feature_pre_filter: 1]
[pre_partition: 0]
[two_round: 0]
[header: 0]
[label_column: ]
[weight_column: ]
[group_column: ]
[ignore_column: ]
[categorical_feature: 12]
[forcedbins_filename: ]
[precise_float_parser: 0]
[parser_config_file: ]
[objective_seed: 16083]
[num_class: 1]
[is_unbalance: 0]
[scale_pos_weight: 1]
[sigmoid: 1]
[boost_from_average: 1]
[reg_sqrt: 0]
[alpha: 0.9]
[fair_c: 1]
[poisson_max_delta_step: 0.7]
[tweedie_variance_power: 1.5]
[lambdarank_truncation_level: 30]
[lambdarank_norm: 1]
[label_gain: ]
[lambdarank_position_bias_regularization: 0]
[eval_at: ]
[multi_error_top_k: 1]
[auc_mu_weights: ]
[num_machines: 1]
[local_listen_port: 12400]
[time_out: 120]
[machine_list_filename: ]
[machines: ]
[gpu_platform_id: -1]
[gpu_device_id: -1]
[gpu_use_dp: 0]
[num_gpu: 1]

end of parameters

pandas_categorical:null
