tree
version=v4
num_class=1
num_tree_per_iteration=1
label_index=0
max_feature_idx=12
objective=binary sigmoid:1
feature_names=lightgcn_score cooccurrence_score segment_popularity_score known_hobby_compatibility age_group_fit occupation_fit region_fit popularity_prior mismatch_penalty popularity_penalty novelty_bonus category_diversity_reward is_cold_start
feature_infos=none [0:1] none [0:0.5] [0:1] [0:0.6834532618522644] [0:0.66666668653488159] [0:1] [0:1] [0:1] [0:1] none -1:1:0
tree_sizes=1774 1614 1928 1724 1728 1722 1810 1731 1731 1729 1719 1711 1592 1713 1716 1617 1718 1722 1802 1825 1831 1827 1932 1916 1920 2030 1939 2030 1928

Tree=0
num_leaves=16
num_cat=0
split_feature=1 1 7 1 6 1 6 6 10 1 1 4 4 6 4
split_gain=330.226 72.1268 16.5758 8.82306 7.13089 5.80049 5.05217 3.2266 1.41653 0.470554 1.70982 1.70874 0.264764 0.128662 0.100763
threshold=0.93908473849296581 0.76393112540245067 0.12524936348199847 0.98979592323303234 0.20556716620922091 0.35124717652797705 0.055067040026187904 0.029833333566784862 0.38442796468734747 0.082482993602752699 0.18758141994476321 0.22206348925828936 0.35192480683326727 0.013044464867562057 0.42200435698032385
decision_type=2 2 2 2 2 2 2 2 2 2 2 2 2 2 2
left_child=1 2 5 -2 6 9 -3 13 12 -1 11 -11 -9 -7 -10
right_child=3 4 -4 -5 -6 7 -8 8 14 10 -12 -13 -14 -15 -16
leaf_value=-2.1343571689742928 -1.8786243911027607 -2.0107974738709671 -2.0512579560601742 -1.7777931899857573 -1.9736341762250733 -2.0868356634189325 -2.0771704529916488 -2.0909751150831686 -2.1182064926344881 -2.1252898789087795 -2.1349647238488827 -2.0839624924352642 -2.1085917187362337 -2.0760232618385621 -2.1339567603984557
leaf_weight=45.333333671092987 6.3209877014160138 7.1111111640930194 8.790123522281645 5.6296296715736389 7.3086420297622672 5.2345679402351362 5.0370370745658875 5.7283951044082659 9.0864198207855207 5.7283951044082659 14.518518626689909 4.9382716417312622 5.8271605372428894 4.9382716417312622 6.024691402912139
leaf_count=459 64 72 89 57 74 53 51 58 92 58 147 50 59 50 61
internal_value=-2.07944 -2.10172 -2.11668 -1.8286 -2.01294 -2.1221 -2.03767 -2.10563 -2.11475 -2.13058 -2.12341 -2.10684 -2.10046 -2.08112 -2.12513
internal_weight=147.556 135.605 116.148 11.9506 19.4568 107.358 12.1481 36.8395 26.6667 70.5185 25.1852 10.6667 11.5556 10.1728 15.1111
internal_count=1494 1373 1176 121 197 1087 123 373 270 714 255 108 117 103 153
is_linear=0
shrinkage=1


Tree=1
num_leaves=14
num_cat=0
split_feature=1 1 1 7 1 6 6 10 7 3 4 6 4
split_gain=253.964 43.4032 24.4416 15.6145 5.76026 5.11475 3.07039 1.388 0.498425 0.306334 0.249966 0.117206 0.108993
threshold=0.90352505445480358 0.76393112540245067 0.97752526402473461 0.12524936348199847 0.35124717652797705 0.20556716620922091 0.029833333566784862 0.38442796468734747 0.018223971128463749 0.035684442147612579 0.35192480683326727 0.013044464867562057 0.42200435698032385
decision_type=2 2 2 2 2 2 2 2 2 2 2 2 2
left_child=1 3 -2 4 8 -3 11 10 9 -1 -8 -6 -9
right_child=2 5 -4 -5 6 -7 7 12 -10 -11 -12 -13 -14
leaf_value=-0.053907289852391183 0.10105863855081326 0.028011292900248581 0.21771435329013467 0.02620281488701949 -0.0070722186915165956 0.088195354287323405 -0.011066599061725321 -0.037998144781711082 -0.035397920205400342 -0.03643440942866312 -0.02836073240268043 0.0032420787975508802 -0.054114889585278506
leaf_weight=54.513200931251049 8.4412970021367091 9.372487545013426 10.958660073578356 8.984225317835806 5.2045222520828229 6.1055720150470725 5.6771634966135043 8.8152530789375287 7.7091498374938956 5.5509425923228255 5.6960571706295013 4.9514126032590866 5.7729092091321936
leaf_count=575 78 92 91 89 53 57 58 92 81 58 59 50 61
internal_value=-0.000107676 -0.0256648 0.16799 -0.0364626 -0.0419499 0.0524866 -0.0254306 -0.0345296 -0.0506291 -0.0524388 -0.0203355 -0.0015735 -0.0450414
internal_weight=147.753 128.353 19.4 112.875 103.891 15.4781 36.1173 25.9614 67.7733 60.0641 11.3732 10.1559 14.5882
internal_count=1494 1325 169 1176 1087 149 373 270 714 633 117 103 153
is_linear=0
shrinkage=0.05


Tree=2
num_leaves=17
num_cat=0
split_feature=1 1 7 5 1 7 6 7 7 5 10 7 6 1 1 4
split_gain=215.282 41.0936 13.919 8.42458 6.91055 5.04877 3.0485 1.63256 1.58545 1.3818 1.34012 0.977953 0.90791 0.51585 1.79302 1.6969
threshold=0.77664399147033703 0.93908473849296581 0.12524936348199847 0.0052874393295496711 0.35124717652797705 0.2824715524911881 0.034341830760240562 0.0035046099219471221 0.12524936348199847 0.015427555888891222 0.38442796468734747 0.061681136488914497 0.13736264407634738 0.082482993602752699 0.18758141994476321 0.22206348925828936
decision_type=2 2 2 2 2 2 2 2 2 2 2 2 2 2 2 2
left_child=2 3 4 -2 13 -3 7 -6 -5 -4 11 -8 -12 -1 15 -15
right_child=1 5 9 8 6 -7 10 -9 -10 -11 12 -13 -14 14 -16 -17
leaf_value=-0.054166198364264222 0.0093595572561674389 0.13501016480240366 0.038115678106641113 0.0600275405366597 -0.023715975304973103 0.19943768410159413 -0.0034153294325491392 0.013527331169559443 0.10042104785509509 0.00067270955474499263 -0.024169649748837018 -0.034517924545531938 -0.054445531278476823 -0.044467418422255864 -0.054858825997177202 -0.0022779047936279345
leaf_weight=41.668499447405338 6.6877390295267132 9.4292997121810931 5.1826289743185026 7.1629766151308996 4.8565174937248212 7.0214883834123603 5.7967288121581095 7.0778414905071259 5.925144374370575 5.1497068628668785 4.9858735725283614 5.0538479015231133 8.1956279352307302 5.3061198517680186 13.39286397397518 4.7548429518938065
leaf_count=459 62 72 50 66 50 49 60 72 53 50 54 53 89 58 147 50
internal_value=-0.000209039 0.105471 -0.0346777 0.0560761 -0.0403422 0.16385 -0.0224052 -0.00128396 0.0793161 0.0201185 -0.032638 -0.0185414 -0.0436384 -0.0501224 -0.0425263 -0.0252392
internal_weight=147.648 36.2266 111.421 19.7759 101.089 16.4508 35.9664 11.9344 13.0881 10.3323 24.0321 10.8506 13.1815 65.1223 23.4538 10.061
internal_count=1494 302 1192 181 1092 121 378 122 119 100 256 113 143 714 255 108
is_linear=0
shrinkage=0.05


Tree=3
num_leaves=15
num_cat=0
split_feature=1 1 7 1 6 3 7 6 10 7 3 4 4 6
split_gain=185.653 32.3385 14.0112 5.64919 3.91111 4.174 3.22518 2.79129 1.32915 0.540559 0.333799 0.231986 0.132559 0.0800543
threshold=0.76393112540245067 0.93908473849296581 0.12524936348199847 0.35124717652797705 0.20556716620922091 0.030323929153382782 0.2824715524911881 0.029833333566784862 0.38442796468734747 0.018223971128463749 0.035684442147612579 0.35192480683326727 0.42200435698032385 0.013044464867562057
decision_type=2 2 2 2 2 2 2 2 2 2 2 2 2 2
left_child=2 4 3 9 5 -2 -3 13 11 10 -1 -9 -10 -5
right_child=1 6 -4 7 -6 -7 -8 8 12 -11 -12 -13 -14 -15
leaf_value=-0.053140540112672011 0.061095046673769887 0.11704323314781723 0.023156904251448392 -0.00602992645834896 0.075577379505451736 0.0045811548118818426 0.16713991679061951 -0.010107626894935525 -0.036442707520133726 -0.033584870887124703 -0.034837278665608561 -0.027004264895102943 -0.053445183199421799 0.0024215946505345013
leaf_weight=50.123269706964493 6.246412821114065 10.32266302406788 9.2973407730460149 5.1089912280440313 8.8818498402833921 7.2012018263339996 7.9511059373617163 5.5740353539586085 8.2943331450223905 7.2253450006246558 5.2298216596245757 5.4800533130764961 5.3483760207891455 5.0133556202054024
leaf_count=575 57 72 89 53 74 66 49 58 92 81 58 59 61 50
internal_value=-0.000282029 0.0905474 -0.0349468 -0.0405626 0.0494888 0.0314581 0.139904 -0.0240317 -0.0330743 -0.0496277 -0.0515673 -0.0190994 -0.0438124 -0.00137222
internal_weight=147.298 40.6032 106.695 97.3976 22.3295 13.4476 18.2738 34.8191 24.6968 62.5784 55.3531 11.0541 13.6427 10.1223
internal_count=1494 318 1176 1087 197 123 121 373 270 714 633 117 153 103
is_linear=0
shrinkage=0.05


Tree=4
num_leaves=15
num_cat=0
split_feature=1 1 7 1 6 6 6 7 1 1 4 4 4 6
split_gain=162.123 25.0302 13.221 5.60281 4.76619 2.66129 2.65048 1.29972 0.563974 1.87707 1.67794 0.218076 0.140934 0.0729496
threshold=0.76393112540245067 0.97752526402473461 0.12524936348199847 0.35124717652797705 0.25279004871845251 0.057417582720518119 0.029833333566784862 0.022860839962959293 0.082482993602752699 0.18758141994476321 0.22206348925828936 0.35192480683326727 0.42200435698032385 0.013044464867562057
decision_type=2 2 2 2 2 2 2 2 2 2 2 2 2 2
left_child=2 4 3 8 5 -2 13 12 -1 10 -10 -9 -8 -5
right_child=1 -3 -4 6 -6 -7 7 11 9 -11 -12 -13 -14 -15
leaf_value=-0.053478319313303491 0.056156911785010068 0.13219027723666141 0.021621183302193463 -0.0057615797806151283 0.087897578946505267 0.018799602219183326 -0.035684961206071099 -0.0096883841078221622 -0.04309228183988361 -0.054258916239203481 -0.00012835018963855782 -0.02623984497067677 -0.053086642376086124 0.0022985450103623602
leaf_weight=38.271461166441441 10.837805815041071 15.453884020447729 9.4625213593244535 5.0848838537931424 7.055741772055625 9.6429868787527067 8.0551853179931658 5.529954217374323 4.9156529456377047 12.349607355892656 4.5892387330532074 5.3636294230818748 5.1216850057244292 5.0227568596601486
leaf_count=459 91 91 89 53 55 81 92 58 58 147 50 59 61 50
internal_value=-0.000335791 0.0811652 -0.0341954 -0.039866 0.0519736 0.0389877 -0.023316 -0.0323175 -0.0491363 -0.0410959 -0.0230859 -0.0184571 -0.0431743 -0.00128318
internal_weight=146.757 42.9904 103.767 94.3041 27.5365 20.4808 34.1781 24.0705 60.126 21.8545 9.50489 10.8936 13.1769 10.1076
internal_count=1494 318 1176 1087 227 172 373 270 714 255 108 117 153 103
is_linear=0
shrinkage=0.05


Tree=5
num_leaves=15
num_cat=0
split_feature=1 1 7 1 5 6 7 10 7 7 3 3 4 4
split_gain=142.64 20.4316 12.4828 5.5561 3.37145 2.51485 1.84916 1.26983 1.17472 0.584177 0.362124 0.218334 0.149329 0.0735409
threshold=0.76393112540245067 0.93908473849296581 0.12524936348199847 0.35124717652797705 0.0067803622223436841 0.029833333566784862 0.2824715524911881 0.38442796468734747 0.12524936348199847 0.018223971128463749 0.035684442147612579 0.032638465985655792 0.42200435698032385 0.30000998079776769
decision_type=2 2 2 2 2 2 2 2 2 2 2 2 2 2
left_child=2 4 3 9 -2 13 -3 11 -6 10 -1 -7 -9 -5
right_child=1 6 -4 5 8 7 -8 12 -10 -11 -12 -13 -14 -15
leaf_value=-0.052425134362294346 0.015460708724402202 0.092515319212021677 0.020213122864948328 0.002394408460354346 0.039974429079943058 -0.0091060893555600531 0.12871260558489145 -0.034929693820113052 0.071371735810069101 -0.031766845245115444 -0.03325589438364393 -0.025688864076090168 -0.052740588774897193 -0.0057261751288284557
leaf_weight=46.060131162405014 8.7709661126136798 11.79055692255497 9.6184054985642415 5.0386193692684156 8.041650824248789 5.4938762933015841 9.3485261052846909 7.8259291052818281 7.1935638263821593 6.7802060320973387 4.9347230792045584 5.2462557405233383 4.9036976471543312 5.054994635283947
leaf_count=575 75 72 89 52 66 60 49 92 56 81 58 57 61 51
internal_value=-0.000385644 0.0733638 -0.0334539 -0.039176 0.0411995 -0.0226133 0.109289 -0.031567 0.055494 -0.0486556 -0.0507367 -0.0178298 -0.0425381 -0.00119825
internal_weight=146.102 45.1453 100.957 91.3384 24.0062 33.5634 21.1391 23.4698 15.2352 57.7751 50.9949 10.7401 12.7296 10.0936
internal_count=1494 318 1176 1087 197 373 121 270 122 714 633 117 153 103
is_linear=0
shrinkage=0.05


Tree=6
num_leaves=16
num_cat=0
split_feature=1 1 7 1 5 6 7 8 10 6 6 1 1 4 6
split_gain=126.383 16.5711 11.7881 5.50419 2.8033 2.38424 1.68947 1.53773 1.23962 0.721217 0.659117 0.614483 1.9606 1.64458 0.0684552
threshold=0.76393112540245067 0.93908473849296581 0.12524936348199847 0.35124717652797705 0.0067803622223436841 0.029833333566784862 0.14773278683423999 0.3276763409376145 0.38442796468734747 0.13736264407634738 0.16650530695915225 0.082482993602752699 0.18758141994476321 0.22206348925828936 0.013044464867562057
decision_type=2 2 2 2 2 2 2 2 2 2 2 2 2 2 2
left_child=2 4 3 11 -2 14 -6 -3 10 -10 -7 -1 13 -13 -5
right_child=1 7 -4 5 6 8 -8 -9 9 -11 -12 12 -14 -15 -16
leaf_value=-0.05284159826583236 0.014530011831316428 0.081316263251320242 0.018918749809108262 -0.005494329222438657 0.035596422420225975 -0.031696370934889695 0.071521744759961745 0.11333768720107196 -0.025375830825667797 -0.053279425111369731 -0.0052735482367865447 -0.041712942336870985 -0.053714185594717551 0 0.0023405291332092427
leaf_weight=35.131208077073097 8.8699140250682849 11.059061869978907 9.7655672654509527 5.0610668212175351 9.4442770257592183 4.5244830846786517 6.3827051743865004 11.288593187928198 5.3257488533854467 6.9747113138437271 6.0696260407567024 4.5554683133959788 11.385140150785444 4.4401294738054276 5.0195431560277939
leaf_count=459 75 60 89 53 75 50 47 61 65 88 67 58 147 50 50
internal_value=-0.000417002 0.0668561 -0.0327142 -0.0384839 0.0380584 -0.021923 0.0507564 0.098147 -0.0308218 -0.0419032 -0.0172165 -0.0481743 -0.0396662 -0.0209417 -0.00111724
internal_weight=145.297 47.0446 98.2527 88.4871 24.6969 32.9752 15.827 22.3477 22.8946 12.3005 10.5941 55.5119 20.3807 8.9956 10.0806
internal_count=1494 318 1176 1087 197 373 122 121 270 153 117 714 255 108 103
is_linear=0
shrinkage=0.05


Tree=7
num_leaves=15
num_cat=0
split_feature=1 1 7 1 6 6 6 7 6 1 1 4 6 4
split_gain=112.52 13.8786 11.136 5.45041 3.64664 2.25869 2.13608 1.20858 0.725537 0.633581 1.95435 1.66937 0.621482 0.0689131
threshold=0.76393112540245067 0.97752526402473461 0.12524936348199847 0.35124717652797705 0.25279004871845251 0.029833333566784862 0.057417582720518119 0.022860839962959293 0.13736264407634738 0.082482993602752699 0.18758141994476321 0.26439614593982702 0.16650530695915225 0.30000998079776769
decision_type=2 2 2 2 2 2 2 2 2 2 2 2 2 2
left_child=2 4 3 9 6 13 -2 8 -7 -1 11 -11 -9 -5
right_child=1 -3 -4 5 -6 7 -8 12 -10 10 -12 -13 -14 -15
leaf_value=-0.052530367194618302 0.043598442189298592 0.095768018155386839 0.017726046307850084 0.0024246882962347172 0.069487255407468931 -0.024642457412329951 0.011762324369027766 -0.030924096872566444 -0.052970164449234969 -0.041345202275106699 -0.053433136756661608 0.00078612588361549125 -0.0050355127954077178 -0.0054617808193217886
leaf_weight=33.611418761312962 12.012682557106023 18.339282155036926 9.9045402109622938 5.0361563190817815 7.9642650336027137 5.2158464863896388 10.444952331483362 4.4110141247510892 6.6728781163692474 4.4867534190416354 10.885918140411375 4.3535808846354485 6.0441137924790382 5.0317202806472778
leaf_count=459 91 91 89 52 55 65 81 50 88 59 147 49 67 51
internal_value=-0.000443328 0.061263 -0.0319825 -0.0377963 0.0400529 -0.0212467 0.029131 -0.0300837 -0.0412684 -0.0477009 -0.0389963 -0.0202609 -0.0166211 -0.00104002
internal_weight=144.415 48.7612 95.6539 85.7494 30.4219 32.4117 22.4576 22.3439 11.8887 53.3377 19.7263 8.84033 10.4551 10.0679
internal_count=1494 318 1176 1087 227 373 172 270 153 714 255 108 117 103
is_linear=0
shrinkage=0.05


Tree=8
num_leaves=15
num_cat=0
split_feature=1 1 7 1 5 6 7 7 10 6 7 6 3 6
split_gain=100.559 11.9493 10.5216 5.39318 2.30613 2.13818 1.67309 1.32619 1.17709 0.729586 0.662978 0.585371 0.408044 0.0642142
threshold=0.76393112540245067 0.93908473849296581 0.12524936348199847 0.35124717652797705 0.0067803622223436841 0.029833333566784862 0.12524936348199847 0.14773278683423999 0.38442796468734747 0.13736264407634738 0.018223971128463749 0.16650530695915225 0.035684442147612579 0.013044464867562057
decision_type=2 2 2 2 2 2 2 2 2 2 2 2 2 2
left_child=2 4 3 10 -2 13 -3 -6 11 -10 12 -7 -1 -5
right_child=1 6 -4 5 7 8 -8 -9 9 -11 -12 -13 -14 -15
leaf_value=-0.051435570693889078 0.011343596736470408 0.06287058937007467 0.016624643339551291 -0.0052431793534444739 0.03022285126770188 -0.030157526688084163 0.093818241338771022 0.06114094038219875 -0.023918437638909152 -0.052671966025184681 -0.028851790171717486 -0.0048073367800064541 -0.030859184130247665 0.0023702398865499369
leaf_weight=40.579358249902725 9.2188302278518695 9.881406232714653 10.035820513963698 5.0388350486755389 9.9402381777763384 4.3023170754313487 14.393375188112259 6.8724077120423308 5.1107855141162855 6.3830192089080811 6.1431949883699408 6.0198251157999039 4.5272146612405768 5.0172563344240189
leaf_count=575 75 52 89 53 75 50 69 47 65 88 81 67 58 50
internal_value=-0.000467756 0.0563964 -0.0312563 -0.0371104 0.0323538 -0.0205838 0.0817353 0.0434435 -0.0293526 -0.0406344 -0.0472307 -0.0160411 -0.0495538 -0.000966386
internal_weight=143.464 50.3063 93.1576 83.1218 26.0315 31.872 24.2748 16.8126 21.8159 11.4938 51.2498 10.3221 45.1066 10.0561
internal_count=1494 318 1176 1087 197 373 121 122 270 153 714 117 633 103
is_linear=0
shrinkage=0.05


Tree=9
num_leaves=15
num_cat=0
split_feature=1 1 7 1 6 6 6 10 6 1 1 4 4 4
split_gain=90.2255 10.2312 9.94095 5.32958 2.93718 2.0225 1.78591 1.14516 0.733281 0.687729 2.0387 1.62147 0.234908 0.0645561
threshold=0.76393112540245067 0.97752526402473461 0.12524936348199847 0.35124717652797705 0.25279004871845251 0.029833333566784862 0.057417582720518119 0.38442796468734747 0.13736264407634738 0.082482993602752699 0.18758141994476321 0.26439614593982702 0.35192480683326727 0.30000998079776769
decision_type=2 2 2 2 2 2 2 2 2 2 2 2 2 2
left_child=2 4 3 9 6 13 -2 12 -9 -1 11 -11 -7 -5
right_child=1 -3 -4 5 -6 7 -8 8 -10 10 -12 -13 -14 -15
leaf_value=-0.051954135512518124 0.037386743977139356 0.080689914631453613 0.015605541549069298 0.0024437594187586317 0.059742369936628729 -0.0064663690825260056 0.008906808627461054 -0.023204144449580445 -0.052383812334143957 -0.039958156016026224 -0.052958173883151161 0.0027007683082838499 -0.02359238740426638 -0.0052131761167390905
leaf_weight=30.835122793912888 12.669996432960039 19.679429143667221 10.159870646893976 5.0345537662506121 8.5226857811212522 5.20835690200329 10.795822605490683 5.0103774517774564 6.1048101037740707 4.1605699583888072 10.035115927457808 4.2216027975082397 4.9865741804242134 5.0099767297506332
leaf_count=459 91 91 89 52 55 58 81 65 88 59 147 49 59 51
internal_value=-0.000482875 0.0521677 -0.030533 -0.0364225 0.0342682 -0.0199346 0.0245897 -0.0286287 -0.0400005 -0.0467559 -0.0375492 -0.0181054 -0.0154766 -0.000896207
internal_weight=142.435 51.6679 90.7669 80.6071 31.9885 31.3546 23.4658 21.3101 11.1152 49.2524 18.4173 8.38217 10.1949 10.0445
internal_count=1494 318 1176 1087 227 373 172 270 153 714 255 108 117 103
is_linear=0
shrinkage=0.05


Tree=10
num_leaves=15
num_cat=0
split_feature=1 1 1 6 7 1 4 4 7 5 7 10 7 4
split_gain=81.1465 9.50398 9.08912 3.20392 4.49414 3.82403 2.63923 2.46837 3.89222 1.93315 1.26362 1.22544 1.06967 0.424831
threshold=0.76393112540245067 0.37936508655548101 0.93908473849296581 0.15232906490564349 0.12524936348199847 0.67006802558898937 0.31289508938789373 0.43369844555854803 0.017738717608153824 0.0067803622223436841 0.2824715524911881 0.41917945444583898 0.14773278683423999 0.4096194207668305
decision_type=2 2 2 2 2 2 2 2 2 2 2 2 2 2
left_child=1 7 9 4 6 13 -3 -1 -9 -2 -4 -8 -11 -5
right_child=2 3 10 5 -6 -7 11 8 -10 12 -12 -13 -14 -15
leaf_value=-0.049878634102782107 0.0087790539287391622 0.0096978478748591807 0.057867475708212338 -0.053891363012050324 0.043395940399313444 0.0090477622585236634 -0.044222018584689965 -0.045332864865034614 0.014920203230885307 0.025891679019982031 0.083926746084492382 -0.0064778694569567925 0.053008741743226589 -0.028036077061049838
leaf_weight=39.759582825005054 9.5140293985605258 8.3303629755973869 14.410604581236839 6.5318048745393735 4.8536205589771262 4.5162434652447692 5.3303128257393819 6.7133970335125905 4.1917219087481499 10.368595629930498 11.315621927380562 4.2050004899501801 7.2978747338056555 4.0371540859341621
leaf_count=600 75 93 72 78 42 49 62 96 53 75 49 49 47 54
internal_value=-0.000498533 -0.0298174 0.0483971 -0.01063 0.00103845 -0.0284237 -0.0103681 -0.0439868 -0.0217933 0.0277709 0.0698038 -0.028336 0.0376103 -0.0448391
internal_weight=141.376 88.4692 52.9067 37.8045 22.7193 15.0852 17.8657 50.6647 10.9051 27.1805 25.7262 9.53531 17.6665 10.569
internal_count=1494 1176 318 427 246 181 204 749 149 197 121 111 122 132
is_linear=0
shrinkage=0.05


Tree=11
num_leaves=15
num_cat=0
split_feature=1 1 1 6 7 1 4 7 4 6 10 8 10 4
split_gain=73.1847 9.2313 7.9099 2.98694 3.96441 3.64949 2.46906 5.14872 2.44871 1.75476 3.1677 1.19312 1.18077 0.429069
threshold=0.76393112540245067 0.37936508655548101 0.93908473849296581 0.15232906490564349 0.12524936348199847 0.67006802558898937 0.43369844555854803 0.018223971128463749 0.31289508938789373 0.20556716620922091 0.23371426016092303 0.3276763409376145 0.41917945444583898 0.4096194207668305
decision_type=2 2 2 2 2 2 2 2 2 2 2 2 2 2
left_child=1 6 9 4 8 13 -1 -8 -3 10 -2 -4 -10 -5
right_child=2 3 11 5 -6 -7 7 -9 12 -11 -12 -13 -14 -15
leaf_value=-0.049514175767755381 -0.0098312606221456246 0.009146662323579054 0.05181509009841706 -0.053542317307892752 0.039978348509017408 0.0085441195243354581 -0.04566705785934333 0.026592347589657769 -0.043596114248286938 0.041027449521285293 0.034209104267719261 0.076515128546713732 -0.0061938546353473558 -0.027296694964810009
leaf_weight=38.09259270131588 7.0627850815653863 8.3950528055429512 12.95588241517544 6.253362685441969 5.0094428211450568 4.5483800768852225 7.1377238221466524 3.565349355340004 5.1427116468548757 11.539583921432493 9.0524164289236051 13.375084221363066 4.183086633682251 3.9442832171916962
leaf_count=600 51 93 60 78 42 49 106 43 62 74 72 61 49 54
internal_value=-0.000501195 -0.0290963 0.0450721 -0.0102185 0.000958279 -0.0276743 -0.0434421 -0.0211102 -0.00995403 0.0259494 0.0146577 0.0647929 -0.0275935 -0.0442401
internal_weight=140.258 86.272 53.9858 37.4763 22.7303 14.746 48.7957 10.7031 17.7209 27.6548 16.1152 26.331 9.3258 10.1976
internal_count=1494 1176 318 427 246 181 749 149 204 197 123 121 111 132
is_linear=0
shrinkage=0.05


Tree=12
num_leaves=14
num_cat=0
split_feature=1 1 1 6 7 1 4 7 4 5 6 10 4
split_gain=66.0781 8.95824 7.08317 2.78324 3.5063 3.4824 2.46626 4.82685 2.27156 2.2486 2.7447 1.13686 0.433383
threshold=0.76393112540245067 0.37936508655548101 0.97752526402473461 0.15232906490564349 0.12524936348199847 0.67006802558898937 0.43369844555854803 0.018223971128463749 0.31289508938789373 0.35369960963726049 0.051247550174593932 0.41917945444583898 0.4096194207668305
decision_type=2 2 2 2 2 2 2 2 2 2 2 2 2
left_child=1 6 9 4 8 12 -1 -8 -3 10 -2 -10 -5
right_child=2 3 -4 5 -6 -7 7 -9 11 -11 -12 -13 -14
leaf_value=-0.049152529006276841 0.037430911705647774 0.0086307418222980464 0.064976832091604583 -0.053206302182644161 0.036935213617496992 0.0080717542451290199 -0.04516371628646864 0.024764470496993124 -0.042971468447183719 0.042904418138715705 0 -0.0059210053742954254 -0.026563950895720313
leaf_weight=36.495419811457396 8.4734634011983889 8.4563933834433609 21.04530343413353 5.9856165647506696 5.1553685367107382 4.5788721665740004 6.8644676543772203 3.642401821911335 4.9626356363296491 14.162832841277121 11.313073918223379 4.162212073802948 3.8554751724004745
leaf_count=600 58 93 91 78 42 49 106 43 62 92 77 49 54
internal_value=-0.000507143 -0.0283834 0.0420354 -0.00982186 0.000883262 -0.0269353 -0.0428986 -0.0204455 -0.00955461 0.0275181 0.016093 -0.0268607 -0.0436437
internal_weight=139.154 84.1589 54.9947 37.1566 22.7366 14.42 47.0023 10.5069 17.5812 33.9494 19.7865 9.12485 9.84109
internal_count=1494 1176 318 427 246 181 749 149 204 227 135 111 132
is_linear=0
shrinkage=0.05


Tree=13
num_leaves=15
num_cat=0
split_feature=1 1 1 6 1 1 7 4 4 7 6 3 7 1
split_gain=59.7565 8.68445 6.34156 2.59207 3.47525 3.32232 2.97355 6.34057 2.46124 4.5287 1.57539 2.9431 1.17664 0.45806
threshold=0.76393112540245067 0.37936508655548101 0.93908473849296581 0.15232906490564349 0.69059830904006969 0.67006802558898937 0.0035046099219471221 0.31289508938789373 0.43369844555854803 0.018223971128463749 0.20556716620922091 0.030323929153382782 0.2824715524911881 0.4727891236543656
decision_type=2 2 2 2 2 2 2 2 2 2 2 2 2 2
left_child=1 8 10 4 6 13 -3 -8 -1 -10 11 -2 -4 -5
right_child=2 3 12 5 -6 -7 7 -9 9 -11 -12 -13 -14 -15
leaf_value=-0.048792806252162396 0.034012427249009165 -0.018205040338110542 0.045884257930914808 -0.025092921717477842 -0.035250476670058914 0.0076283707224363579 0.070863417104371038 -0.0023503661078363262 -0.044658957687221494 0.023097752344084958 0.036406106300999989 -0.007554660080129047 0.069675348020687075 -0.052717739141815489
leaf_weight=34.965749349445105 7.8746239170432153 5.5317624062299791 15.411650791764259 3.6314607486128789 5.0220496207475653 4.6078069582581511 4.622583754360674 7.5624837949872017 6.6027338206768018 3.7152417302131653 11.984645843505858 8.7607370615005475 11.872321218252182 5.8674264401197433
leaf_count=600 57 62 72 49 51 49 48 85 106 43 74 66 49 83
internal_value=-0.000512145 -0.0276776 0.0392859 -0.00943934 0.000812983 -0.0262066 0.0114567 0.0253681 -0.0423537 -0.019794 0.0224321 0.0119087 0.0566359 -0.043049
internal_weight=138.033 82.1293 55.904 36.8456 22.7389 14.1067 17.7168 12.1851 45.2837 10.318 28.62 16.6354 27.284 9.49889
internal_count=1494 1176 318 427 246 181 195 133 749 149 197 123 121 132
is_linear=0
shrinkage=0.05


Tree=14
num_leaves=15
num_cat=0
split_feature=1 1 7 1 6 4 7 6 1 1 1 4 4 8
split_gain=54.1565 8.40845 6.09853 6.41783 5.91179 2.45398 4.25178 2.40849 3.19264 3.16933 2.69493 2.47795 0.466036 0.00947108
threshold=0.76393112540245067 0.37936508655548101 0.038092413917183883 0.93908473849296581 0.20556716620922091 0.43369844555854803 0.018223971128463749 0.15232906490564349 0.69059830904006969 0.67006802558898937 0.59137290716171276 0.27441242337226873 0.4096194207668305 0.33306992053985601
decision_type=2 2 2 2 2 2 2 2 2 2 2 2 2 2
left_child=1 5 -2 4 -4 13 -7 8 10 12 11 -3 -9 -1
right_child=2 7 3 -5 -6 6 -8 9 -10 -11 -12 -13 -14 -15
leaf_value=-0.04959632073241 0.010388254059058591 0.022384103715279283 0.0017285271723302216 0.066360155906981244 0.058049399991076125 -0.044152071261879228 0.021573264939447483 -0.052639387184841228 -0.03444318943683191 0.0072118772414253105 0.036676647291016579 -0.023847203288241803 -0.024642623573332738 -0.033048562496542574
leaf_weight=30.639558967202902 16.177463032305241 5.0052722617983871 11.238508678972723 21.156730785965919 8.1056995689868909 6.3521286696195585 3.784119039773941 5.5326021164655668 4.88853945583105 4.6352668404579154 6.3559129089117041 6.520649753510952 3.6369432136416435 2.8617215789854518
leaf_count=551 97 53 82 91 48 106 43 78 51 49 67 75 54 49
internal_value=-0.000518163 -0.0269772 0.0368209 0.0472042 0.0257627 -0.0418069 -0.0191556 -0.00908193 0.00071503 -0.0254901 0.0107427 -0.00332077 -0.04246 -0.0484342
internal_weight=136.891 80.2127 56.6784 40.5009 19.3442 43.6375 10.1362 36.5752 22.7704 13.8048 17.8818 11.5259 9.16955 33.5013
internal_count=1494 1176 318 221 130 749 149 427 246 181 195 128 132 600
is_linear=0
shrinkage=0.05


Tree=15
num_leaves=14
num_cat=0
split_feature=1 1 7 1 6 4 7 7 6 5 3 5 8
split_gain=49.1467 8.14185 5.35751 5.69803 5.08155 2.44506 3.99397 2.39427 1.9186 1.1439 1.22619 0.805516 0.03808
threshold=0.76393112540245067 0.37936508655548101 0.038092413917183883 0.93908473849296581 0.20556716620922091 0.43369844555854803 0.018223971128463749 0.12524936348199847 0.029833333566784862 0.23525204509496692 0.02810644451528788 0.38795645534992224 0.33311492204666143
decision_type=2 2 2 2 2 2 2 2 2 2 2 2 2
left_child=1 5 -2 4 -4 12 -7 8 -3 10 -10 -11 -1
right_child=2 7 3 -5 -6 6 -8 -9 9 11 -12 -13 -14
leaf_value=-0.049306083018637092 0.0098177304021149353 0.0015174601974359417 0.0016409427982386892 0.062147275268835935 0.053410467375171605 -0.043642411765979043 0.020174953475805914 0.013144389466317892 -0.052410428930430186 0.0030309785807798666 -0.013376575226499876 -0.027163529578931669 -0.031520778809203731
leaf_weight=29.425007693469524 16.26517192274332 9.4518328011035937 11.251436315476896 21.459885761141777 8.3707091808319074 6.1122611537575704 3.8492668718099594 9.0577329993247968 5.782484073191883 4.2558234147727472 3.8072950541973114 3.9511125460267067 2.6817749813199034
leaf_count=552 97 98 82 91 48 106 43 78 84 59 53 55 48
internal_value=-0.000521432 -0.0262815 0.0345815 0.0442169 0.0241379 -0.0412606 -0.0185302 -0.00872219 -0.0161952 -0.0258377 -0.0377274 -0.0110558 -0.0480783
internal_weight=135.722 78.3746 57.3472 41.082 19.6221 42.0683 9.96153 36.3063 27.2485 17.7967 9.58978 8.20694 32.1068
internal_count=1494 1176 318 221 130 749 149 427 349 251 137 114 600
is_linear=0
shrinkage=0.05


Tree=16
num_leaves=15
num_cat=0
split_feature=1 1 7 1 6 4 7 6 7 1 4 10 1 8
split_gain=44.6449 7.87903 4.72756 5.08591 4.3903 2.4339 3.75344 2.1992 3.10168 3.04191 1.79979 1.10387 0.49713 0.045171
threshold=0.76393112540245067 0.37936508655548101 0.038092413917183883 0.93908473849296581 0.20556716620922091 0.43369844555854803 0.018223971128463749 0.15232906490564349 0.12524936348199847 0.67006802558898937 0.31289508938789373 0.41917945444583898 0.4727891236543656 0.33311492204666143
decision_type=2 2 2 2 2 2 2 2 2 2 2 2 2 2
left_child=1 5 -2 4 -4 13 -7 8 10 12 -3 -12 -9 -1
right_child=2 7 3 -5 -6 6 -8 9 -10 -11 11 -13 -14 -15
leaf_value=-0.048993980134015673 0.0092816401636076629 0.006509752185834855 0.0015578887027786592 0.058364862976020698 0.04932097843189101 -0.043129390716007694 0.018889088561177811 -0.02285842923262163 0.034292047034119352 0.0074467140346613685 -0.041754937085135807 -0.004499969139385186 -0.052118836182174812 -0.030836855197034371
leaf_weight=28.164383441209797 16.347973115742207 8.7114942520856911 11.263714052736761 21.707813769578934 8.6132527291774732 5.8827450275421125 3.9109031856060028 3.4035945832729322 5.2858602106571189 4.615806780755519 4.6271612979471666 4.0532296486198902 5.3345041535794735 2.6082938984036437
leaf_count=552 97 93 82 91 48 106 43 49 42 49 62 49 83 48
internal_value=-0.000519007 -0.0255913 0.032532 0.0415082 0.0226486 -0.0407111 -0.0179175 -0.00836464 0.000921122 -0.0243951 -0.00907341 -0.0251779 -0.0416749 -0.0477218
internal_weight=134.531 76.598 57.9328 41.5848 19.877 40.5663 9.79365 36.0317 22.6777 13.3539 17.3919 8.68039 8.7381 30.7727
internal_count=1494 1176 318 221 130 749 149 427 246 181 204 111 132 600
is_linear=0
shrinkage=0.05


Tree=17
num_leaves=15
num_cat=0
split_feature=1 1 1 4 7 6 7 1 7 4 3 3 5 8
split_gain=40.6047 7.60898 4.25464 2.42054 3.52863 2.04338 3.06443 3.02432 2.71357 4.73819 1.63468 4.95251 1.21862 0.0630016
threshold=0.76393112540245067 0.37936508655548101 0.97752526402473461 0.43369844555854803 0.018223971128463749 0.15232906490564349 0.038092413917183883 0.69059830904006969 0.0035046099219471221 0.31289508938789373 0.010812807828187944 0.039953332394361503 0.25662979483604437 0.33315436542034155
decision_type=2 2 2 2 2 2 2 2 2 2 2 2 2 2
left_child=1 3 10 13 -5 7 -7 8 -3 -10 -2 -12 -13 -1
right_child=2 5 -4 4 -6 6 -8 -9 9 -11 11 12 -14 -15
leaf_value=-0.048690790519719002 0.0044608443738269957 -0.017993043767907807 0.048052544435796145 -0.042612470006173193 0.017703869050467377 -0.051575174125898432 -0.002093871294622645 -0.03387481972608538 0.060703099597257351 -0.001270712154226237 0.059759928331567291 -0.0027910754765002556 0.024157166525737146 -0.029688033365252109
leaf_weight=27.011330161243681 12.34207835793495 5.5001459494233194 22.154214382171631 5.6632001362740976 3.9692313149571419 5.5520354062318784 7.531262643635273 4.7690229974687091 5.0004020035266858 7.4074644222855568 7.8861292004585293 7.7183124199509647 8.3436708003282529 2.4853066094219676
leaf_count=553 77 62 91 106 43 97 84 51 48 85 46 54 50 47
internal_value=-0.000518639 -0.0249166 0.0306482 -0.0401582 -0.0173177 -0.00803434 -0.023703 0.000850393 0.0105124 0.0235908 0.019783 0.0274202 0.0109611 -0.0473643
internal_weight=133.334 74.8894 58.4444 39.1291 9.63243 35.7603 13.0833 22.677 17.908 12.4079 36.2902 23.9481 16.062 29.4966
internal_count=1494 1176 318 749 149 427 181 246 195 133 227 150 104 600
is_linear=0
shrinkage=0.05


Tree=18
num_leaves=16
num_cat=0
split_feature=1 1 4 4 7 5 8 1 4 4 7 6 1 3 7
split_gain=37.1366 8.02323 4.3068 4.87159 3.90909 3.63021 5.08881 2.77653 2.56224 1.87148 2.27194 1.58376 1.04139 0.474743 0.222682
threshold=0.59137290716171276 0.90352505445480358 0.19662392884492877 0.35192480683326727 0.14037310332059863 0.36554911732673651 0.33228676021099096 0.082482993602752699 0.43976366519927984 0.43709889054298406 0.018223971128463749 0.062375828623771674 0.49489796161651617 0.056887868791818626 0.0015366366133093836
decision_type=2 2 2 2 2 2 2 2 2 2 2 2 2 2 2
left_child=4 2 -2 -4 7 6 -3 -1 -5 12 -11 -10 13 14 -9
right_child=1 5 3 8 -6 -7 -8 9 11 10 -12 -13 -14 -15 -16
leaf_value=-0.049752788649502055 -0.026375349123962655 0.0032796981657922278 0.04092000848817532 -0.01696271263913043 0.014093580675483953 0.060099181623230774 0.050640991424383511 -0.032627099190360338 0.037336272297574441 -0.026244378701048239 0.022910513457397884 0 -0.011513105399358835 -0.018204051424467634 -0.052208985247069677
leaf_weight=21.192615296691656 7.8607894927263251 11.997069835662844 11.305177815258501 10.584766712039711 4.0783870294690123 13.214493364095686 11.113370522856711 5.2420650869607979 5.1312588416039926 5.7595709934830648 3.7558326609432697 5.8696533776819706 4.73021276295185 2.9532841444015494 7.4388700537383556
leaf_count=459 70 57 94 86 36 61 51 100 47 98 47 55 61 44 128
internal_value=-0.0005248 0.0218403 0.006434 0.014483 -0.0318548 0.0389217 0.0263903 -0.0356421 0.000281667 -0.0253346 -0.00628592 0.0173275 -0.0339167 -0.040261 -0.044824
internal_weight=132.227 77.0766 40.7516 32.8909 55.1508 36.3249 23.1104 51.0725 21.5857 29.8798 9.5154 11.0009 20.3644 15.6342 12.6809
internal_count=1494 521 352 282 973 169 108 937 188 478 145 102 333 272 228
is_linear=0
shrinkage=0.05


Tree=19
num_leaves=16
num_cat=0
split_feature=1 1 4 4 7 5 8 1 4 4 7 6 1 1 5
split_gain=34.0846 7.16449 3.90654 4.23689 3.71056 3.16823 4.50851 2.78033 2.31094 1.79391 2.14191 1.50952 1.01669 0.240846 0.594316
threshold=0.59137290716171276 0.90352505445480358 0.19662392884492877 0.35192480683326727 0.14037310332059863 0.36554911732673651 0.33228676021099096 0.082482993602752699 0.43976366519927984 0.43709889054298406 0.011888714972883465 0.062226306647062309 0.49489796161651617 0.18758141994476321 0.33126182854175573
decision_type=2 2 2 2 2 2 2 2 2 2 2 2 2 2 2
left_child=4 2 -2 -4 7 6 -3 -1 -5 12 -11 -10 13 -9 -15
right_child=1 5 3 8 -6 -7 -8 9 11 10 -12 -13 -14 14 -16
leaf_value=-0.049498709772084738 -0.025547627669883385 0.0031140613313681339 0.03782247136900202 -0.016310796482523982 0.01326881090170734 0.056313645018385421 0.04758569705096545 -0.024092929564744646 0.035649639463061843 -0.036772259664757792 0.011636968145859912 -0.0002421396590394872 -0.011053373692845026 -0.052334399739871779 -0.023102917514022485
leaf_weight=20.260421182960272 7.7166646644473067 12.008451230823995 11.619196154177187 10.46455653011799 4.1204005405306807 13.399378463625906 11.238614350557325 3.7377500496804776 5.2045172527432424 3.5085264518856984 5.9480997584760189 5.9346898533403873 4.6859182901680461 7.8901744671165925 3.4826130904257298
leaf_count=459 70 57 94 86 36 61 51 75 46 61 84 56 61 140 57
internal_value=-0.000526045 0.020613 0.00606434 0.0136115 -0.0311799 0.0366692 0.0249394 -0.0349989 0.000245421 -0.0246518 -0.00599711 0.0162505 -0.0332367 -0.0396694 -0.0440982
internal_weight=131.22 77.5861 40.9396 33.223 53.6339 36.6464 23.2471 49.5135 21.6038 29.2531 9.45663 11.1392 19.7965 15.1105 11.3728
internal_count=1494 521 352 282 973 169 108 937 188 478 145 102 333 272 197
is_linear=0
shrinkage=0.05


Tree=20
num_leaves=16
num_cat=0
split_feature=1 1 4 4 7 1 5 8 4 4 7 6 1 3 7
split_gain=31.2969 6.41255 3.54469 3.69807 3.52129 2.78132 2.77813 4.00475 2.08385 1.71657 1.99398 1.31959 0.991005 0.501074 0.252839
threshold=0.59137290716171276 0.90352505445480358 0.19662392884492877 0.35192480683326727 0.14037310332059863 0.082482993602752699 0.36554911732673651 0.33228676021099096 0.43976366519927984 0.43709889054298406 0.011888714972883465 0.062226306647062309 0.49489796161651617 0.056887868791818626 0.0015366366133093836
decision_type=2 2 2 2 2 2 2 2 2 2 2 2 2 2 2
left_child=4 2 -2 -4 5 -1 7 -3 -5 12 -11 -10 13 14 -7
right_child=1 6 3 8 -6 9 -8 -9 11 10 -12 -13 -14 -15 -16
leaf_value=-0.049245435338936668 -0.024735402299730074 0.002956944714942223 0.035046384252548322 -0.015678105952145471 0.012500161816107148 -0.031052881800802592 0.052883862791938345 0.044788665557335683 0.033057058982363011 -0.036121314256999597 0.010957050559927777 -0.0002302718521736301 -0.010608296696621326 -0.016252290808746368 -0.051801984963054486
leaf_weight=19.3694450519979 7.5784098356962195 12.019220948219301 11.912612717598675 10.349540729075672 4.1601752191781989 4.9161466136574798 13.557191506028174 11.346768423914908 5.3363553211092931 3.397799074649809 6.0060072205960751 5.9337152019143105 4.6436890102922908 2.8144398480653754 6.8811601549386978
leaf_count=459 70 57 94 86 36 100 61 51 46 61 84 56 61 44 128
internal_value=-0.000527416 0.0194708 0.00571604 0.0127999 -0.0305048 -0.034352 0.0345936 0.0235882 0.000206795 -0.0239761 -0.00572836 0.0152436 -0.0325538 -0.0390688 -0.0439094
internal_weight=130.223 78.0338 41.1106 33.5322 52.1889 48.0287 36.9232 23.366 21.6196 28.6592 9.40381 11.2701 19.2554 14.6117 11.7973
internal_count=1494 521 352 282 973 937 169 108 188 478 145 102 333 272 228
is_linear=0
shrinkage=0.05


Tree=21
num_leaves=16
num_cat=0
split_feature=1 4 4 6 6 7 1 10 6 4 7 1 3 3 7
split_gain=28.7494 6.1943 6.02985 3.81116 5.22985 3.34119 2.77826 2.65275 2.66142 1.64128 1.85983 0.965259 0.496633 0.316046 0.261409
threshold=0.59137290716171276 0.48945853114128118 0.19662392884492877 0.23450215905904773 0.15232906490564349 0.14037310332059863 0.082482993602752699 0.19752271473407748 0.033156864345073707 0.43709889054298406 0.018223971128463749 0.49489796161651617 0.056887868791818626 0.022150656208395961 0.0015366366133093836
decision_type=2 2 2 2 2 2 2 2 2 2 2 2 2 2 2
left_child=5 2 -2 4 7 6 -1 -4 -9 11 -11 12 14 -5 -8
right_child=1 -3 3 13 -6 -7 9 8 -10 10 -12 -13 -14 -15 -16
leaf_value=-0.048992355449790005 -0.0099974387229232204 -0.022037358131495523 0.01430139595922616 0.03901502748950969 -0.0090417086177582689 0.011782893949133138 -0.030361106628949149 0.067189107082063659 0.025360211166228455 -0.024542369966268008 0.019920243732682582 -0.010177687752228021 -0.015680601348600356 0.057101805144088108 -0.051572715336046494
leaf_weight=18.518081083893776 11.179770335555075 8.2616642341017705 13.525128245353701 8.9288324676454085 10.545120399445294 4.1978383213281623 4.7824630998075062 7.5450464040040996 9.0829399228095991 5.4552618823945505 3.8976020850241184 4.6034330353140822 2.775845017284154 9.3571797385811788 6.5743620209395885
leaf_count=459 88 63 78 47 75 36 100 47 69 98 47 61 44 54 128
internal_value=-0.000527547 0.0184067 0.0232646 0.0296599 0.020838 -0.0298326 -0.0337051 0.0314481 0.0449274 -0.0233114 -0.00546989 -0.0318759 -0.0384711 0.0488024 -0.0434197
internal_weight=129.231 78.4257 70.164 58.9842 40.6982 50.8049 46.607 30.1531 16.628 28.089 9.35286 18.7361 14.1327 18.286 11.3568
internal_count=1494 521 458 370 269 973 937 194 116 478 145 333 272 101 228
is_linear=0
shrinkage=0.05


Tree=22
num_leaves=17
num_cat=0
split_feature=1 1 1 4 4 5 8 4 3 4 6 5 6 6 1 5
split_gain=26.3989 5.64816 3.25939 2.94024 3.01394 2.359 3.65861 1.95672 1.48516 1.62744 2.26511 2.93489 1.15694 1.0547 0.951627 0.119412
threshold=0.59137290716171276 0.90352505445480358 0.082482993602752699 0.19662392884492877 0.35192480683326727 0.36554911732673651 0.33228676021099096 0.43976366519927984 0.062297865748405463 0.48945853114128118 0.20782892405986789 0.33126182854175573 0.062226306647062309 0.02260505594313145 0.38705936074256903 0.29205246269702917
decision_type=2 2 2 2 2 2 2 2 2 2 2 2 2 2 2 2
left_child=2 3 15 -2 -5 6 -3 -6 9 10 11 13 -9 14 -4 -1
right_child=1 5 8 4 7 -7 -8 12 -10 -11 -12 -13 -14 -15 -16 -17
leaf_value=-0.04836533508526128 -0.023613747953267962 0.0017067218931037028 -0.026375574055609377 0.030402147403828642 -0.015981205366434634 0.048274984464978382 0.041551329236365814 0.030218304726450391 -0.043282767273194134 0.013339831565608314 -0.051193193307790243 0.019928360404678835 -0.00066422745927262414 -0.04216321708478965 0.0094665215630232811 -0.025825154292221514
leaf_weight=16.040525358170274 7.3926374204456797 12.086080707609655 4.1189541928470259 12.429064959287642 10.397555723786356 13.728167220950125 11.425602585077284 5.4859805628657323 5.3464753031730643 4.3353478200733653 4.4311945997178546 5.1984645612537852 5.9591137655079365 4.9774972796440125 2.9658364206552505 2.0638968758285037
leaf_count=419 70 57 95 94 86 61 51 46 82 65 82 70 56 85 32 43
internal_value=-0.000525851 0.017382 -0.0291622 0.00457308 0.0108497 0.0315282 0.0213751 -0.000136235 -0.0190408 -0.0137231 -0.0193978 -0.0106993 0.0138391 -0.0243653 -0.0107525 -0.0462264
internal_weight=128.382 78.9042 49.4782 41.6644 34.2717 37.2399 23.5117 21.8427 31.3738 26.0273 21.6919 17.2608 11.4451 12.0623 7.08479 18.1044
internal_count=1494 521 973 352 282 169 108 188 511 429 364 282 102 212 127 462
is_linear=0
shrinkage=0.05


Tree=23
num_leaves=17
num_cat=0
split_feature=1 4 1 4 1 3 6 3 10 4 6 6 10 1 1 5
split_gain=24.259 5.67661 5.20722 3.57325 3.21842 1.98598 2.14231 1.43084 1.61032 1.52486 4.47373 1.13315 1.05445 1.4296 1.03694 0.127176
threshold=0.59137290716171276 0.48945853114128118 0.90352505445480358 0.19662392884492877 0.082482993602752699 0.012244606856256725 0.20922948420047763 0.062297865748405463 0.45065031945705419 0.43369844555854803 0.082395985722541823 0.23450215905904773 0.65817394852638256 0.38705936074256903 0.79269602894783031 0.29205246269702917
decision_type=2 2 2 2 2 2 2 2 2 2 2 2 2 2 2 2
left_child=4 2 3 -2 15 14 -7 8 9 10 -6 -4 -10 -14 -5 -1
right_child=1 -3 11 5 7 6 -8 -9 12 -11 -12 -13 13 -15 -16 -17
leaf_value=-0.048098240339276795 -0.022839153015589652 -0.022267292332761462 0.028019625017537044 0.014833360859545442 0.017303204759570465 0.011794081618383349 0.047895705671540251 -0.042700261318488239 -0.050428539204969203 0.016098698306800767 -0.051294024655957053 0.048959725487587258 -0.036177995293019523 0.0086965658687908984 -0.013807110222068725 -0.02513848868157606
leaf_weight=15.341370336711408 7.2678157165646544 8.267587445676325 21.606471210718155 6.1488874517381209 4.7313902862370067 11.089983806014063 7.0473130419850341 5.1546880789101115 3.6387269347906095 6.1824378781020632 4.4697430618107319 11.48856361210346 3.6449673287570477 3.0469272434711456 6.2860072925686836 2.0181688778102389
leaf_count=419 70 63 98 63 70 90 48 82 73 77 81 48 89 39 41 43
internal_value=-0.000524135 0.0164535 0.0210618 0.00818519 -0.0284852 0.0157739 0.0262814 -0.018428 -0.0132222 -0.00256161 -0.0156757 0.035565 -0.0284409 -0.0151825 0 -0.0458747
internal_weight=127.431 79.2026 70.935 37.84 48.2284 30.5722 18.1373 30.8689 25.7142 15.3836 9.20113 33.095 10.3306 6.69189 12.4349 17.3595
internal_count=1494 521 458 312 973 242 138 511 429 228 151 146 201 128 104 462
is_linear=0
shrinkage=0.05


Tree=24
num_leaves=17
num_cat=0
split_feature=1 1 7 1 6 6 10 8 3 3 3 1 10 5 1 1
split_gain=22.3291 5.41608 3.29408 2.90566 2.53138 2.41832 1.86917 1.42053 2.63445 2.70215 1.21939 0.857986 0.855329 0.711462 0.173508 2.30797
threshold=0.73499399423599254 0.35124717652797705 0.038092413917183883 0.93908473849296581 0.20556716620922091 0.20741260796785357 0.40997166931629186 0.33287842571735388 0.031227374449372295 0.016275659203529361 0.02810644451528788 0.93257576227188121 0.32745434343814855 0.33126182854175573 0.11804267391562463 0.17052154242992404
decision_type=2 2 2 2 2 2 2 2 2 2 2 2 2 2 2 2
left_child=1 5 11 4 -4 14 -7 8 9 12 -9 -2 -3 -10 -1 -16
right_child=2 7 3 -5 -6 6 -8 10 13 -11 -12 -13 -14 -15 15 -17
leaf_value=-0.048269407101964819 -0.0078938044962955419 0.0015406568013146072 0 0.040756024532684329 0.033973847728420922 0.025981470693413514 -0.032338570973322427 -0.0078323299177240589 -0.052798895525919758 0.029780548866759762 0.026144173521391513 0.013998073156236704 -0.025748308995970304 -0.020265127291307306 0.0031978145105743491 -0.05152054040852886
leaf_weight=15.68589978292585 9.4370501562953013 4.1971241720020789 12.944627054035665 22.301203072071075 9.6751198321580869 2.3725557550787917 2.9137329533696175 5.398546773940323 3.9980102069675905 4.5724958442151538 4.7527844645082951 8.1791099458932859 7.1369582675397396 4.4103771038353443 2.5776127353310567 5.9018815644085407
leaf_count=434 67 45 89 91 51 36 71 73 52 56 56 38 98 54 54 129
internal_value=-0.00052389 -0.0213282 0.0206601 0.0278422 0.0147668 -0.0370826 -0.00523908 -0.00765305 -0.0142676 -0.00190981 0.00768735 0.00200992 -0.0152805 -0.0367606 -0.0437921 -0.034461
internal_weight=126.455 63.918 62.5371 44.9209 22.6197 29.4517 5.28629 34.4663 24.315 15.9066 10.1513 17.6162 11.3341 8.40839 24.1654 8.47949
internal_count=1494 1158 336 231 140 724 107 434 305 199 129 105 143 106 617 183
is_linear=0
shrinkage=0.05


Tree=25
num_leaves=18
num_cat=0
split_feature=1 4 4 1 6 6 10 6 3 10 1 4 6 10 1 4 6
split_gain=20.5751 4.95437 4.25655 3.11956 2.83435 4.53348 2.31591 2.19303 1.38539 1.46624 1.55056 2.77951 2.98783 1.06798 1.3589 0.578257 0.21948
threshold=0.59137290716171276 0.48945853114128118 0.19662392884492877 0.082482993602752699 0.23450215905904773 0.15232906490564349 0.19752271473407748 0.033156864345073707 0.062297865748405463 0.45065031945705419 0.4727891236543656 0.43369844555854803 0.082395985722541823 0.65817394852638256 0.38705936074256903 0.36494264006614691 0.19854915887117389
decision_type=2 2 2 2 2 2 2 2 2 2 2 2 2 2 2 2 2
left_child=3 2 -2 16 5 6 -4 -8 9 10 11 12 -5 -11 -15 -6 -1
right_child=1 -3 4 8 15 -7 7 -9 -10 13 -12 -13 -14 14 -16 -17 -18
leaf_value=-0.047685818870188863 -0.009237267310279882 -0.021597102991429518 0.010523998620028977 0.017296674366083151 0.05079054524577005 -0.010921222682602458 0.058438356347970455 0.021148046783355013 -0.041838727583565549 -0.050025160485923627 -0.028322328486954231 0.035789089565777248 -0.049911044516033981 -0.03509369560894153 0.0093853259571355686 0.030190990946577234 -0.020724512924841634
leaf_weight=14.208877447992561 10.919792741537092 8.1609547547996026 13.710941053926947 3.3452927842736297 9.0437939986586589 10.685717310756443 7.887257099151614 9.3378482088446599 4.8816980496048918 3.4001269191503507 4.065553978085517 4.8243851996958256 2.9820703640580177 3.4354313462972641 3.0165045410394669 9.7472434453666192 1.7639585956931103
leaf_count=419 88 63 78 53 53 75 47 69 82 73 57 59 59 89 39 48 43
internal_value=-0.00051676 0.0148306 0.0190926 -0.0271659 0.0243027 0.0167516 0.0264757 0.0387504 -0.0172813 -0.0121534 -0.0020223 0.00728794 -0.013884 -0.0271216 -0.0137092 0.0405862 -0.0451669
internal_weight=125.417 79.4935 71.3326 45.9239 60.4128 41.6218 30.936 17.2251 29.9511 25.0694 15.2173 11.1517 6.32736 9.85206 6.45194 18.791 15.9728
internal_count=1494 521 458 973 370 269 194 116 511 429 228 171 112 201 128 101 462
is_linear=0
shrinkage=0.05


Tree=26
num_leaves=17
num_cat=0
split_feature=1 1 7 1 6 6 7 1 6 6 7 5 6 1 1 1
split_gain=18.9558 4.9835 2.76395 2.60156 2.36557 2.20959 1.65148 1.4256 2.66537 3.36947 1.82842 1.77793 1.98734 0.766127 0.181951 2.30018
threshold=0.73499399423599254 0.35124717652797705 0.038092413917183883 0.93908473849296581 0.20741260796785357 0.20556716620922091 0.017738717608153824 0.70590251684188854 0.17259570956230166 0.054347466677427299 0.038092413917183883 0.00047541964158881461 0.029507969506084922 0.93257576227188121 0.11804267391562463 0.17052154242992404
decision_type=2 2 2 2 2 2 2 2 2 2 2 2 2 2 2 2
left_child=1 4 13 5 14 -4 -6 8 9 11 -10 -3 -13 -2 -1 -16
right_child=2 7 3 -5 6 -7 -8 -9 10 -11 -12 12 -14 -15 15 -17
leaf_value=-0.047757522714522611 -0.0077363461350991236 0.017203065100956143 -0.00010518767595264544 0.037557709250757063 -0.03108886816138412 0.030762011392369004 0.024128937802822673 -0.032897417425386585 -0.050125245559135237 0.046119946035290398 -0.0055373874205021057 0.003485764969991987 -0.04213666304921284 0.0129409587788425 0.0041691684244233116 -0.051292931283226054
leaf_weight=14.386452142149215 9.4107947908341902 6.0556736513972345 13.059182636439802 22.293749839067459 2.7540668603032818 9.8873579427599889 2.4233124069869518 4.5988005101680747 3.9416026286780816 4.3243026845157138 6.0910175070166588 4.88506857678294 4.2308819480240345 8.2237227857112867 2.5329050645232183 5.5592904053628445
leaf_count=434 67 68 89 91 71 51 36 50 87 57 72 50 50 38 54 129
internal_value=-0.000517459 -0.020209 0.0187542 0.0252955 -0.0359917 0.0130539 -0.00432883 -0.00720517 -0.00293755 0.00764613 -0.0238703 -0.00322269 -0.0173734 0.00164302 -0.0430115 -0.0334836
internal_weight=124.658 61.7834 62.8748 45.2403 27.656 22.9465 5.17738 34.1273 29.5285 19.4959 10.0326 15.1716 9.11595 17.6345 22.4786 8.0922
internal_count=1494 1158 336 231 724 140 107 434 384 225 159 168 100 105 617 183
is_linear=0
shrinkage=0.05


Tree=27
num_leaves=18
num_cat=0
split_feature=1 4 1 1 3 5 6 3 10 1 4 1 10 1 5 1 5
split_gain=17.5918 4.32709 3.6545 2.97822 2.9027 2.96987 2.08006 1.32883 1.3769 1.46419 2.50096 2.88448 1.03767 1.20729 1.00109 0.720562 0.237751
threshold=0.59137290716171276 0.48945853114128118 0.90352505445480358 0.082482993602752699 0.012244606856256725 0.3940256536006928 0.20556716620922091 0.062297865748405463 0.45065031945705419 0.4727891236543656 0.43369844555854803 0.38705936074256903 0.65817394852638256 0.38705936074256903 0.36554911732673651 0.80221450328826915 0.3342240601778031
decision_type=2 2 2 2 2 2 2 2 2 2 2 2 2 2 2 2 2
left_child=3 2 4 16 15 6 -6 8 9 10 11 -5 -10 -14 -4 -2 -1
right_child=1 -3 14 7 5 -7 -8 -9 12 -11 -12 -13 13 -15 -16 -17 -18
leaf_value=-0.047097966770545126 -0.0001909211930987175 -0.020875762909056794 0.021708452096066488 -0.049080737061180713 0.014336849823527609 -0.0096477341110474159 0.051916759836395369 -0.041034264103936485 -0.049656096081833079 -0.027509977776239505 0.034047578875019281 0.017703964308738211 -0.034060863767693982 0.0081455538824195296 0.040637392808564432 -0.022727509407403534 -0.018761668712562074
leaf_weight=13.075344033539293 8.849322207272051 8.0448989644646627 20.064037337899208 2.895487412810331 10.155797883868223 6.6633525714278212 6.3176985420286647 4.6376116499304763 3.1749062277376634 3.9566283859312525 4.9114159233868122 3.292826272547245 3.2528703808784485 3.0711292773485184 13.287671595811842 6.3840975016355506 1.6337409019470204
leaf_count=424 92 63 88 69 87 49 43 82 73 57 59 43 89 39 58 41 38
internal_value=-0.000515038 0.0134303 0.0173716 -0.0259393 0.00665176 0.0178583 0.029277 -0.0163289 -0.0113126 -0.0015126 0.00747092 -0.0130328 -0.0261478 -0.0129781 0.0294983 -0.0100484 -0.0444362
internal_weight=123.669 79.7669 71.722 43.902 38.3703 23.1368 16.4735 29.1929 24.5553 15.0564 11.0997 6.18831 9.49891 6.324 33.3517 15.2334 14.7091
internal_count=1494 521 458 973 312 179 130 511 429 228 171 112 201 128 146 133 462
is_linear=0
shrinkage=0.05


Tree=28
num_leaves=17
num_cat=0
split_feature=1 4 4 1 6 6 10 6 3 10 6 3 10 1 4 5
split_gain=16.178 3.9103 3.57412 2.91764 2.27546 4.05434 2.01625 1.83399 1.27197 1.28964 1.40702 3.13384 1.01811 1.13503 0.482189 0.257367
threshold=0.59137290716171276 0.48945853114128118 0.19662392884492877 0.082482993602752699 0.23450215905904773 0.15232906490564349 0.19752271473407748 0.033156864345073707 0.062297865748405463 0.45065031945705419 0.22146533429622653 0.017910608090460304 0.65817394852638256 0.38705936074256903 0.36494264006614691 0.34152103960514074
decision_type=2 2 2 2 2 2 2 2 2 2 2 2 2 2 2 2
left_child=3 2 -2 15 5 6 -4 -8 9 10 11 -5 -11 -14 -6 -1
right_child=1 -3 4 8 14 -7 7 -9 -10 12 -12 -13 13 -15 -16 -17
leaf_value=-0.046830628317093288 -0.0095431805458797841 -0.020086146677144479 0.0085987430181518505 -0.018199237480059544 0.044791874882828701 -0.011746692437690248 0.052516747447697965 0.018708508845463451 -0.040439421047014305 -0.049389234008205003 -0.026907746087919199 0.034330103865930793 -0.033439238006565182 0.0077001059361258839 0.026074614571191347 -0.017498992922132927
leaf_weight=12.543904256075619 10.899138055741785 7.9495085962116709 13.728403069078924 5.5946040097624117 9.308527775108816 10.710617281496523 8.1140590906143206 9.4615248255431634 4.476124830543994 3.0364999826997501 3.9634064715355626 5.4627517499029636 3.1521105505526066 3.091596893966198 9.7460251748561841 1.5741443745791901
leaf_count=425 88 63 78 85 53 75 47 69 82 73 68 75 89 39 48 37
internal_value=-0.000519703 0.0127307 0.0164478 -0.025295 0.0211762 0.0144172 0.0235373 0.0348083 -0.015796 -0.0109048 -0.00145526 0.0073792 -0.0254879 -0.0124805 0.0356655 -0.0440579
internal_weight=122.813 79.9178 71.9683 42.8951 61.0692 42.0146 31.304 17.5756 28.7771 24.301 15.0208 11.0574 9.28021 6.24371 19.0546 14.118
internal_count=1494 521 458 973 370 269 194 116 511 429 228 160 201 128 101 462
is_linear=0
shrinkage=0.05


end of trees

feature_importances:
cooccurrence_score=132
region_fit=77
age_group_fit=69
popularity_prior=63
novelty_bonus=26
known_hobby_compatibility=25
occupation_fit=24
mismatch_penalty=11

parameters:
[boosting: gbdt]
[objective: binary]
[metric: auc]
[tree_learner: serial]
[device_type: cpu]
[data_sample_strategy: bagging]
[data: ]
[valid: ]
[num_iterations: 500]
[learning_rate: 0.05]
[num_leaves: 31]
[num_threads: -1]
[seed: 42]
[deterministic: 0]
[force_col_wise: 0]
[force_row_wise: 0]
[histogram_pool_size: -1]
[max_depth: -1]
[min_data_in_leaf: 50]
[min_sum_hessian_in_leaf: 0.001]
[bagging_fraction: 1]
[pos_bagging_fraction: 1]
[neg_bagging_fraction: 1]
[bagging_freq: 0]
[bagging_seed: 400]
[bagging_by_query: 0]
[feature_fraction: 1]
[feature_fraction_bynode: 1]
[feature_fraction_seed: 30056]
[extra_trees: 0]
[extra_seed: 12879]
[early_stopping_round: 0]
[early_stopping_min_delta: 0]
[first_metric_only: 0]
[max_delta_step: 0]
[lambda_l1: 0.1]
[lambda_l2: 0.1]
[linear_lambda: 0]
[min_gain_to_split: 0]
[drop_rate: 0.1]
[max_drop: 50]
[skip_drop: 0.5]
[xgboost_dart_mode: 0]
[uniform_drop: 0]
[drop_seed: 17869]
[top_rate: 0.2]
[other_rate: 0.1]
[min_data_per_group: 100]
[max_cat_threshold: 32]
[cat_l2: 10]
[cat_smooth: 10]
[max_cat_to_onehot: 4]
[top_k: 20]
[monotone_constraints: ]
[monotone_constraints_method: basic]
[monotone_penalty: 0]
[feature_contri: ]
[forcedsplits_filename: ]
[refit_decay_rate: 0.9]
[cegb_tradeoff: 1]
[cegb_penalty_split: 0]
[cegb_penalty_feature_lazy: ]
[cegb_penalty_feature_coupled: ]
[path_smooth: 0]
[interaction_constraints: ]
[verbosity: -1]
[saved_feature_importance_type: 0]
[use_quantized_grad: 0]
[num_grad_quant_bins: 4]
[quant_train_renew_leaf: 0]
[stochastic_rounding: 1]
[linear_tree: 0]
[max_bin: 255]
[max_bin_by_feature: ]
[min_data_in_bin: 3]
[bin_construct_sample_cnt: 200000]
[data_random_seed: 175]
[is_enable_sparse: 1]
[enable_bundle: 1]
[use_missing: 1]
[zero_as_missing: 0]
[feature_pre_filter: 1]
[pre_partition: 0]
[two_round: 0]
[header: 0]
[label_column: ]
[weight_column: ]
[group_column: ]
[ignore_column: ]
[categorical_feature: 12]
[forcedbins_filename: ]
[precise_float_parser: 0]
[parser_config_file: ]
[objective_seed: 16083]
[num_class: 1]
[is_unbalance: 0]
[scale_pos_weight: 1]
[sigmoid: 1]
[boost_from_average: 1]
[reg_sqrt: 0]
[alpha: 0.9]
[fair_c: 1]
[poisson_max_delta_step: 0.7]
[tweedie_variance_power: 1.5]
[lambdarank_truncation_level: 30]
[lambdarank_norm: 1]
[label_gain: ]
[lambdarank_position_bias_regularization: 0]
[eval_at: ]
[multi_error_top_k: 1]
[auc_mu_weights: ]
[num_machines: 1]
[local_listen_port: 12400]
[time_out: 120]
[machine_list_filename: ]
[machines: ]
[gpu_platform_id: -1]
[gpu_device_id: -1]
[gpu_use_dp: 0]
[num_gpu: 1]

end of parameters

pandas_categorical:null
